FANN_FLO_2.1
num_layers=3
learning_rate=0.100000
connection_rate=1.000000
network_type=0
learning_momentum=0.500000
training_algorithm=2
train_error_function=1
train_stop_function=0
cascade_output_change_fraction=0.010000
quickprop_decay=-0.000100
quickprop_mu=1.750000
rprop_increase_factor=1.200000
rprop_decrease_factor=0.500000
rprop_delta_min=0.000000
rprop_delta_max=50.000000
rprop_delta_zero=0.100000
cascade_output_stagnation_epochs=12
cascade_candidate_change_fraction=0.010000
cascade_candidate_stagnation_epochs=12
cascade_max_out_epochs=150
cascade_min_out_epochs=50
cascade_max_cand_epochs=150
cascade_min_cand_epochs=50
cascade_num_candidate_groups=2
bit_fail_limit=3.49999994039535522461e-01
cascade_candidate_limit=1.00000000000000000000e+03
cascade_weight_multiplier=4.00000005960464477539e-01
cascade_activation_functions_count=10
cascade_activation_functions=3 5 7 8 10 11 14 15 16 17 
cascade_activation_steepnesses_count=4
cascade_activation_steepnesses=2.50000000000000000000e-01 5.00000000000000000000e-01 7.50000000000000000000e-01 1.00000000000000000000e+00 
layer_sizes=181 362 9 
scale_included=0
neurons (num_inputs, activation_function, activation_steepness)=(0, 0, 0.00000000000000000000e+00) (0, 0, 0.00000000000000000000e+00) (0, 0, 0.00000000000000000000e+00) (0, 0, 0.00000000000000000000e+00) (0, 0, 0.00000000000000000000e+00) (0, 0, 0.00000000000000000000e+00) (0, 0, 0.00000000000000000000e+00) (0, 0, 0.00000000000000000000e+00) (0, 0, 0.00000000000000000000e+00) (0, 0, 0.00000000000000000000e+00) (0, 0, 0.00000000000000000000e+00) (0, 0, 0.00000000000000000000e+00) (0, 0, 0.00000000000000000000e+00) (0, 0, 0.00000000000000000000e+00) (0, 0, 0.00000000000000000000e+00) (0, 0, 0.00000000000000000000e+00) (0, 0, 0.00000000000000000000e+00) (0, 0, 0.00000000000000000000e+00) (0, 0, 0.00000000000000000000e+00) (0, 0, 0.00000000000000000000e+00) (0, 0, 0.00000000000000000000e+00) (0, 0, 0.00000000000000000000e+00) (0, 0, 0.00000000000000000000e+00) (0, 0, 0.00000000000000000000e+00) (0, 0, 0.00000000000000000000e+00) (0, 0, 0.00000000000000000000e+00) (0, 0, 0.00000000000000000000e+00) (0, 0, 0.00000000000000000000e+00) (0, 0, 0.00000000000000000000e+00) (0, 0, 0.00000000000000000000e+00) (0, 0, 0.00000000000000000000e+00) (0, 0, 0.00000000000000000000e+00) (0, 0, 0.00000000000000000000e+00) (0, 0, 0.00000000000000000000e+00) (0, 0, 0.00000000000000000000e+00) (0, 0, 0.00000000000000000000e+00) (0, 0, 0.00000000000000000000e+00) (0, 0, 0.00000000000000000000e+00) (0, 0, 0.00000000000000000000e+00) (0, 0, 0.00000000000000000000e+00) (0, 0, 0.00000000000000000000e+00) (0, 0, 0.00000000000000000000e+00) (0, 0, 0.00000000000000000000e+00) (0, 0, 0.00000000000000000000e+00) (0, 0, 0.00000000000000000000e+00) (0, 0, 0.00000000000000000000e+00) (0, 0, 0.00000000000000000000e+00) (0, 0, 0.00000000000000000000e+00) (0, 0, 0.00000000000000000000e+00) (0, 0, 0.00000000000000000000e+00) (0, 0, 0.00000000000000000000e+00) (0, 0, 0.00000000000000000000e+00) (0, 0, 0.00000000000000000000e+00) (0, 0, 0.00000000000000000000e+00) (0, 0, 0.00000000000000000000e+00) (0, 0, 0.00000000000000000000e+00) (0, 0, 0.00000000000000000000e+00) (0, 0, 0.00000000000000000000e+00) (0, 0, 0.00000000000000000000e+00) (0, 0, 0.00000000000000000000e+00) (0, 0, 0.00000000000000000000e+00) (0, 0, 0.00000000000000000000e+00) (0, 0, 0.00000000000000000000e+00) (0, 0, 0.00000000000000000000e+00) (0, 0, 0.00000000000000000000e+00) (0, 0, 0.00000000000000000000e+00) (0, 0, 0.00000000000000000000e+00) (0, 0, 0.00000000000000000000e+00) (0, 0, 0.00000000000000000000e+00) (0, 0, 0.00000000000000000000e+00) (0, 0, 0.00000000000000000000e+00) (0, 0, 0.00000000000000000000e+00) (0, 0, 0.00000000000000000000e+00) (0, 0, 0.00000000000000000000e+00) (0, 0, 0.00000000000000000000e+00) (0, 0, 0.00000000000000000000e+00) (0, 0, 0.00000000000000000000e+00) (0, 0, 0.00000000000000000000e+00) (0, 0, 0.00000000000000000000e+00) (0, 0, 0.00000000000000000000e+00) (0, 0, 0.00000000000000000000e+00) (0, 0, 0.00000000000000000000e+00) (0, 0, 0.00000000000000000000e+00) (0, 0, 0.00000000000000000000e+00) (0, 0, 0.00000000000000000000e+00) (0, 0, 0.00000000000000000000e+00) (0, 0, 0.00000000000000000000e+00) (0, 0, 0.00000000000000000000e+00) (0, 0, 0.00000000000000000000e+00) (0, 0, 0.00000000000000000000e+00) (0, 0, 0.00000000000000000000e+00) (0, 0, 0.00000000000000000000e+00) (0, 0, 0.00000000000000000000e+00) (0, 0, 0.00000000000000000000e+00) (0, 0, 0.00000000000000000000e+00) (0, 0, 0.00000000000000000000e+00) (0, 0, 0.00000000000000000000e+00) (0, 0, 0.00000000000000000000e+00) (0, 0, 0.00000000000000000000e+00) (0, 0, 0.00000000000000000000e+00) (0, 0, 0.00000000000000000000e+00) (0, 0, 0.00000000000000000000e+00) (0, 0, 0.00000000000000000000e+00) (0, 0, 0.00000000000000000000e+00) (0, 0, 0.00000000000000000000e+00) (0, 0, 0.00000000000000000000e+00) (0, 0, 0.00000000000000000000e+00) (0, 0, 0.00000000000000000000e+00) (0, 0, 0.00000000000000000000e+00) (0, 0, 0.00000000000000000000e+00) (0, 0, 0.00000000000000000000e+00) (0, 0, 0.00000000000000000000e+00) (0, 0, 0.00000000000000000000e+00) (0, 0, 0.00000000000000000000e+00) (0, 0, 0.00000000000000000000e+00) (0, 0, 0.00000000000000000000e+00) (0, 0, 0.00000000000000000000e+00) (0, 0, 0.00000000000000000000e+00) (0, 0, 0.00000000000000000000e+00) (0, 0, 0.00000000000000000000e+00) (0, 0, 0.00000000000000000000e+00) (0, 0, 0.00000000000000000000e+00) (0, 0, 0.00000000000000000000e+00) (0, 0, 0.00000000000000000000e+00) (0, 0, 0.00000000000000000000e+00) (0, 0, 0.00000000000000000000e+00) (0, 0, 0.00000000000000000000e+00) (0, 0, 0.00000000000000000000e+00) (0, 0, 0.00000000000000000000e+00) (0, 0, 0.00000000000000000000e+00) (0, 0, 0.00000000000000000000e+00) (0, 0, 0.00000000000000000000e+00) (0, 0, 0.00000000000000000000e+00) (0, 0, 0.00000000000000000000e+00) (0, 0, 0.00000000000000000000e+00) (0, 0, 0.00000000000000000000e+00) (0, 0, 0.00000000000000000000e+00) (0, 0, 0.00000000000000000000e+00) (0, 0, 0.00000000000000000000e+00) (0, 0, 0.00000000000000000000e+00) (0, 0, 0.00000000000000000000e+00) (0, 0, 0.00000000000000000000e+00) (0, 0, 0.00000000000000000000e+00) (0, 0, 0.00000000000000000000e+00) (0, 0, 0.00000000000000000000e+00) (0, 0, 0.00000000000000000000e+00) (0, 0, 0.00000000000000000000e+00) (0, 0, 0.00000000000000000000e+00) (0, 0, 0.00000000000000000000e+00) (0, 0, 0.00000000000000000000e+00) (0, 0, 0.00000000000000000000e+00) (0, 0, 0.00000000000000000000e+00) (0, 0, 0.00000000000000000000e+00) (0, 0, 0.00000000000000000000e+00) (0, 0, 0.00000000000000000000e+00) (0, 0, 0.00000000000000000000e+00) (0, 0, 0.00000000000000000000e+00) (0, 0, 0.00000000000000000000e+00) (0, 0, 0.00000000000000000000e+00) (0, 0, 0.00000000000000000000e+00) (0, 0, 0.00000000000000000000e+00) (0, 0, 0.00000000000000000000e+00) (0, 0, 0.00000000000000000000e+00) (0, 0, 0.00000000000000000000e+00) (0, 0, 0.00000000000000000000e+00) (0, 0, 0.00000000000000000000e+00) (0, 0, 0.00000000000000000000e+00) (0, 0, 0.00000000000000000000e+00) (0, 0, 0.00000000000000000000e+00) (0, 0, 0.00000000000000000000e+00) (0, 0, 0.00000000000000000000e+00) (0, 0, 0.00000000000000000000e+00) (0, 0, 0.00000000000000000000e+00) (0, 0, 0.00000000000000000000e+00) (0, 0, 0.00000000000000000000e+00) (0, 0, 0.00000000000000000000e+00) (0, 0, 0.00000000000000000000e+00) (0, 0, 0.00000000000000000000e+00) (0, 0, 0.00000000000000000000e+00) (0, 0, 0.00000000000000000000e+00) (0, 0, 0.00000000000000000000e+00) (181, 5, 5.00000000000000000000e-01) (181, 5, 5.00000000000000000000e-01) (181, 5, 5.00000000000000000000e-01) (181, 5, 5.00000000000000000000e-01) (181, 5, 5.00000000000000000000e-01) (181, 5, 5.00000000000000000000e-01) (181, 5, 5.00000000000000000000e-01) (181, 5, 5.00000000000000000000e-01) (181, 5, 5.00000000000000000000e-01) (181, 5, 5.00000000000000000000e-01) (181, 5, 5.00000000000000000000e-01) (181, 5, 5.00000000000000000000e-01) (181, 5, 5.00000000000000000000e-01) (181, 5, 5.00000000000000000000e-01) (181, 5, 5.00000000000000000000e-01) (181, 5, 5.00000000000000000000e-01) (181, 5, 5.00000000000000000000e-01) (181, 5, 5.00000000000000000000e-01) (181, 5, 5.00000000000000000000e-01) (181, 5, 5.00000000000000000000e-01) (181, 5, 5.00000000000000000000e-01) (181, 5, 5.00000000000000000000e-01) (181, 5, 5.00000000000000000000e-01) (181, 5, 5.00000000000000000000e-01) (181, 5, 5.00000000000000000000e-01) (181, 5, 5.00000000000000000000e-01) (181, 5, 5.00000000000000000000e-01) (181, 5, 5.00000000000000000000e-01) (181, 5, 5.00000000000000000000e-01) (181, 5, 5.00000000000000000000e-01) (181, 5, 5.00000000000000000000e-01) (181, 5, 5.00000000000000000000e-01) (181, 5, 5.00000000000000000000e-01) (181, 5, 5.00000000000000000000e-01) (181, 5, 5.00000000000000000000e-01) (181, 5, 5.00000000000000000000e-01) (181, 5, 5.00000000000000000000e-01) (181, 5, 5.00000000000000000000e-01) (181, 5, 5.00000000000000000000e-01) (181, 5, 5.00000000000000000000e-01) (181, 5, 5.00000000000000000000e-01) (181, 5, 5.00000000000000000000e-01) (181, 5, 5.00000000000000000000e-01) (181, 5, 5.00000000000000000000e-01) (181, 5, 5.00000000000000000000e-01) (181, 5, 5.00000000000000000000e-01) (181, 5, 5.00000000000000000000e-01) (181, 5, 5.00000000000000000000e-01) (181, 5, 5.00000000000000000000e-01) (181, 5, 5.00000000000000000000e-01) (181, 5, 5.00000000000000000000e-01) (181, 5, 5.00000000000000000000e-01) (181, 5, 5.00000000000000000000e-01) (181, 5, 5.00000000000000000000e-01) (181, 5, 5.00000000000000000000e-01) (181, 5, 5.00000000000000000000e-01) (181, 5, 5.00000000000000000000e-01) (181, 5, 5.00000000000000000000e-01) (181, 5, 5.00000000000000000000e-01) (181, 5, 5.00000000000000000000e-01) (181, 5, 5.00000000000000000000e-01) (181, 5, 5.00000000000000000000e-01) (181, 5, 5.00000000000000000000e-01) (181, 5, 5.00000000000000000000e-01) (181, 5, 5.00000000000000000000e-01) (181, 5, 5.00000000000000000000e-01) (181, 5, 5.00000000000000000000e-01) (181, 5, 5.00000000000000000000e-01) (181, 5, 5.00000000000000000000e-01) (181, 5, 5.00000000000000000000e-01) (181, 5, 5.00000000000000000000e-01) (181, 5, 5.00000000000000000000e-01) (181, 5, 5.00000000000000000000e-01) (181, 5, 5.00000000000000000000e-01) (181, 5, 5.00000000000000000000e-01) (181, 5, 5.00000000000000000000e-01) (181, 5, 5.00000000000000000000e-01) (181, 5, 5.00000000000000000000e-01) (181, 5, 5.00000000000000000000e-01) (181, 5, 5.00000000000000000000e-01) (181, 5, 5.00000000000000000000e-01) (181, 5, 5.00000000000000000000e-01) (181, 5, 5.00000000000000000000e-01) (181, 5, 5.00000000000000000000e-01) (181, 5, 5.00000000000000000000e-01) (181, 5, 5.00000000000000000000e-01) (181, 5, 5.00000000000000000000e-01) (181, 5, 5.00000000000000000000e-01) (181, 5, 5.00000000000000000000e-01) (181, 5, 5.00000000000000000000e-01) (181, 5, 5.00000000000000000000e-01) (181, 5, 5.00000000000000000000e-01) (181, 5, 5.00000000000000000000e-01) (181, 5, 5.00000000000000000000e-01) (181, 5, 5.00000000000000000000e-01) (181, 5, 5.00000000000000000000e-01) (181, 5, 5.00000000000000000000e-01) (181, 5, 5.00000000000000000000e-01) (181, 5, 5.00000000000000000000e-01) (181, 5, 5.00000000000000000000e-01) (181, 5, 5.00000000000000000000e-01) (181, 5, 5.00000000000000000000e-01) (181, 5, 5.00000000000000000000e-01) (181, 5, 5.00000000000000000000e-01) (181, 5, 5.00000000000000000000e-01) (181, 5, 5.00000000000000000000e-01) (181, 5, 5.00000000000000000000e-01) (181, 5, 5.00000000000000000000e-01) (181, 5, 5.00000000000000000000e-01) (181, 5, 5.00000000000000000000e-01) (181, 5, 5.00000000000000000000e-01) (181, 5, 5.00000000000000000000e-01) (181, 5, 5.00000000000000000000e-01) (181, 5, 5.00000000000000000000e-01) (181, 5, 5.00000000000000000000e-01) (181, 5, 5.00000000000000000000e-01) (181, 5, 5.00000000000000000000e-01) (181, 5, 5.00000000000000000000e-01) (181, 5, 5.00000000000000000000e-01) (181, 5, 5.00000000000000000000e-01) (181, 5, 5.00000000000000000000e-01) (181, 5, 5.00000000000000000000e-01) (181, 5, 5.00000000000000000000e-01) (181, 5, 5.00000000000000000000e-01) (181, 5, 5.00000000000000000000e-01) (181, 5, 5.00000000000000000000e-01) (181, 5, 5.00000000000000000000e-01) (181, 5, 5.00000000000000000000e-01) (181, 5, 5.00000000000000000000e-01) (181, 5, 5.00000000000000000000e-01) (181, 5, 5.00000000000000000000e-01) (181, 5, 5.00000000000000000000e-01) (181, 5, 5.00000000000000000000e-01) (181, 5, 5.00000000000000000000e-01) (181, 5, 5.00000000000000000000e-01) (181, 5, 5.00000000000000000000e-01) (181, 5, 5.00000000000000000000e-01) (181, 5, 5.00000000000000000000e-01) (181, 5, 5.00000000000000000000e-01) (181, 5, 5.00000000000000000000e-01) (181, 5, 5.00000000000000000000e-01) (181, 5, 5.00000000000000000000e-01) (181, 5, 5.00000000000000000000e-01) (181, 5, 5.00000000000000000000e-01) (181, 5, 5.00000000000000000000e-01) (181, 5, 5.00000000000000000000e-01) (181, 5, 5.00000000000000000000e-01) (181, 5, 5.00000000000000000000e-01) (181, 5, 5.00000000000000000000e-01) (181, 5, 5.00000000000000000000e-01) (181, 5, 5.00000000000000000000e-01) (181, 5, 5.00000000000000000000e-01) (181, 5, 5.00000000000000000000e-01) (181, 5, 5.00000000000000000000e-01) (181, 5, 5.00000000000000000000e-01) (181, 5, 5.00000000000000000000e-01) (181, 5, 5.00000000000000000000e-01) (181, 5, 5.00000000000000000000e-01) (181, 5, 5.00000000000000000000e-01) (181, 5, 5.00000000000000000000e-01) (181, 5, 5.00000000000000000000e-01) (181, 5, 5.00000000000000000000e-01) (181, 5, 5.00000000000000000000e-01) (181, 5, 5.00000000000000000000e-01) (181, 5, 5.00000000000000000000e-01) (181, 5, 5.00000000000000000000e-01) (181, 5, 5.00000000000000000000e-01) (181, 5, 5.00000000000000000000e-01) (181, 5, 5.00000000000000000000e-01) (181, 5, 5.00000000000000000000e-01) (181, 5, 5.00000000000000000000e-01) (181, 5, 5.00000000000000000000e-01) (181, 5, 5.00000000000000000000e-01) (181, 5, 5.00000000000000000000e-01) (181, 5, 5.00000000000000000000e-01) (181, 5, 5.00000000000000000000e-01) (181, 5, 5.00000000000000000000e-01) (181, 5, 5.00000000000000000000e-01) (181, 5, 5.00000000000000000000e-01) (181, 5, 5.00000000000000000000e-01) (181, 5, 5.00000000000000000000e-01) (181, 5, 5.00000000000000000000e-01) (181, 5, 5.00000000000000000000e-01) (181, 5, 5.00000000000000000000e-01) (181, 5, 5.00000000000000000000e-01) (181, 5, 5.00000000000000000000e-01) (181, 5, 5.00000000000000000000e-01) (181, 5, 5.00000000000000000000e-01) (181, 5, 5.00000000000000000000e-01) (181, 5, 5.00000000000000000000e-01) (181, 5, 5.00000000000000000000e-01) (181, 5, 5.00000000000000000000e-01) (181, 5, 5.00000000000000000000e-01) (181, 5, 5.00000000000000000000e-01) (181, 5, 5.00000000000000000000e-01) (181, 5, 5.00000000000000000000e-01) (181, 5, 5.00000000000000000000e-01) (181, 5, 5.00000000000000000000e-01) (181, 5, 5.00000000000000000000e-01) (181, 5, 5.00000000000000000000e-01) (181, 5, 5.00000000000000000000e-01) (181, 5, 5.00000000000000000000e-01) (181, 5, 5.00000000000000000000e-01) (181, 5, 5.00000000000000000000e-01) (181, 5, 5.00000000000000000000e-01) (181, 5, 5.00000000000000000000e-01) (181, 5, 5.00000000000000000000e-01) (181, 5, 5.00000000000000000000e-01) (181, 5, 5.00000000000000000000e-01) (181, 5, 5.00000000000000000000e-01) (181, 5, 5.00000000000000000000e-01) (181, 5, 5.00000000000000000000e-01) (181, 5, 5.00000000000000000000e-01) (181, 5, 5.00000000000000000000e-01) (181, 5, 5.00000000000000000000e-01) (181, 5, 5.00000000000000000000e-01) (181, 5, 5.00000000000000000000e-01) (181, 5, 5.00000000000000000000e-01) (181, 5, 5.00000000000000000000e-01) (181, 5, 5.00000000000000000000e-01) (181, 5, 5.00000000000000000000e-01) (181, 5, 5.00000000000000000000e-01) (181, 5, 5.00000000000000000000e-01) (181, 5, 5.00000000000000000000e-01) (181, 5, 5.00000000000000000000e-01) (181, 5, 5.00000000000000000000e-01) (181, 5, 5.00000000000000000000e-01) (181, 5, 5.00000000000000000000e-01) (181, 5, 5.00000000000000000000e-01) (181, 5, 5.00000000000000000000e-01) (181, 5, 5.00000000000000000000e-01) (181, 5, 5.00000000000000000000e-01) (181, 5, 5.00000000000000000000e-01) (181, 5, 5.00000000000000000000e-01) (181, 5, 5.00000000000000000000e-01) (181, 5, 5.00000000000000000000e-01) (181, 5, 5.00000000000000000000e-01) (181, 5, 5.00000000000000000000e-01) (181, 5, 5.00000000000000000000e-01) (181, 5, 5.00000000000000000000e-01) (181, 5, 5.00000000000000000000e-01) (181, 5, 5.00000000000000000000e-01) (181, 5, 5.00000000000000000000e-01) (181, 5, 5.00000000000000000000e-01) (181, 5, 5.00000000000000000000e-01) (181, 5, 5.00000000000000000000e-01) (181, 5, 5.00000000000000000000e-01) (181, 5, 5.00000000000000000000e-01) (181, 5, 5.00000000000000000000e-01) (181, 5, 5.00000000000000000000e-01) (181, 5, 5.00000000000000000000e-01) (181, 5, 5.00000000000000000000e-01) (181, 5, 5.00000000000000000000e-01) (181, 5, 5.00000000000000000000e-01) (181, 5, 5.00000000000000000000e-01) (181, 5, 5.00000000000000000000e-01) (181, 5, 5.00000000000000000000e-01) (181, 5, 5.00000000000000000000e-01) (181, 5, 5.00000000000000000000e-01) (181, 5, 5.00000000000000000000e-01) (181, 5, 5.00000000000000000000e-01) (181, 5, 5.00000000000000000000e-01) (181, 5, 5.00000000000000000000e-01) (181, 5, 5.00000000000000000000e-01) (181, 5, 5.00000000000000000000e-01) (181, 5, 5.00000000000000000000e-01) (181, 5, 5.00000000000000000000e-01) (181, 5, 5.00000000000000000000e-01) (181, 5, 5.00000000000000000000e-01) (181, 5, 5.00000000000000000000e-01) (181, 5, 5.00000000000000000000e-01) (181, 5, 5.00000000000000000000e-01) (181, 5, 5.00000000000000000000e-01) (181, 5, 5.00000000000000000000e-01) (181, 5, 5.00000000000000000000e-01) (181, 5, 5.00000000000000000000e-01) (181, 5, 5.00000000000000000000e-01) (181, 5, 5.00000000000000000000e-01) (181, 5, 5.00000000000000000000e-01) (181, 5, 5.00000000000000000000e-01) (181, 5, 5.00000000000000000000e-01) (181, 5, 5.00000000000000000000e-01) (181, 5, 5.00000000000000000000e-01) (181, 5, 5.00000000000000000000e-01) (181, 5, 5.00000000000000000000e-01) (181, 5, 5.00000000000000000000e-01) (181, 5, 5.00000000000000000000e-01) (181, 5, 5.00000000000000000000e-01) (181, 5, 5.00000000000000000000e-01) (181, 5, 5.00000000000000000000e-01) (181, 5, 5.00000000000000000000e-01) (181, 5, 5.00000000000000000000e-01) (181, 5, 5.00000000000000000000e-01) (181, 5, 5.00000000000000000000e-01) (181, 5, 5.00000000000000000000e-01) (181, 5, 5.00000000000000000000e-01) (181, 5, 5.00000000000000000000e-01) (181, 5, 5.00000000000000000000e-01) (181, 5, 5.00000000000000000000e-01) (181, 5, 5.00000000000000000000e-01) (181, 5, 5.00000000000000000000e-01) (181, 5, 5.00000000000000000000e-01) (181, 5, 5.00000000000000000000e-01) (181, 5, 5.00000000000000000000e-01) (181, 5, 5.00000000000000000000e-01) (181, 5, 5.00000000000000000000e-01) (181, 5, 5.00000000000000000000e-01) (181, 5, 5.00000000000000000000e-01) (181, 5, 5.00000000000000000000e-01) (181, 5, 5.00000000000000000000e-01) (181, 5, 5.00000000000000000000e-01) (181, 5, 5.00000000000000000000e-01) (181, 5, 5.00000000000000000000e-01) (181, 5, 5.00000000000000000000e-01) (181, 5, 5.00000000000000000000e-01) (181, 5, 5.00000000000000000000e-01) (181, 5, 5.00000000000000000000e-01) (181, 5, 5.00000000000000000000e-01) (181, 5, 5.00000000000000000000e-01) (181, 5, 5.00000000000000000000e-01) (181, 5, 5.00000000000000000000e-01) (181, 5, 5.00000000000000000000e-01) (181, 5, 5.00000000000000000000e-01) (181, 5, 5.00000000000000000000e-01) (181, 5, 5.00000000000000000000e-01) (181, 5, 5.00000000000000000000e-01) (181, 5, 5.00000000000000000000e-01) (181, 5, 5.00000000000000000000e-01) (181, 5, 5.00000000000000000000e-01) (181, 5, 5.00000000000000000000e-01) (181, 5, 5.00000000000000000000e-01) (181, 5, 5.00000000000000000000e-01) (181, 5, 5.00000000000000000000e-01) (181, 5, 5.00000000000000000000e-01) (181, 5, 5.00000000000000000000e-01) (181, 5, 5.00000000000000000000e-01) (181, 5, 5.00000000000000000000e-01) (181, 5, 5.00000000000000000000e-01) (181, 5, 5.00000000000000000000e-01) (181, 5, 5.00000000000000000000e-01) (181, 5, 5.00000000000000000000e-01) (181, 5, 5.00000000000000000000e-01) (181, 5, 5.00000000000000000000e-01) (181, 5, 5.00000000000000000000e-01) (181, 5, 5.00000000000000000000e-01) (181, 5, 5.00000000000000000000e-01) (181, 5, 5.00000000000000000000e-01) (181, 5, 5.00000000000000000000e-01) (181, 5, 5.00000000000000000000e-01) (181, 5, 5.00000000000000000000e-01) (181, 5, 5.00000000000000000000e-01) (181, 5, 5.00000000000000000000e-01) (181, 5, 5.00000000000000000000e-01) (181, 5, 5.00000000000000000000e-01) (181, 5, 5.00000000000000000000e-01) (181, 5, 5.00000000000000000000e-01) (181, 5, 5.00000000000000000000e-01) (181, 5, 5.00000000000000000000e-01) (181, 5, 5.00000000000000000000e-01) (181, 5, 5.00000000000000000000e-01) (181, 5, 5.00000000000000000000e-01) (0, 5, 0.00000000000000000000e+00) (362, 3, 5.00000000000000000000e-01) (362, 3, 5.00000000000000000000e-01) (362, 3, 5.00000000000000000000e-01) (362, 3, 5.00000000000000000000e-01) (362, 3, 5.00000000000000000000e-01) (362, 3, 5.00000000000000000000e-01) (362, 3, 5.00000000000000000000e-01) (362, 3, 5.00000000000000000000e-01) (0, 3, 0.00000000000000000000e+00) 
connections (connected_to_neuron, weight)=(0, -4.24028366804122924805e-01) (1, -3.67272734642028808594e-01) (2, -1.88228741288185119629e-01) (3, -3.13658744096755981445e-01) (4, -3.93679767847061157227e-01) (5, -3.37194710969924926758e-01) (6, -4.06827658414840698242e-01) (7, -3.23237240314483642578e-01) (8, -1.45490318536758422852e-01) (9, -1.76213055849075317383e-01) (10, -2.53190338611602783203e-01) (11, -3.26800018548965454102e-01) (12, -2.28208318352699279785e-01) (13, -2.48119458556175231934e-01) (14, -2.54248887300491333008e-01) (15, -2.57036745548248291016e-01) (16, -2.29762688279151916504e-01) (17, -2.81536251306533813477e-01) (18, -1.36907786130905151367e-01) (19, -2.41539016366004943848e-01) (20, -1.62879839539527893066e-01) (21, -1.83718249201774597168e-01) (22, -1.36278733611106872559e-01) (23, -1.93452313542366027832e-01) (24, -2.47560396790504455566e-01) (25, -2.11746886372566223145e-01) (26, -1.28367438912391662598e-01) (27, -1.23967155814170837402e-01) (28, -1.73463061451911926270e-01) (29, -2.59911745786666870117e-01) (30, -1.08342438936233520508e-01) (31, -2.69318550825119018555e-01) (32, -3.11172246932983398438e-01) (33, -2.71798402070999145508e-01) (34, -4.15774881839752197266e-01) (35, -2.53630280494689941406e-01) (36, -3.59627127647399902344e-01) (37, -3.59028577804565429688e-01) (38, -3.13293516635894775391e-01) (39, -3.77642154693603515625e-01) (40, -4.20348882675170898438e-01) (41, -2.60521858930587768555e-01) (42, -8.65750491619110107422e-01) (43, -8.87746393680572509766e-01) (44, -9.44841921329498291016e-01) (45, -1.06187605857849121094e+00) (46, -1.03878617286682128906e+00) (47, -1.06860780715942382812e+00) (48, -1.05146133899688720703e+00) (49, -1.04746592044830322266e+00) (50, -1.18430817127227783203e+00) (51, -1.08283722400665283203e+00) (52, -1.02622866630554199219e+00) (53, -9.18863952159881591797e-01) (54, -8.78770411014556884766e-01) (55, -9.50324356555938720703e-01) (56, -8.46711337566375732422e-01) (57, -9.21377778053283691406e-01) (58, -1.41284668445587158203e+00) (59, -1.51335132122039794922e+00) (60, -1.50692737102508544922e+00) (61, -7.25509345531463623047e-01) (62, -6.88313782215118408203e-01) (63, -6.73591196537017822266e-01) (64, -7.49967455863952636719e-01) (65, -8.55259716510772705078e-01) (66, -5.83749628067016601562e+00) (67, -2.63179183006286621094e+00) (68, -2.76728057861328125000e+00) (69, -5.43231296539306640625e+00) (70, -2.05556845664978027344e+00) (71, -1.55712485313415527344e+00) (72, -1.50485813617706298828e+00) (73, -1.45863866806030273438e+00) (74, -6.42631590366363525391e-01) (75, -3.42336368560791015625e+00) (76, -8.53777527809143066406e-01) (77, -8.98974955081939697266e-01) (78, -8.02400469779968261719e-01) (79, -7.12707519531250000000e-01) (80, -3.45562517642974853516e-01) (81, -1.80164754390716552734e-01) (82, -5.70289850234985351562e-01) (83, -4.29540514945983886719e-01) (84, -2.38508060574531555176e-01) (85, -1.68509051203727722168e-01) (86, -9.93135794997215270996e-02) (87, -1.14510715007781982422e-01) (88, -1.22730731964111328125e-01) (89, -1.20688825845718383789e-01) (90, -2.86634266376495361328e-01) (91, -2.84638166427612304688e-01) (92, -1.96627423167228698730e-01) (93, -5.81350147724151611328e-01) (94, -2.85614550113677978516e-01) (95, -3.62188011407852172852e-01) (96, -3.72149735689163208008e-01) (97, -5.98213016986846923828e-01) (98, -9.73228633403778076172e-01) (99, -2.71420806646347045898e-01) (100, -3.63704234361648559570e-01) (101, -3.75735580921173095703e-01) (102, -3.76298874616622924805e-01) (103, -3.94952744245529174805e-01) (104, -3.61365556716918945312e-01) (105, -3.35959225893020629883e-01) (106, -2.07913696765899658203e-01) (107, -2.35330522060394287109e-01) (108, -2.90044635534286499023e-01) (109, -4.41421687602996826172e-01) (110, -2.78998583555221557617e-01) (111, -3.60080689191818237305e-01) (112, -3.70063155889511108398e-01) (113, -4.01651203632354736328e-01) (114, -1.11560440063476562500e+00) (115, -1.02950477600097656250e+00) (116, -1.02934479713439941406e+00) (117, -1.14162552356719970703e+00) (118, -1.11003422737121582031e+00) (119, -1.10462272167205810547e+00) (120, -1.83483242988586425781e+00) (121, -1.09878361225128173828e+00) (122, -1.72418224811553955078e+00) (123, -1.72132515907287597656e+00) (124, -1.74777615070343017578e+00) (125, -2.13460278511047363281e+00) (126, -1.11405754089355468750e+00) (127, -1.09954988956451416016e+00) (128, -1.04425370693206787109e+00) (129, -1.15518558025360107422e+00) (130, -1.20678794384002685547e+00) (131, -1.12572050094604492188e+00) (132, -1.08492934703826904297e+00) (133, -1.16350734233856201172e+00) (134, -1.11641216278076171875e+00) (135, -1.03363132476806640625e+00) (136, -1.12012815475463867188e+00) (137, -1.11697804927825927734e+00) (138, -1.10646998882293701172e+00) (139, -1.09810948371887207031e+00) (140, -1.05161356925964355469e+00) (141, -1.10321474075317382812e+00) (142, -1.18688166141510009766e+00) (143, -2.88540780544281005859e-01) (144, -2.18111172318458557129e-01) (145, -2.41307049989700317383e-01) (146, -1.51397660374641418457e-01) (147, -2.85465747117996215820e-01) (148, -1.95909947156906127930e-01) (149, -7.01787710189819335938e-01) (150, -6.45984292030334472656e-01) (151, -6.36109471321105957031e-01) (152, -5.93351602554321289062e-01) (153, -7.20103740692138671875e-01) (154, -7.11157441139221191406e-01) (155, -6.94334089756011962891e-01) (156, -7.69214808940887451172e-01) (157, -7.45292007923126220703e-01) (158, -2.68847286701202392578e-01) (159, 2.12016239762306213379e-01) (160, 7.99033045768737792969e-02) (161, 4.17656339704990386963e-02) (162, 9.87697467207908630371e-02) (163, 2.06726968288421630859e-01) (164, 5.73981180787086486816e-02) (165, 1.86373144388198852539e-01) (166, 1.78155869245529174805e-01) (167, 1.05822414159774780273e-01) (168, -4.73096311092376708984e-01) (169, -4.37253862619400024414e-01) (170, -4.73827838897705078125e-01) (171, -3.25551778078079223633e-01) (172, -3.53431671857833862305e-01) (173, -4.56214159727096557617e-01) (174, -4.82638835906982421875e-01) (175, -4.35923695564270019531e-01) (176, -3.91645044088363647461e-01) (177, -4.96551036834716796875e-01) (178, -8.30556929111480712891e-01) (179, -1.81377619504928588867e-01) (180, 6.87260568141937255859e-01) (0, 1.71914678066968917847e-02) (1, -1.42007945105433464050e-02) (2, 4.52420748770236968994e-02) (3, 8.51226449012756347656e-02) (4, 6.26766383647918701172e-02) (5, 1.34284034371376037598e-01) (6, 9.73127782344818115234e-02) (7, 9.87894833087921142578e-02) (8, 1.33355528116226196289e-01) (9, 1.06163904070854187012e-01) (10, 1.75527632236480712891e-01) (11, 1.66269958019256591797e-01) (12, -1.51440724730491638184e-01) (13, -1.06014899909496307373e-01) (14, -6.29831627011299133301e-02) (15, 1.29502579569816589355e-01) (16, -1.03231228888034820557e-01) (17, -1.25342294573783874512e-01) (18, -8.09215083718299865723e-02) (19, -7.87186846137046813965e-02) (20, -1.41249775886535644531e-01) (21, -1.22939445078372955322e-01) (22, -1.44993722438812255859e-01) (23, -1.06314264237880706787e-01) (24, -1.05677478015422821045e-01) (25, -8.48056897521018981934e-02) (26, -1.72985613346099853516e-01) (27, -1.09155982732772827148e-01) (28, -1.79425850510597229004e-01) (29, -1.04909799993038177490e-01) (30, -2.84482967108488082886e-02) (31, -1.18515670299530029297e-01) (32, -7.49478340148925781250e-02) (33, -1.41031265258789062500e-01) (34, -9.17428545653820037842e-03) (35, 1.19475154206156730652e-02) (36, 1.69834364205598831177e-02) (37, -8.81304740905761718750e-02) (38, -6.55320286750793457031e-02) (39, -2.80015021562576293945e-02) (40, 1.10874054953455924988e-02) (41, -9.77087020874023437500e-02) (42, -7.75585770606994628906e-02) (43, -4.14691530168056488037e-02) (44, -1.72288388013839721680e-01) (45, 4.44217957556247711182e-03) (46, -3.21651622653007507324e-02) (47, 5.35283051431179046631e-03) (48, 5.30984811484813690186e-02) (49, 7.57963359355926513672e-02) (50, 9.33665335178375244141e-02) (51, 8.26656669378280639648e-02) (52, -7.84693136811256408691e-02) (53, -8.69553983211517333984e-02) (54, -5.66384010016918182373e-02) (55, -2.22894009202718734741e-02) (56, 1.62808876484632492065e-02) (57, -4.28618602454662322998e-02) (58, 5.73303923010826110840e-02) (59, 2.72043701261281967163e-02) (60, 4.30216863751411437988e-02) (61, 1.76528003066778182983e-02) (62, -1.18395969271659851074e-01) (63, -5.97393326461315155029e-02) (64, 4.00397889316082000732e-02) (65, 3.11055947095155715942e-02) (66, -1.94249242544174194336e-01) (67, -1.27600785344839096069e-02) (68, -1.39594137668609619141e-01) (69, -3.64886708557605743408e-02) (70, -6.65563270449638366699e-02) (71, -1.87625452876091003418e-01) (72, 4.66163083910942077637e-02) (73, 2.45415251702070236206e-02) (74, 2.06581994891166687012e-01) (75, -2.22218587994575500488e-01) (76, 9.49437320232391357422e-02) (77, 2.37696524709463119507e-02) (78, 1.26234591007232666016e-01) (79, 4.42902743816375732422e-02) (80, 1.94954439997673034668e-01) (81, 1.43662810325622558594e-01) (82, 2.24272340536117553711e-01) (83, 2.12997853755950927734e-01) (84, 1.76476344466209411621e-01) (85, 9.23982709646224975586e-02) (86, 1.16221837699413299561e-01) (87, 1.18486128747463226318e-01) (88, 1.75794601440429687500e-01) (89, 9.78577584028244018555e-02) (90, 6.96815997362136840820e-02) (91, 1.42277911305427551270e-01) (92, 3.92864830791950225830e-02) (93, 6.87008574604988098145e-02) (94, 2.04017966985702514648e-01) (95, 2.09309428930282592773e-01) (96, 4.13368716835975646973e-02) (97, 5.35163991153240203857e-02) (98, 1.71508520841598510742e-01) (99, 9.54275056719779968262e-02) (100, 2.15356156229972839355e-01) (101, 7.88010433316230773926e-02) (102, 1.43473997712135314941e-01) (103, 5.45797944068908691406e-02) (104, 9.96968299150466918945e-02) (105, 1.22646689414978027344e-01) (106, 9.89398434758186340332e-02) (107, 1.96164116263389587402e-01) (108, 1.45403087139129638672e-01) (109, 6.56370967626571655273e-02) (110, 5.96775412559509277344e-02) (111, -4.14629504084587097168e-02) (112, -2.03151293098926544189e-02) (113, 5.73914647102355957031e-02) (114, -3.20857316255569458008e-02) (115, -4.77750487625598907471e-02) (116, -8.23184996843338012695e-02) (117, 5.82150556147098541260e-02) (118, 3.90587896108627319336e-02) (119, 9.36795324087142944336e-02) (120, -7.57710784673690795898e-02) (121, 8.28434154391288757324e-02) (122, 1.03187758941203355789e-03) (123, -9.59316417574882507324e-02) (124, -7.33605548739433288574e-02) (125, -2.21921969205141067505e-02) (126, -8.23380723595619201660e-02) (127, -5.68649806082248687744e-02) (128, 1.06092086061835289001e-02) (129, 6.50125220417976379395e-02) (130, 1.55800236389040946960e-02) (131, -3.67309985449537634850e-04) (132, -8.12295302748680114746e-02) (133, -1.72650471329689025879e-01) (134, 1.29154408350586891174e-02) (135, -1.85847226530313491821e-02) (136, 9.91419609636068344116e-03) (137, -1.81218925863504409790e-02) (138, -1.62824258208274841309e-01) (139, -1.87034770846366882324e-01) (140, -4.04282361268997192383e-02) (141, -1.87753960490226745605e-01) (142, -1.54419735074043273926e-01) (143, -1.86665281653404235840e-01) (144, -5.62845878303050994873e-02) (145, -9.71382930874824523926e-02) (146, -1.45801171660423278809e-01) (147, -2.21791923046112060547e-01) (148, -1.51237025856971740723e-01) (149, -2.50481069087982177734e-01) (150, -7.60642588138580322266e-02) (151, 8.85223522782325744629e-02) (152, 1.85234561562538146973e-01) (153, 8.26552659273147583008e-02) (154, 1.17162048816680908203e-01) (155, 9.75041836500167846680e-03) (156, 1.62156611680984497070e-01) (157, 1.32125973701477050781e-01) (158, 4.62590418756008148193e-02) (159, 6.57797530293464660645e-02) (160, 8.92038121819496154785e-02) (161, 3.00895214080810546875e-01) (162, 3.04606765508651733398e-01) (163, 2.49171048402786254883e-01) (164, 3.15076798200607299805e-01) (165, 2.11755886673927307129e-01) (166, 3.24561715126037597656e-01) (167, 2.13973343372344970703e-01) (168, 1.70391008257865905762e-01) (169, 1.46086826920509338379e-01) (170, 2.07686960697174072266e-01) (171, 3.17689239978790283203e-01) (172, 1.45499631762504577637e-01) (173, 2.79983490705490112305e-01) (174, 1.58825471997261047363e-01) (175, 3.26428949832916259766e-01) (176, 2.16383486986160278320e-01) (177, 2.46866852045059204102e-01) (178, 3.28031659126281738281e-01) (179, 2.89983183145523071289e-01) (180, 3.12339615821838378906e+00) (0, -3.54260182380676269531e+00) (1, -3.67524218559265136719e+00) (2, -2.49317526817321777344e+00) (3, -2.49641704559326171875e+00) (4, -2.39172410964965820312e+00) (5, -2.42280483245849609375e+00) (6, -2.51712107658386230469e+00) (7, -2.44528508186340332031e+00) (8, -3.45779824256896972656e+00) (9, -2.25944352149963378906e+00) (10, -2.16418361663818359375e+00) (11, -2.23590230941772460938e+00) (12, -2.50224137306213378906e+00) (13, -2.47928190231323242188e+00) (14, -2.48509454727172851562e+00) (15, -2.44263482093811035156e+00) (16, -2.48988366127014160156e+00) (17, -1.95419132709503173828e+00) (18, -1.96338450908660888672e+00) (19, -2.50566077232360839844e+00) (20, -2.36003398895263671875e+00) (21, -2.45700597763061523438e+00) (22, -2.50282788276672363281e+00) (23, -2.42356920242309570312e+00) (24, -2.44056510925292968750e+00) (25, -2.52895569801330566406e+00) (26, -2.35691905021667480469e+00) (27, -2.33048248291015625000e+00) (28, -2.13743233680725097656e+00) (29, -2.20206284523010253906e+00) (30, -2.43136882781982421875e+00) (31, -2.38246178627014160156e+00) (32, -2.37973237037658691406e+00) (33, -2.51629996299743652344e+00) (34, -2.53138256072998046875e+00) (35, -2.42678642272949218750e+00) (36, -2.42897009849548339844e+00) (37, -1.27988815307617187500e+00) (38, -1.18503189086914062500e+00) (39, -1.07736706733703613281e+00) (40, -1.04393339157104492188e+00) (41, -9.82619643211364746094e-01) (42, -9.91097092628479003906e-01) (43, -1.02959525585174560547e+00) (44, -1.13655877113342285156e+00) (45, -1.15084886550903320312e+00) (46, -1.55421233177185058594e+00) (47, -1.59969043731689453125e+00) (48, -1.61577308177947998047e+00) (49, -1.03886926174163818359e+00) (50, -1.19317364692687988281e+00) (51, -1.17828106880187988281e+00) (52, -1.29730725288391113281e+00) (53, -1.47975003719329833984e+00) (54, -1.58299493789672851562e+00) (55, -2.42848157882690429688e+00) (56, -2.37089610099792480469e+00) (57, -2.83340668678283691406e+00) (58, -1.09555649757385253906e+00) (59, -9.11264002323150634766e-01) (60, -9.09706652164459228516e-01) (61, -1.04859876632690429688e+00) (62, -9.49055731296539306641e-01) (63, -9.44769084453582763672e-01) (64, -1.66392648220062255859e+00) (65, -1.72100687026977539062e+00) (66, -8.59048557281494140625e+00) (67, -8.48539638519287109375e+00) (68, -8.47579956054687500000e+00) (69, -8.59048461914062500000e+00) (70, -8.62215328216552734375e+00) (71, -1.96917514801025390625e+01) (72, -1.45866775512695312500e+01) (73, -1.44268245697021484375e+01) (74, -6.13245582580566406250e+00) (75, -2.01734600067138671875e+01) (76, -2.00278968811035156250e+01) (77, -2.37082748413085937500e+01) (78, -2.37746791839599609375e+01) (79, -1.21245298385620117188e+01) (80, -7.10678291320800781250e+00) (81, -7.97105550765991210938e+00) (82, -1.21993541717529296875e+01) (83, -1.21483182907104492188e+01) (84, -1.35208473205566406250e+01) (85, -1.35969753265380859375e+01) (86, -1.36819610595703125000e+01) (87, -1.21091098785400390625e+01) (88, -7.07136440277099609375e+00) (89, -7.07805633544921875000e+00) (90, -1.02509536743164062500e+01) (91, -1.02593355178833007812e+01) (92, -1.02049198150634765625e+01) (93, -1.22209863662719726562e+01) (94, -1.22250823974609375000e+01) (95, -1.20633926391601562500e+01) (96, -1.01873340606689453125e+01) (97, -1.07224912643432617188e+01) (98, -1.04408502578735351562e+01) (99, -1.04503936767578125000e+01) (100, -8.79878711700439453125e+00) (101, -1.06400442123413085938e+01) (102, -6.45291900634765625000e+00) (103, -6.50581264495849609375e+00) (104, -2.48109283447265625000e+01) (105, -5.76317644119262695312e+00) (106, -5.74714517593383789062e+00) (107, -1.88266932964324951172e+00) (108, -1.85208916664123535156e+00) (109, -1.90839600563049316406e+00) (110, -9.78778243064880371094e-01) (111, -9.75127875804901123047e-01) (112, -9.00108814239501953125e-01) (113, -1.08113038539886474609e+00) (114, -1.35209703445434570312e+00) (115, -1.40570890903472900391e+00) (116, -1.14665007591247558594e+00) (117, -1.53006815910339355469e+00) (118, -1.10583865642547607422e+00) (119, -3.53956460952758789062e-01) (120, -2.95961081981658935547e-01) (121, -2.24664792418479919434e-01) (122, -9.43238019943237304688e-01) (123, -4.18116617202758789062e+00) (124, -4.57446068525314331055e-01) (125, -8.22635769844055175781e-01) (126, -5.30006885528564453125e-01) (127, -6.15083098411560058594e-01) (128, -6.23764812946319580078e-01) (129, -5.80880463123321533203e-01) (130, -2.80445247888565063477e-01) (131, -2.86995768547058105469e-01) (132, -4.09001022577285766602e-01) (133, -2.70133763551712036133e-01) (134, -4.10797387361526489258e-01) (135, -3.37839037179946899414e-01) (136, -2.85422503948211669922e-01) (137, -3.22984755039215087891e-01) (138, -4.02464777231216430664e-01) (139, -2.77797281742095947266e-01) (140, -1.81814536452293395996e-01) (141, -2.13397145271301269531e-01) (142, -2.04843550920486450195e-01) (143, -2.35640347003936767578e-01) (144, -8.49297717213630676270e-02) (145, -2.46989596635103225708e-02) (146, -1.07693441212177276611e-01) (147, -4.48244996368885040283e-02) (148, -3.61516773700714111328e-02) (149, -6.07716850936412811279e-02) (150, -1.76054731011390686035e-01) (151, -1.33926972746849060059e-01) (152, -8.80615040659904479980e-02) (153, -4.66780690476298332214e-03) (154, -3.33254365250468254089e-03) (155, -2.25153788924217224121e-02) (156, -8.34769234061241149902e-02) (157, -9.87441688776016235352e-02) (158, -2.61349648237228393555e-01) (159, -3.61460357904434204102e-01) (160, -3.37510406970977783203e-01) (161, -3.51081714034080505371e-02) (162, -1.18924148380756378174e-01) (163, -2.09309514611959457397e-02) (164, -8.25916156172752380371e-02) (165, -4.22899350523948669434e-02) (166, -7.10122212767601013184e-02) (167, -2.79132753610610961914e-01) (168, -5.20808637142181396484e-01) (169, -5.33280789852142333984e-01) (170, -6.21780037879943847656e-01) (171, -1.87992858886718750000e+00) (172, -1.61444509029388427734e+00) (173, -1.68154776096343994141e+00) (174, -1.63354146480560302734e+00) (175, -1.59487092494964599609e+00) (176, -3.16649913787841796875e-01) (177, -1.75580888986587524414e-01) (178, -3.35759818553924560547e-01) (179, -9.60310876369476318359e-01) (180, -1.19345426559448242188e-01) (0, -1.47047623991966247559e-01) (1, 9.85850095748901367188e-02) (2, 1.06469705700874328613e-01) (3, 9.45637524127960205078e-02) (4, 1.02868944406509399414e-01) (5, 8.34349244832992553711e-02) (6, 2.07251563668251037598e-01) (7, 1.92996993660926818848e-01) (8, 6.84159845113754272461e-02) (9, 1.22589297592639923096e-01) (10, 1.28659367561340332031e-01) (11, 2.04311802983283996582e-01) (12, 1.70260950922966003418e-01) (13, 7.46502056717872619629e-02) (14, 8.94032865762710571289e-02) (15, 9.56541895866394042969e-02) (16, 1.71321198344230651855e-01) (17, 1.02879285812377929688e-01) (18, 9.39893424510955810547e-02) (19, 1.53074458241462707520e-01) (20, 2.08603784441947937012e-01) (21, 7.96546414494514465332e-02) (22, 9.36888381838798522949e-02) (23, 8.21156874299049377441e-02) (24, 2.00515106320381164551e-01) (25, 1.22072450816631317139e-01) (26, 1.03627704083919525146e-01) (27, 1.85864701867103576660e-01) (28, -1.28799185156822204590e-01) (29, -1.27194106578826904297e-01) (30, -9.01859924197196960449e-02) (31, -6.59651309251785278320e-02) (32, -5.73901645839214324951e-02) (33, -1.97454113513231277466e-02) (34, -1.07464194297790527344e-02) (35, 6.13372633233666419983e-03) (36, 2.43444312363862991333e-02) (37, -4.42993156611919403076e-02) (38, -4.16737310588359832764e-02) (39, -1.48043930530548095703e-01) (40, -1.61055058240890502930e-01) (41, -1.52359485626220703125e-01) (42, 1.66320186108350753784e-02) (43, -3.04299741983413696289e-02) (44, -1.17345064878463745117e-01) (45, -1.33973106741905212402e-01) (46, 2.80762296169996261597e-02) (47, 1.68280135840177536011e-02) (48, -6.83242231607437133789e-02) (49, -1.18025146424770355225e-01) (50, -6.88434392213821411133e-02) (51, -9.80935394763946533203e-02) (52, -7.76413530111312866211e-02) (53, -1.44254341721534729004e-02) (54, -5.52487373352050781250e-02) (55, -1.17369152605533599854e-01) (56, -1.34808197617530822754e-01) (57, 5.92374335974454879761e-03) (58, 2.92246695607900619507e-02) (59, -9.40524786710739135742e-02) (60, -1.51715323328971862793e-01) (61, -9.43763852119445800781e-02) (62, 6.56728446483612060547e-03) (63, -4.25206050276756286621e-02) (64, -1.46779164671897888184e-01) (65, -3.73069904744625091553e-02) (66, -7.08963945508003234863e-02) (67, -1.56944304704666137695e-01) (68, -1.21649466454982757568e-01) (69, -1.51231616735458374023e-01) (70, -1.37550935149192810059e-01) (71, 9.97178927063941955566e-02) (72, 7.88313671946525573730e-02) (73, 5.64422756433486938477e-02) (74, 4.18568737804889678955e-02) (75, 1.34341612458229064941e-01) (76, 9.14781764149665832520e-02) (77, 2.33352199196815490723e-01) (78, 1.14302374422550201416e-01) (79, 1.90422311425209045410e-01) (80, 8.33423361182212829590e-02) (81, 2.12727263569831848145e-01) (82, 5.95971569418907165527e-02) (83, 1.72222360968589782715e-01) (84, 1.66317015886306762695e-01) (85, 1.72363609075546264648e-01) (86, 2.23840475082397460938e-01) (87, 2.01961576938629150391e-01) (88, 1.48740142583847045898e-01) (89, 2.21305489540100097656e-01) (90, 7.61494264006614685059e-02) (91, 1.65265053510665893555e-01) (92, 9.59270969033241271973e-02) (93, 5.09678125381469726562e-02) (94, 9.09955874085426330566e-02) (95, 1.18145830929279327393e-01) (96, 1.83876037597656250000e-01) (97, 1.91696107387542724609e-01) (98, 1.32051557302474975586e-01) (99, 4.05399985611438751221e-02) (100, 2.18777894973754882812e-01) (101, 1.66715234518051147461e-01) (102, 1.07412949204444885254e-01) (103, 6.47642910480499267578e-02) (104, -1.70476958155632019043e-02) (105, -9.58975106477737426758e-02) (106, -4.63478825986385345459e-02) (107, -1.60647004842758178711e-01) (108, -9.78524535894393920898e-02) (109, -1.67352616786956787109e-01) (110, -5.53191872313618659973e-03) (111, -5.05641959607601165771e-02) (112, 1.00673884153366088867e-02) (113, -2.09241926670074462891e-01) (114, -3.41649055480957031250e-01) (115, -8.10561925172805786133e-02) (116, -6.63190037012100219727e-02) (117, -1.47249057888984680176e-01) (118, -3.34760397672653198242e-01) (119, -3.61180692911148071289e-01) (120, -3.71302962303161621094e-01) (121, -2.80979782342910766602e-01) (122, -2.28751301765441894531e-01) (123, -3.06454181671142578125e-01) (124, -2.61955618858337402344e-01) (125, -3.76478672027587890625e-01) (126, -2.25301548838615417480e-01) (127, -3.16839396953582763672e-01) (128, -2.17956900596618652344e-01) (129, -3.28528076410293579102e-01) (130, -3.11577439308166503906e-01) (131, -2.34860152006149291992e-01) (132, -1.97866797447204589844e-01) (133, -2.42680639028549194336e-01) (134, -2.08612173795700073242e-01) (135, -2.46817290782928466797e-01) (136, -3.70710760354995727539e-01) (137, -2.87092626094818115234e-01) (138, -3.30805070698261260986e-02) (139, -9.37262326478958129883e-02) (140, -7.96083360910415649414e-02) (141, -7.12755993008613586426e-02) (142, -1.88599362969398498535e-01) (143, -1.13849915564060211182e-01) (144, -9.53121855854988098145e-02) (145, -1.33850112557411193848e-01) (146, -4.66832192614674568176e-03) (147, -1.82600393891334533691e-01) (148, -1.02068573236465454102e-01) (149, -1.41239196062088012695e-01) (150, -1.46979182958602905273e-01) (151, -7.48121887445449829102e-02) (152, -2.70385220646858215332e-02) (153, -1.82146981358528137207e-01) (154, -1.87682703137397766113e-01) (155, -9.71771329641342163086e-02) (156, -1.50949999690055847168e-01) (157, -7.78518198058009147644e-03) (158, -8.81735607981681823730e-03) (159, -1.74787327647209167480e-01) (160, 8.54335203766822814941e-02) (161, 2.27006494998931884766e-01) (162, 3.37753742933273315430e-01) (163, 2.06967979669570922852e-01) (164, 1.78072512149810791016e-01) (165, 3.22888225317001342773e-01) (166, 3.53897422552108764648e-01) (167, 2.01636552810668945312e-01) (168, 2.29542344808578491211e-01) (169, 3.08575242757797241211e-01) (170, 2.94687688350677490234e-01) (171, 3.36711376905441284180e-01) (172, 2.24532574415206909180e-01) (173, 3.04514020681381225586e-01) (174, 2.21815198659896850586e-01) (175, 3.27643543481826782227e-01) (176, 1.69086933135986328125e-01) (177, 2.15116977691650390625e-01) (178, 3.53407740592956542969e-01) (179, 2.66193121671676635742e-01) (180, 3.34260010719299316406e+00) (0, 5.21856427192687988281e-01) (1, 5.15438497066497802734e-01) (2, 5.67445993423461914062e-01) (3, 5.49356341361999511719e-01) (4, 5.37962973117828369141e-01) (5, 4.83101397752761840820e-01) (6, 5.98409116268157958984e-01) (7, 5.30180573463439941406e-01) (8, 4.72254186868667602539e-01) (9, 6.20766818523406982422e-01) (10, 5.84759175777435302734e-01) (11, 5.43576419353485107422e-01) (12, 6.01628363132476806641e-01) (13, 6.11269772052764892578e-01) (14, 5.42399287223815917969e-01) (15, 5.46725392341613769531e-01) (16, 6.28237426280975341797e-01) (17, 6.08625471591949462891e-01) (18, 6.25823915004730224609e-01) (19, 5.65212309360504150391e-01) (20, 5.25082886219024658203e-01) (21, 6.03244721889495849609e-01) (22, 6.38728857040405273438e-01) (23, 4.83162820339202880859e-01) (24, 4.77670133113861083984e-01) (25, 6.14040970802307128906e-01) (26, 4.99918699264526367188e-01) (27, 5.94022452831268310547e-01) (28, 7.84517943859100341797e-01) (29, 7.92371153831481933594e-01) (30, 6.34792983531951904297e-01) (31, 6.44190251827239990234e-01) (32, 6.46185815334320068359e-01) (33, 7.44862616062164306641e-01) (34, 7.31171965599060058594e-01) (35, 7.23317861557006835938e-01) (36, 7.67133235931396484375e-01) (37, 6.68447792530059814453e-01) (38, 7.90821433067321777344e-01) (39, 7.86880075931549072266e-01) (40, 8.41442167758941650391e-01) (41, 7.19325125217437744141e-01) (42, 6.97490394115447998047e-01) (43, 8.01621496677398681641e-01) (44, 7.15293347835540771484e-01) (45, 7.66633331775665283203e-01) (46, 6.67006134986877441406e-01) (47, 6.48525834083557128906e-01) (48, 7.05942690372467041016e-01) (49, 6.46108508110046386719e-01) (50, 7.70751953125000000000e-01) (51, 7.90208935737609863281e-01) (52, 8.03036689758300781250e-01) (53, 7.60250806808471679688e-01) (54, 6.24756157398223876953e-01) (55, 6.28063917160034179688e-01) (56, 7.19541847705841064453e-01) (57, 6.69336795806884765625e-01) (58, 7.14159667491912841797e-01) (59, 6.82523548603057861328e-01) (60, 6.42308056354522705078e-01) (61, 7.27518439292907714844e-01) (62, 7.02889740467071533203e-01) (63, 6.44516527652740478516e-01) (64, 6.26855731010437011719e-01) (65, 7.91300594806671142578e-01) (66, 7.45619118213653564453e-01) (67, 7.87654459476470947266e-01) (68, 6.36216521263122558594e-01) (69, 7.10426926612854003906e-01) (70, 7.16015100479125976562e-01) (71, 6.31869018077850341797e-01) (72, 7.92782068252563476562e-01) (73, 7.53540933132171630859e-01) (74, 7.51329839229583740234e-01) (75, 6.35200738906860351562e-01) (76, 6.77173912525177001953e-01) (77, 5.94267606735229492188e-01) (78, 6.59001469612121582031e-01) (79, 7.58678197860717773438e-01) (80, 6.12820923328399658203e-01) (81, 6.03258550167083740234e-01) (82, 7.21552371978759765625e-01) (83, 5.90475201606750488281e-01) (84, 7.31250703334808349609e-01) (85, 7.18815147876739501953e-01) (86, 5.49606919288635253906e-01) (87, 5.91322064399719238281e-01) (88, 7.34024465084075927734e-01) (89, 6.52454435825347900391e-01) (90, 6.59577846527099609375e-01) (91, 5.62315762042999267578e-01) (92, 5.58726966381072998047e-01) (93, 7.44945287704467773438e-01) (94, 6.06758713722229003906e-01) (95, 5.93499243259429931641e-01) (96, 7.41356253623962402344e-01) (97, 7.87954807281494140625e-01) (98, 5.94607055187225341797e-01) (99, 5.71984946727752685547e-01) (100, 6.54322028160095214844e-01) (101, 6.75924420356750488281e-01) (102, 6.10349297523498535156e-01) (103, 6.61175847053527832031e-01) (104, 5.24746596813201904297e-01) (105, 4.39718514680862426758e-01) (106, 5.65567731857299804688e-01) (107, 5.97963333129882812500e-01) (108, 4.44150388240814208984e-01) (109, 5.77952146530151367188e-01) (110, 5.88391982018947601318e-02) (111, -4.22324948012828826904e-02) (112, -5.50742186605930328369e-02) (113, 4.32420253753662109375e-01) (114, 4.41638737916946411133e-01) (115, 5.69898724555969238281e-01) (116, 7.49219954013824462891e-01) (117, 6.18917346000671386719e-01) (118, 5.96107959747314453125e-01) (119, 3.15319716930389404297e-01) (120, 7.23199427127838134766e-01) (121, 5.50109565258026123047e-01) (122, 6.25998616218566894531e-01) (123, 5.77162742614746093750e-01) (124, 5.51218271255493164062e-01) (125, 4.96848374605178833008e-01) (126, 6.21241092681884765625e-01) (127, 5.43153584003448486328e-01) (128, 4.93629515171051025391e-01) (129, 6.26578867435455322266e-01) (130, 5.57562112808227539062e-01) (131, 5.96371710300445556641e-01) (132, 5.50923287868499755859e-01) (133, 6.51292204856872558594e-01) (134, 5.40719270706176757812e-01) (135, 6.79770171642303466797e-01) (136, 6.50512099266052246094e-01) (137, 6.72726035118103027344e-01) (138, 6.41878664493560791016e-01) (139, 6.54522359371185302734e-01) (140, 6.79199278354644775391e-01) (141, 5.65943658351898193359e-01) (142, 6.81378424167633056641e-01) (143, 6.89363062381744384766e-01) (144, 6.26523017883300781250e-01) (145, 5.05790114402770996094e-01) (146, 6.53605043888092041016e-01) (147, 6.26800060272216796875e-01) (148, 5.47403156757354736328e-01) (149, 6.60661995410919189453e-01) (150, 6.02749586105346679688e-01) (151, 6.72847211360931396484e-01) (152, 5.78001022338867187500e-01) (153, 5.99845588207244873047e-01) (154, 6.17349386215209960938e-01) (155, 5.00619411468505859375e-01) (156, 6.58493518829345703125e-01) (157, 5.99378824234008789062e-01) (158, 6.02282643318176269531e-01) (159, 5.12983798980712890625e-01) (160, 5.87170958518981933594e-01) (161, 5.23928344249725341797e-01) (162, 6.75839543342590332031e-01) (163, 7.04790592193603515625e-01) (164, 6.84293389320373535156e-01) (165, 5.20266950130462646484e-01) (166, 6.87703967094421386719e-01) (167, 6.37549161911010742188e-01) (168, 6.98548614978790283203e-01) (169, 6.31038248538970947266e-01) (170, 5.92392802238464355469e-01) (171, 6.70693695545196533203e-01) (172, 6.96764767169952392578e-01) (173, 5.72567045688629150391e-01) (174, 6.61020278930664062500e-01) (175, 6.23176217079162597656e-01) (176, 5.77184975147247314453e-01) (177, 6.06248378753662109375e-01) (178, 5.36710262298583984375e-01) (179, 6.09075307846069335938e-01) (180, 1.84924617409706115723e-01) (0, 6.42396986484527587891e-01) (1, 5.81362783908843994141e-01) (2, 1.95817232131958007812e-01) (3, 5.45339345932006835938e-01) (4, 5.00208020210266113281e-01) (5, 6.41900360584259033203e-01) (6, 5.05296349525451660156e-01) (7, 6.01050436496734619141e-01) (8, 7.45840847492218017578e-01) (9, 6.96823954582214355469e-01) (10, 8.66412520408630371094e-01) (11, 7.45107054710388183594e-01) (12, 8.64654481410980224609e-01) (13, 8.58372807502746582031e-01) (14, 7.18543410301208496094e-01) (15, 6.79322659969329833984e-01) (16, 6.59737110137939453125e-01) (17, 6.68861031532287597656e-01) (18, 4.68009144067764282227e-01) (19, 5.67113220691680908203e-01) (20, 5.40309607982635498047e-01) (21, 6.41534626483917236328e-01) (22, 5.48057258129119873047e-01) (23, 5.96143424510955810547e-01) (24, 5.86905002593994140625e-01) (25, 4.72005814313888549805e-01) (26, 4.74667757749557495117e-01) (27, 5.01174628734588623047e-01) (28, 5.22795140743255615234e-01) (29, 5.97850620746612548828e-01) (30, 5.61104416847229003906e-01) (31, 4.34967756271362304688e-01) (32, 4.50410604476928710938e-01) (33, 4.91919517517089843750e-01) (34, 5.03268182277679443359e-01) (35, 4.74133849143981933594e-01) (36, 4.43855524063110351562e-01) (37, 5.21404206752777099609e-01) (38, 5.88024199008941650391e-01) (39, 5.04384040832519531250e-01) (40, 5.50346493721008300781e-01) (41, 5.86555063724517822266e-01) (42, 6.66961789131164550781e-01) (43, 6.32656991481781005859e-01) (44, 6.66228353977203369141e-01) (45, 5.23651540279388427734e-01) (46, 6.51043534278869628906e-01) (47, 6.51588618755340576172e-01) (48, 5.19430816173553466797e-01) (49, 6.65470540523529052734e-01) (50, 5.63436925411224365234e-01) (51, 6.03472411632537841797e-01) (52, 6.50373995304107666016e-01) (53, 6.71057939529418945312e-01) (54, 5.57696580886840820312e-01) (55, 5.93205332756042480469e-01) (56, 6.99460923671722412109e-01) (57, 5.92541635036468505859e-01) (58, 6.50166511535644531250e-01) (59, 5.77526450157165527344e-01) (60, 5.45343220233917236328e-01) (61, 5.76359212398529052734e-01) (62, 6.09533488750457763672e-01) (63, 5.93359351158142089844e-01) (64, 6.90813481807708740234e-01) (65, 7.35184729099273681641e-01) (66, 4.56101894378662109375e+00) (67, 9.73365402221679687500e+00) (68, 2.22549171447753906250e+01) (69, 2.22767448425292968750e+01) (70, 1.22096657752990722656e+00) (71, 4.77806234359741210938e+00) (72, 4.49014663696289062500e+00) (73, 4.62727069854736328125e+00) (74, 5.72304964065551757812e-01) (75, 5.55850088596343994141e-01) (76, 4.64470714330673217773e-01) (77, 7.56823122501373291016e-02) (78, 1.79686382412910461426e-01) (79, -3.58957014977931976318e-02) (80, -4.62533310055732727051e-02) (81, -5.64722009003162384033e-02) (82, 4.31364253163337707520e-02) (83, 9.03004631400108337402e-02) (84, 5.68128675222396850586e-02) (85, 4.82402220368385314941e-02) (86, -6.84614777565002441406e-02) (87, 4.77312356233596801758e-02) (88, -6.77431374788284301758e-02) (89, 7.04494118690490722656e-02) (90, -8.39554145932197570801e-02) (91, -3.10850497335195541382e-02) (92, -6.95289447903633117676e-02) (93, 1.58057361841201782227e-02) (94, 4.97238114476203918457e-02) (95, 6.42755106091499328613e-02) (96, -1.39589561149477958679e-02) (97, -2.12338957935571670532e-02) (98, 1.63526479154825210571e-02) (99, 5.03046363592147827148e-02) (100, 6.45534396171569824219e-02) (101, 4.88310098648071289062e-01) (102, 5.63934266567230224609e-01) (103, 4.36219513416290283203e-01) (104, 5.51329970359802246094e-01) (105, 4.56806808710098266602e-01) (106, 4.59829151630401611328e-01) (107, 5.65211117267608642578e-01) (108, 5.53268253803253173828e-01) (109, 6.10068380832672119141e-01) (110, 5.68579018115997314453e-01) (111, 5.68857491016387939453e-01) (112, 9.84910547733306884766e-01) (113, 1.05864822864532470703e+00) (114, 1.23434412479400634766e+00) (115, 1.28125059604644775391e+00) (116, 1.15162074565887451172e+00) (117, 1.26253235340118408203e+00) (118, 1.29118275642395019531e+00) (119, 1.18014121055603027344e+00) (120, 1.30090892314910888672e+00) (121, 1.27610492706298828125e+00) (122, 1.65926253795623779297e+00) (123, 1.67864084243774414062e+00) (124, 1.57339084148406982422e+00) (125, 1.64118313789367675781e+00) (126, 1.65309560298919677734e+00) (127, 1.67051625251770019531e+00) (128, 1.50318086147308349609e+00) (129, 1.57575774192810058594e+00) (130, 1.25628018379211425781e+00) (131, 1.30294930934906005859e+00) (132, 1.15298449993133544922e+00) (133, 1.21453082561492919922e+00) (134, 1.13426184654235839844e+00) (135, 1.29887890815734863281e+00) (136, 1.28742015361785888672e+00) (137, 1.17112457752227783203e+00) (138, 1.28168773651123046875e+00) (139, 1.23693656921386718750e+00) (140, 1.17176187038421630859e+00) (141, 3.45809131860733032227e-01) (142, 2.83630967140197753906e-01) (143, 2.69756734371185302734e-01) (144, 3.88113260269165039062e-01) (145, 4.02103483676910400391e-01) (146, 2.44795769453048706055e-01) (147, 2.29032129049301147461e-01) (148, 3.83085638284683227539e-01) (149, 3.99065107107162475586e-01) (150, 3.33462685346603393555e-01) (151, 3.09507131576538085938e-01) (152, 3.43370705842971801758e-01) (153, 2.80799806118011474609e-01) (154, 2.95597374439239501953e-01) (155, 2.25116118788719177246e-01) (156, 4.02625977993011474609e-01) (157, 2.71468162536621093750e-01) (158, 4.17623609304428100586e-01) (159, 2.01969891786575317383e-01) (160, 3.30465525388717651367e-01) (161, 3.26844155788421630859e-01) (162, 3.82552981376647949219e-01) (163, 3.63380253314971923828e-01) (164, 2.32735827565193176270e-01) (165, 2.08813145756721496582e-01) (166, 3.44590783119201660156e-01) (167, 2.18860983848571777344e-01) (168, 2.82970219850540161133e-01) (169, 2.89002209901809692383e-01) (170, 3.23755204677581787109e-01) (171, 3.39653789997100830078e-01) (172, 3.82597774267196655273e-01) (173, 6.24487060122191905975e-04) (174, 1.87811776995658874512e-01) (175, 1.61191537976264953613e-01) (176, -5.54832490161061286926e-03) (177, 2.32717078179121017456e-02) (178, 1.83532044291496276855e-01) (179, 1.55199795961380004883e-01) (180, -2.75497823953628540039e-01) (0, -1.58977425098419189453e+00) (1, -1.62277591228485107422e+00) (2, -6.86548829078674316406e-01) (3, -6.55769228935241699219e-01) (4, -6.73484385013580322266e-01) (5, -6.65126323699951171875e-01) (6, -6.56673669815063476562e-01) (7, -8.24111819267272949219e-01) (8, -6.68814420700073242188e-01) (9, -3.20229023694992065430e-01) (10, -3.24586093425750732422e-01) (11, -3.64952266216278076172e-01) (12, -2.88910955190658569336e-01) (13, -3.55667442083358764648e-01) (14, -3.30150812864303588867e-01) (15, -2.47112900018692016602e-01) (16, -3.80734622478485107422e-01) (17, -2.91180133819580078125e-01) (18, -3.60454559326171875000e-01) (19, -3.04337739944458007812e-01) (20, -3.70191514492034912109e-01) (21, -2.57368445396423339844e-01) (22, -3.45622479915618896484e-01) (23, -3.53316664695739746094e-01) (24, 2.16546416282653808594e-01) (25, 1.26976713538169860840e-01) (26, 1.21163330972194671631e-01) (27, 3.07692497968673706055e-01) (28, 1.73569396138191223145e-01) (29, 1.39666318893432617188e-01) (30, 3.01187306642532348633e-01) (31, 2.64748215675354003906e-01) (32, 1.98321908712387084961e-01) (33, 2.51498699188232421875e-01) (34, 2.42477938532829284668e-01) (35, 1.58499404788017272949e-01) (36, 2.18795984983444213867e-01) (37, 2.17140629887580871582e-01) (38, 1.65723815560340881348e-01) (39, 3.88172045350074768066e-02) (40, 5.70394694805145263672e-02) (41, 1.60875171422958374023e-01) (42, 1.42138198018074035645e-01) (43, 3.54777760803699493408e-02) (44, 6.70019164681434631348e-02) (45, 6.71273097395896911621e-02) (46, 1.60408541560173034668e-02) (47, 1.13375425338745117188e-01) (48, -5.81354182213544845581e-03) (49, 6.13919459283351898193e-02) (50, 3.54992449283599853516e-02) (51, -7.33574328478425741196e-04) (52, -5.65268844366073608398e-02) (53, 5.16662634909152984619e-02) (54, 3.13305370509624481201e-02) (55, -9.73197072744369506836e-02) (56, -8.12306851148605346680e-02) (57, -1.30336001515388488770e-01) (58, -1.25112563371658325195e-01) (59, -4.21746820211410522461e-02) (60, -1.01748339831829071045e-01) (61, -1.28627076745033264160e-01) (62, -8.54897871613502502441e-02) (63, -1.50915216654539108276e-02) (64, 9.41942632198333740234e-03) (65, 4.08382229506969451904e-02) (66, -1.97862014174461364746e-02) (67, -1.34978666901588439941e-01) (68, -1.34837627410888671875e-01) (69, -1.96559518575668334961e-01) (70, 1.73963576555252075195e-01) (71, 1.56133249402046203613e-01) (72, -1.75290775950998067856e-03) (73, 1.12218089401721954346e-01) (74, 2.66587793827056884766e-01) (75, 3.42870622873306274414e-01) (76, 3.95130544900894165039e-01) (77, 3.21938097476959228516e-01) (78, 2.99942255020141601562e-01) (79, 2.70423859357833862305e-01) (80, 4.22612011432647705078e-01) (81, 3.69830191135406494141e-01) (82, 3.56582820415496826172e-01) (83, 2.79339581727981567383e-01) (84, 3.74796956777572631836e-01) (85, 3.41213852167129516602e-01) (86, 3.36974382400512695312e-01) (87, 4.08474683761596679688e-01) (88, 3.50485235452651977539e-01) (89, 3.45718950033187866211e-01) (90, 3.00157219171524047852e-01) (91, 3.80851417779922485352e-01) (92, 3.48657518625259399414e-01) (93, 3.06098490953445434570e-01) (94, 2.99184501171112060547e-01) (95, 2.93244153261184692383e-01) (96, 3.24936151504516601562e-01) (97, 3.95791083574295043945e-01) (98, 2.72915631532669067383e-01) (99, 4.17882561683654785156e-01) (100, 3.02969962358474731445e-01) (101, 4.80495899915695190430e-01) (102, 4.04851347208023071289e-01) (103, 2.21855491399765014648e-01) (104, 2.75010555982589721680e-01) (105, 9.23193916678428649902e-02) (106, 9.20084491372108459473e-02) (107, 2.30659283697605133057e-02) (108, -2.11004912853240966797e-02) (109, 1.47415086627006530762e-01) (110, 4.30121235549449920654e-02) (111, 1.50995597243309020996e-01) (112, 6.79611414670944213867e-02) (113, 1.47108450531959533691e-01) (114, -3.04516572505235671997e-02) (115, -5.62159158289432525635e-02) (116, -9.34653915464878082275e-03) (117, 1.81736648082733154297e-02) (118, 4.90945130586624145508e-02) (119, 6.08201399445533752441e-02) (120, 7.81439766287803649902e-02) (121, 8.59645009040832519531e-02) (122, -5.60273937880992889404e-02) (123, 1.35205551981925964355e-01) (124, 1.43327057361602783203e-01) (125, -1.77861526608467102051e-02) (126, 1.66728705167770385742e-01) (127, -4.03327075764536857605e-03) (128, 1.63248270750045776367e-01) (129, 2.39227097481489181519e-02) (130, 1.18858292698860168457e-01) (131, -2.94257514178752899170e-02) (132, 2.44297261815518140793e-04) (133, 1.17332730442285537720e-02) (134, -1.51026956737041473389e-02) (135, 6.25311285257339477539e-02) (136, 1.37064903974533081055e-01) (137, 1.11318878829479217529e-01) (138, 6.66047111153602600098e-02) (139, -5.83600282669067382812e-01) (140, -4.37584429979324340820e-01) (141, -5.23155331611633300781e-01) (142, -6.27097010612487792969e-01) (143, -5.62820196151733398438e-01) (144, -5.27461171150207519531e-01) (145, -5.56639552116394042969e-01) (146, -5.14618813991546630859e-01) (147, -4.72100615501403808594e-01) (148, -5.75203001499176025391e-01) (149, -7.28281736373901367188e-01) (150, -6.98422074317932128906e-01) (151, -5.75627744197845458984e-01) (152, -4.91816520690917968750e-01) (153, -5.79245030879974365234e-01) (154, -5.65570414066314697266e-01) (155, -4.83973205089569091797e-01) (156, -5.58414697647094726562e-01) (157, -5.80801665782928466797e-01) (158, -1.74577057361602783203e-01) (159, -5.53759276866912841797e-01) (160, -2.27704554796218872070e-01) (161, -2.20684021711349487305e-01) (162, -1.35786026716232299805e-01) (163, -3.07348847389221191406e-01) (164, -2.90033787488937377930e-01) (165, -5.23840129375457763672e-01) (166, -5.35580396652221679688e-01) (167, -1.01245415210723876953e+00) (168, -1.15652811527252197266e+00) (169, -1.04995810985565185547e+00) (170, -3.99540215730667114258e-01) (171, -5.83128750324249267578e-01) (172, -3.03422570228576660156e-01) (173, -2.08268538117408752441e-01) (174, -1.59229040145874023438e-01) (175, -2.27204486727714538574e-01) (176, -1.97061136364936828613e-01) (177, -6.36270120739936828613e-02) (178, -1.12594336271286010742e-01) (179, -8.29054489731788635254e-02) (180, 7.32575178146362304688e-01) (0, -1.87395475804805755615e-02) (1, -1.62781924009323120117e-01) (2, -5.84371238946914672852e-02) (3, -2.34286472201347351074e-01) (4, -1.52252942323684692383e-01) (5, -1.67675986886024475098e-01) (6, -1.58205315470695495605e-01) (7, -9.51756909489631652832e-02) (8, -2.00516775250434875488e-01) (9, -9.65721383690834045410e-02) (10, -1.75643265247344970703e-01) (11, -8.00854787230491638184e-02) (12, -4.74589727818965911865e-02) (13, -2.30430766940116882324e-01) (14, -1.20757885277271270752e-01) (15, -1.76250696182250976562e-01) (16, -1.70168474316596984863e-01) (17, -1.55698120594024658203e-01) (18, -1.19901902973651885986e-01) (19, -1.07213750481605529785e-01) (20, -1.84749722480773925781e-01) (21, -1.17292106151580810547e-01) (22, -1.74772635102272033691e-01) (23, -1.85084491968154907227e-01) (24, -2.17858210206031799316e-01) (25, -1.03703595697879791260e-01) (26, -8.87952074408531188965e-02) (27, -2.01138019561767578125e-01) (28, -1.85521781444549560547e-01) (29, -1.43636405467987060547e-01) (30, -2.26174350827932357788e-02) (31, -1.60500667989253997803e-02) (32, -1.20168879628181457520e-01) (33, -9.59296822547912597656e-02) (34, -2.00516134500503540039e-01) (35, -3.29996980726718902588e-02) (36, -2.82885376363992691040e-02) (37, -1.26279324293136596680e-01) (38, -9.57330912351608276367e-02) (39, -1.99382677674293518066e-01) (40, -1.97121754288673400879e-01) (41, -5.19132688641548156738e-02) (42, -5.62604591250419616699e-02) (43, -2.19466656446456909180e-01) (44, -5.09635731577873229980e-02) (45, -1.29924401640892028809e-01) (46, -1.51437968015670776367e-01) (47, -1.78451612591743469238e-01) (48, -2.49510154128074645996e-01) (49, -2.25967541337013244629e-01) (50, -2.40158215165138244629e-01) (51, -1.81851282715797424316e-01) (52, -9.11509022116661071777e-02) (53, -1.75402596592903137207e-01) (54, -1.25911518931388854980e-01) (55, -6.91703334450721740723e-02) (56, -9.28852781653404235840e-02) (57, -2.62964069843292236328e-01) (58, -1.67867735028266906738e-01) (59, -1.21374346315860748291e-01) (60, -2.04377144575119018555e-01) (61, -1.20971828699111938477e-01) (62, -1.21068283915519714355e-01) (63, -1.01449504494667053223e-01) (64, -1.97336167097091674805e-01) (65, -1.90770164132118225098e-01) (66, -2.29493215680122375488e-01) (67, 2.50365316867828369141e-01) (68, 2.49131649732589721680e-01) (69, 1.66469499468803405762e-01) (70, 1.91640183329582214355e-01) (71, 1.92667379975318908691e-01) (72, 2.61925965547561645508e-01) (73, 2.83042103052139282227e-01) (74, 3.22816103696823120117e-01) (75, 2.95882284641265869141e-01) (76, 2.00159087777137756348e-01) (77, 2.24965766072273254395e-01) (78, 3.34701299667358398438e-01) (79, 2.05327793955802917480e-01) (80, 2.52054572105407714844e-01) (81, 3.47599506378173828125e-01) (82, 1.77099630236625671387e-01) (83, 1.14527031779289245605e-01) (84, 2.22268477082252502441e-01) (85, 1.98726505041122436523e-01) (86, 1.92894995212554931641e-01) (87, 1.86485558748245239258e-01) (88, 3.29793274402618408203e-01) (89, 2.82312631607055664062e-01) (90, 2.67804414033889770508e-01) (91, 4.28676098585128784180e-01) (92, 2.60565340518951416016e-01) (93, 4.43521350622177124023e-01) (94, 4.23101454973220825195e-01) (95, 3.58599781990051269531e-01) (96, 4.36442226171493530273e-01) (97, 4.02247279882431030273e-01) (98, 4.50170904397964477539e-01) (99, 3.27618777751922607422e-01) (100, 3.10194939374923706055e-01) (101, 3.74531745910644531250e-01) (102, 4.52398031949996948242e-01) (103, 4.03220325708389282227e-01) (104, 2.88202881813049316406e-01) (105, 4.00981366634368896484e-01) (106, 2.90519326925277709961e-01) (107, 3.18025857210159301758e-01) (108, 4.59151208400726318359e-01) (109, 4.56458389759063720703e-01) (110, 3.53752106428146362305e-01) (111, 3.43622714281082153320e-01) (112, 4.36474770307540893555e-01) (113, 2.60683566331863403320e-01) (114, 3.84328812360763549805e-01) (115, 2.98458248376846313477e-01) (116, 3.01143378019332885742e-01) (117, 4.20272320508956909180e-01) (118, 3.20544898509979248047e-01) (119, -9.74198281764984130859e-02) (120, -3.09143271297216415405e-02) (121, -1.39017939567565917969e-01) (122, -1.30705386400222778320e-01) (123, -2.77299284934997558594e-02) (124, -1.53287366032600402832e-01) (125, -1.54542282223701477051e-01) (126, -1.15187130868434906006e-01) (127, -1.64144530892372131348e-01) (128, -1.13280406221747398376e-02) (129, -1.23673565685749053955e-01) (130, -9.50393006205558776855e-02) (131, -1.57294943928718566895e-01) (132, -5.67943416535854339600e-03) (133, -1.00392021238803863525e-01) (134, -1.41771342605352401733e-02) (135, -1.77579075098037719727e-01) (136, -1.50799900293350219727e-01) (137, -1.77013441920280456543e-01) (138, -1.67812496423721313477e-01) (139, -2.04345956444740295410e-01) (140, -3.00032556056976318359e-01) (141, -1.40687033534049987793e-01) (142, -1.90103426575660705566e-01) (143, -2.47054919600486755371e-01) (144, -2.60268688201904296875e-01) (145, -3.84405434131622314453e-01) (146, -2.88669496774673461914e-01) (147, -2.99726098775863647461e-01) (148, -3.05253773927688598633e-01) (149, -2.28137403726577758789e-01) (150, -1.94230154156684875488e-01) (151, -1.26951307058334350586e-01) (152, -1.59859940409660339355e-01) (153, -1.16397559642791748047e-01) (154, -1.45261928439140319824e-01) (155, -3.04970264434814453125e-01) (156, -2.74496376514434814453e-01) (157, -2.64005750417709350586e-01) (158, -2.71703511476516723633e-01) (159, -2.83848851919174194336e-01) (160, -1.84368014335632324219e-01) (161, 3.07459771633148193359e-01) (162, 2.26142838597297668457e-01) (163, 2.71256178617477416992e-01) (164, 1.95529147982597351074e-01) (165, 2.22044065594673156738e-01) (166, 3.08027058839797973633e-01) (167, 2.33946457505226135254e-01) (168, 2.12631002068519592285e-01) (169, 3.61879616975784301758e-01) (170, 2.70489990711212158203e-01) (171, 2.20268055796623229980e-01) (172, 3.30075889825820922852e-01) (173, 1.89269736409187316895e-01) (174, 2.02524110674858093262e-01) (175, 2.99587905406951904297e-01) (176, 2.37695664167404174805e-01) (177, 2.99633979797363281250e-01) (178, 3.83471399545669555664e-01) (179, 3.13840001821517944336e-01) (180, 1.39799857139587402344e+00) (0, -1.18096746504306793213e-01) (1, -1.20449379086494445801e-01) (2, -8.71511325240135192871e-02) (3, -1.21592164039611816406e-01) (4, -1.52809172868728637695e-01) (5, -7.97473266720771789551e-02) (6, -8.42424258589744567871e-02) (7, -1.05244889855384826660e-01) (8, -4.08488176763057708740e-02) (9, -6.12681061029434204102e-02) (10, 1.57749056816101074219e-02) (11, -9.71118360757827758789e-02) (12, 8.94506054464727640152e-04) (13, -7.26774930953979492188e-02) (14, -6.63832575082778930664e-02) (15, -1.71795815229415893555e-01) (16, -1.59384846687316894531e-01) (17, -5.85100054740905761719e-03) (18, -1.21985130012035369873e-01) (19, -1.63036242127418518066e-01) (20, -1.00891977548599243164e-01) (21, -6.83629736304283142090e-02) (22, 4.21041110530495643616e-03) (23, -7.31238275766372680664e-02) (24, -2.80327163636684417725e-02) (25, -5.99715560674667358398e-02) (26, -3.57612315565347671509e-03) (27, -1.70657664537429809570e-01) (28, -1.16531006991863250732e-01) (29, -1.32222980260848999023e-01) (30, 1.03174366056919097900e-01) (31, 7.93975070118904113770e-02) (32, 6.38089105486869812012e-02) (33, -1.38596072793006896973e-03) (34, 1.41893371939659118652e-01) (35, 9.50877964496612548828e-02) (36, 9.91433113813400268555e-02) (37, 3.69583182036876678467e-02) (38, -3.05736176669597625732e-02) (39, 3.82518284022808074951e-02) (40, 1.55390158295631408691e-01) (41, -3.50987352430820465088e-02) (42, 1.17108568549156188965e-01) (43, 1.34128898382186889648e-01) (44, 7.00679570436477661133e-02) (45, 3.05060297250747680664e-02) (46, 1.39297157526016235352e-01) (47, 8.82504731416702270508e-02) (48, 3.17820720374584197998e-03) (49, 2.81619792804121971130e-03) (50, 1.12825691699981689453e-01) (51, 8.83658230304718017578e-02) (52, 1.19370952248573303223e-01) (53, 1.00847542285919189453e-01) (54, 1.75727612804621458054e-03) (55, 7.78535380959510803223e-02) (56, 2.73912567645311355591e-02) (57, -1.93349290639162063599e-02) (58, 8.96798595786094665527e-02) (59, 9.33441445231437683105e-02) (60, 3.33819426596164703369e-02) (61, 4.03048545122146606445e-02) (62, 1.93453039973974227905e-02) (63, 1.43396258354187011719e-01) (64, 8.23759436607360839844e-02) (65, 2.64081638306379318237e-03) (66, 5.31730987131595611572e-02) (67, -1.50800822302699089050e-02) (68, 4.58148978650569915771e-02) (69, 5.63126616179943084717e-02) (70, 6.85470849275588989258e-02) (71, 4.51701097190380096436e-02) (72, 6.57730251550674438477e-02) (73, 3.02147176116704940796e-02) (74, 1.95919461548328399658e-02) (75, -9.99192222952842712402e-02) (76, 7.33964517712593078613e-02) (77, -1.67867429554462432861e-02) (78, 8.00641775131225585938e-02) (79, -8.22361111640930175781e-02) (80, 2.72186640650033950806e-02) (81, 4.11400534212589263916e-02) (82, 3.79330255091190338135e-02) (83, -2.16070581227540969849e-02) (84, -2.62091178447008132935e-02) (85, -1.16090901196002960205e-01) (86, -9.95347425341606140137e-02) (87, 4.54008840024471282959e-02) (88, -9.12070944905281066895e-02) (89, 3.43638323247432708740e-02) (90, -1.70362088829278945923e-02) (91, -1.36063955724239349365e-02) (92, -8.04233402013778686523e-02) (93, 4.80640567839145660400e-02) (94, -2.40568835288286209106e-02) (95, 6.45525604486465454102e-02) (96, -8.52904319763183593750e-02) (97, -5.74648566544055938721e-02) (98, -4.18932177126407623291e-02) (99, 4.54455576837062835693e-02) (100, 7.77547284960746765137e-02) (101, -4.23820205032825469971e-02) (102, 4.42858375608921051025e-02) (103, 8.32470804452896118164e-02) (104, 7.54948258399963378906e-02) (105, 1.60070911049842834473e-01) (106, 1.64779946208000183105e-01) (107, 1.08892440795898437500e-01) (108, 9.67415645718574523926e-02) (109, 1.84457510709762573242e-01) (110, 1.38708740472793579102e-01) (111, 3.60126309096813201904e-02) (112, 1.45076990127563476562e-01) (113, 1.13244935870170593262e-01) (114, 1.27838537096977233887e-01) (115, 3.04014086723327636719e-02) (116, 1.08010627329349517822e-01) (117, 1.62330597639083862305e-01) (118, 1.13164158537983894348e-02) (119, 1.40986263751983642578e-01) (120, 1.22255668044090270996e-01) (121, 1.18463091552257537842e-01) (122, 5.85960336029529571533e-02) (123, -2.83299628645181655884e-02) (124, 9.77432206273078918457e-02) (125, 1.02864861488342285156e-01) (126, 2.88101464509963989258e-01) (127, 2.64331668615341186523e-01) (128, 1.42164438962936401367e-01) (129, 7.88087099790573120117e-02) (130, 1.33276283740997314453e-01) (131, 2.67433673143386840820e-02) (132, 5.47012910246849060059e-02) (133, 2.68377717584371566772e-02) (134, 1.55562028288841247559e-01) (135, 1.76424130797386169434e-01) (136, 2.65929605811834335327e-02) (137, 1.46136268973350524902e-01) (138, 5.39760962128639221191e-02) (139, 8.36768522858619689941e-02) (140, 9.79509726166725158691e-02) (141, 2.94073688564822077751e-04) (142, 1.33321985602378845215e-01) (143, 5.61812557280063629150e-02) (144, 1.07019849121570587158e-01) (145, 8.01055356860160827637e-02) (146, 1.07082076370716094971e-01) (147, 4.38470654189586639404e-02) (148, 7.12527558207511901855e-02) (149, 1.47215142846107482910e-01) (150, 2.49813310801982879639e-02) (151, 3.22779566049575805664e-02) (152, -3.09739131480455398560e-02) (153, -8.77665728330612182617e-03) (154, -8.84060338139533996582e-02) (155, -8.87847170233726501465e-02) (156, 4.61555086076259613037e-03) (157, -8.97203236818313598633e-02) (158, -1.18179872632026672363e-01) (159, -1.42663136124610900879e-01) (160, -3.72262112796306610107e-02) (161, -1.75502836704254150391e-01) (162, -1.17989301681518554688e-01) (163, -1.79782688617706298828e-01) (164, -1.45922884345054626465e-01) (165, -1.51391491293907165527e-01) (166, 1.06290669646114110947e-03) (167, -1.27917602658271789551e-01) (168, 2.60379957035183906555e-03) (169, -1.04090578854084014893e-01) (170, -2.02253490686416625977e-01) (171, -6.67005702853202819824e-02) (172, -7.40732476115226745605e-02) (173, -3.63840092904865741730e-03) (174, -1.47218585014343261719e-01) (175, -1.01623974740505218506e-01) (176, -7.52083510160446166992e-02) (177, 8.55120550841093063354e-03) (178, -1.05575080960988998413e-02) (179, -1.52697622776031494141e-01) (180, 6.63469582796096801758e-02) (0, 7.49004259705543518066e-02) (1, 9.53810662031173706055e-02) (2, 6.17855191230773925781e-02) (3, -5.73597177863121032715e-02) (4, 1.26444593071937561035e-01) (5, 1.17555633187294006348e-02) (6, 1.87117606401443481445e-01) (7, 7.82519429922103881836e-02) (8, 2.57069282233715057373e-02) (9, -2.77771335095167160034e-02) (10, -3.02272811532020568848e-02) (11, 1.63455661386251449585e-02) (12, 2.98548508435487747192e-02) (13, -3.75654101371765136719e-02) (14, 6.12528026103973388672e-02) (15, 9.17111411690711975098e-02) (16, -1.98170896619558334351e-02) (17, -5.98336756229400634766e-02) (18, 6.22816234827041625977e-02) (19, 5.07704019546508789062e-02) (20, -4.43361476063728332520e-02) (21, 7.10304779931902885437e-03) (22, -2.61491015553474426270e-02) (23, -6.50394931435585021973e-02) (24, 3.66996601223945617676e-02) (25, 9.09680351614952087402e-02) (26, 8.36841985583305358887e-02) (27, 6.40205740928649902344e-02) (28, 5.61404116451740264893e-02) (29, 1.06716446578502655029e-01) (30, 4.09212522208690643311e-02) (31, 1.71848192811012268066e-01) (32, 1.00693352520465850830e-01) (33, 6.64388388395309448242e-02) (34, 1.97716489434242248535e-01) (35, 9.89760905504226684570e-02) (36, 9.36334803700447082520e-02) (37, 1.99963271617889404297e-01) (38, 1.92357152700424194336e-01) (39, 2.09067746996879577637e-01) (40, 2.58125454187393188477e-01) (41, 2.17743158340454101562e-01) (42, 9.09124687314033508301e-02) (43, 1.58763602375984191895e-01) (44, 6.06941618025302886963e-02) (45, 2.17056170105934143066e-01) (46, 1.03373058140277862549e-01) (47, 1.12586624920368194580e-01) (48, 2.50982791185379028320e-01) (49, 2.47900560498237609863e-01) (50, 2.40673199295997619629e-01) (51, 8.47755521535873413086e-02) (52, 1.27394780516624450684e-01) (53, 8.69152545928955078125e-02) (54, 9.08094644546508789062e-02) (55, 2.41019785404205322266e-01) (56, 2.11414366960525512695e-01) (57, 2.09882915019989013672e-01) (58, 1.40695899724960327148e-01) (59, 9.30110737681388854980e-02) (60, 1.42667710781097412109e-01) (61, 2.07361534237861633301e-01) (62, 2.96086966991424560547e-01) (63, 2.70744770765304565430e-01) (64, 3.03462535142898559570e-01) (65, 1.72588631510734558105e-01) (66, 1.56729972362518310547e+00) (67, 1.58302295207977294922e+00) (68, 1.43352329730987548828e+00) (69, 7.68203496932983398438e+00) (70, 4.44358873367309570312e+00) (71, 2.76634387969970703125e+01) (72, 1.04652385711669921875e+01) (73, 4.27672309875488281250e+01) (74, 6.82779729366302490234e-01) (75, 2.29145836830139160156e+00) (76, 1.48615300655364990234e+00) (77, 1.53473818302154541016e+00) (78, 1.51724314689636230469e+00) (79, 1.47866678237915039062e+00) (80, 9.27383661270141601562e-01) (81, 8.95800352096557617188e-01) (82, 1.41339468955993652344e+00) (83, 1.30845797061920166016e+00) (84, 6.86114788055419921875e-01) (85, 6.98005139827728271484e-01) (86, 3.40380489826202392578e-01) (87, 4.45573329925537109375e-01) (88, 4.56544220447540283203e-01) (89, 4.32018756866455078125e-01) (90, 7.02269732952117919922e-01) (91, 5.62897264957427978516e-01) (92, 6.02777719497680664062e-01) (93, 8.07490527629852294922e-01) (94, 5.05831539630889892578e-01) (95, 4.74198460578918457031e-01) (96, 6.22771859169006347656e-01) (97, 1.05367875099182128906e+00) (98, 5.04387021064758300781e-01) (99, 4.65408056974411010742e-01) (100, 4.17115718126296997070e-01) (101, 5.00041782855987548828e-01) (102, 1.03897666931152343750e+01) (103, 5.56629133224487304688e+00) (104, 5.52242946624755859375e+00) (105, 3.97651910781860351562e-01) (106, 3.14943730831146240234e-01) (107, 2.85263150930404663086e-01) (108, 3.04726541042327880859e-01) (109, 1.75313979387283325195e-01) (110, 1.00533701479434967041e-01) (111, 1.60505369305610656738e-01) (112, 7.75297507643699645996e-02) (113, 3.67513746023178100586e-02) (114, 1.17398545145988464355e-01) (115, -6.22868612408638000488e-02) (116, 9.49059650301933288574e-02) (117, 8.07921290397644042969e-02) (118, 1.23063221573829650879e-01) (119, 1.89331732690334320068e-02) (120, 1.15474015474319458008e-01) (121, 1.16729900240898132324e-01) (122, 1.86504095792770385742e-01) (123, 1.89604878425598144531e-01) (124, 1.06870599091053009033e-01) (125, 1.77258089184761047363e-01) (126, 2.46212795376777648926e-01) (127, 1.87274858355522155762e-01) (128, 1.23930290341377258301e-01) (129, 7.27650225162506103516e-02) (130, 8.54618102312088012695e-02) (131, 1.84239149093627929688e-01) (132, 2.25455760955810546875e-01) (133, 2.19373717904090881348e-01) (134, 1.21004939079284667969e-01) (135, 1.18359580636024475098e-01) (136, 3.60022559762001037598e-02) (137, 9.81812179088592529297e-02) (138, 8.41888710856437683105e-02) (139, 4.15554344654083251953e-02) (140, -3.02654840052127838135e-02) (141, 2.05176860094070434570e-01) (142, -3.00713539123535156250e-01) (143, -3.38770031929016113281e-01) (144, -2.84253448247909545898e-01) (145, -3.48690778017044067383e-01) (146, -3.27133089303970336914e-01) (147, -3.09821635484695434570e-01) (148, -3.80519002676010131836e-01) (149, -3.88984054327011108398e-01) (150, -4.02841061353683471680e-01) (151, -3.20390045642852783203e-01) (152, -2.92828172445297241211e-01) (153, -2.83592492341995239258e-01) (154, -3.90704214572906494141e-01) (155, 8.60296040773391723633e-02) (156, -4.47565615177154541016e-02) (157, -8.71025919914245605469e-02) (158, 7.19421019311994314194e-04) (159, 1.94097030907869338989e-02) (160, -7.20051005482673645020e-02) (161, 1.50322481989860534668e-01) (162, 6.42790123820304870605e-02) (163, 1.40807610005140304565e-02) (164, 1.15128785371780395508e-01) (165, 1.30995213985443115234e-01) (166, 7.81515240669250488281e-02) (167, 1.22489437460899353027e-01) (168, 2.13110595941543579102e-01) (169, 1.34942144155502319336e-01) (170, 1.25987976789474487305e-01) (171, 4.37288545072078704834e-02) (172, 8.26210230588912963867e-02) (173, 2.13383853435516357422e-01) (174, 2.87516087293624877930e-01) (175, 2.16796383261680603027e-01) (176, 3.28211754560470581055e-01) (177, 2.22691372036933898926e-01) (178, 3.39948952198028564453e-01) (179, 3.94667983055114746094e-01) (180, -5.36418557167053222656e-01) (0, 2.62836039066314697266e-01) (1, 1.91438868641853332520e-01) (2, 1.03469371795654296875e-01) (3, 2.23494425415992736816e-01) (4, 2.41364464163780212402e-01) (5, 1.03136561810970306396e-01) (6, 8.92926305532455444336e-02) (7, 2.65451729297637939453e-01) (8, 2.12249547243118286133e-01) (9, 2.17559769749641418457e-01) (10, 1.01384684443473815918e-01) (11, 1.47652864456176757812e-01) (12, 2.69194900989532470703e-01) (13, 9.75992605090141296387e-02) (14, 2.44388982653617858887e-01) (15, 1.80446386337280273438e-01) (16, 1.64442539215087890625e-01) (17, 1.54611021280288696289e-01) (18, 1.80770292878150939941e-01) (19, 8.44172686338424682617e-02) (20, 9.33050155639648437500e-01) (21, 8.74343693256378173828e-01) (22, 8.16338479518890380859e-01) (23, 7.80515849590301513672e-01) (24, 7.99833416938781738281e-01) (25, 8.40962350368499755859e-01) (26, 9.24852371215820312500e-01) (27, 8.31518352031707763672e-01) (28, 8.02397608757019042969e-01) (29, 9.29176867008209228516e-01) (30, 9.09173369407653808594e-01) (31, 7.82341480255126953125e-01) (32, 8.44954073429107666016e-01) (33, 9.50485110282897949219e-01) (34, 1.06645846366882324219e+00) (35, 9.97907400131225585938e-01) (36, 1.16343462467193603516e+00) (37, 2.03449749946594238281e+00) (38, 1.88298952579498291016e+00) (39, 2.27108693122863769531e+00) (40, 2.24385571479797363281e+00) (41, 2.17617225646972656250e+00) (42, 4.48060750961303710938e+00) (43, 4.37491846084594726562e+00) (44, 4.34086179733276367188e+00) (45, 4.45010805130004882812e+00) (46, 1.34092545509338378906e+00) (47, 1.28765225410461425781e+00) (48, 1.18706667423248291016e+00) (49, 1.24534845352172851562e+00) (50, 1.29572236537933349609e+00) (51, 9.48736369609832763672e-01) (52, 9.48311626911163330078e-01) (53, 9.56089138984680175781e-01) (54, 9.43763196468353271484e-01) (55, 9.56539332866668701172e-01) (56, 9.73550200462341308594e-01) (57, 8.90739560127258300781e-01) (58, 1.02933919429779052734e+00) (59, 1.02107918262481689453e+00) (60, 8.75635206699371337891e-01) (61, 1.06430792808532714844e+00) (62, 1.08879399299621582031e+00) (63, 1.00008106231689453125e+00) (64, 1.04269683361053466797e+00) (65, 1.08704936504364013672e+00) (66, 8.09389495849609375000e+00) (67, 1.79705181121826171875e+01) (68, 1.79710674285888671875e+01) (69, 7.99205970764160156250e+00) (70, 2.14714717864990234375e+00) (71, 4.62409543991088867188e+00) (72, 2.59470796585083007812e+00) (73, 2.45204687118530273438e+00) (74, 9.79413449764251708984e-01) (75, 1.13236188888549804688e+00) (76, 1.60886609554290771484e+00) (77, 1.50861656665802001953e+00) (78, 1.58556950092315673828e+00) (79, 5.98975121974945068359e-01) (80, 7.57007241249084472656e-01) (81, 6.84333980083465576172e-01) (82, 6.29777431488037109375e-01) (83, 5.77153384685516357422e-01) (84, 6.96848988533020019531e-01) (85, 6.86443746089935302734e-01) (86, 6.56827032566070556641e-01) (87, 6.05553150177001953125e-01) (88, 7.22924351692199707031e-01) (89, 6.12749695777893066406e-01) (90, 7.57683217525482177734e-01) (91, 7.29609906673431396484e-01) (92, 7.43964374065399169922e-01) (93, 7.46603727340698242188e-01) (94, 6.28751993179321289062e-01) (95, 6.46324634552001953125e-01) (96, 6.86065971851348876953e-01) (97, 7.51687705516815185547e-01) (98, 7.51426577568054199219e-01) (99, 7.72145032882690429688e-01) (100, 7.40649282932281494141e-01) (101, 8.31614732742309570312e-01) (102, 8.46237897872924804688e-01) (103, 7.58810400962829589844e-01) (104, 6.60066843032836914062e-01) (105, 6.85809433460235595703e-01) (106, 6.62573158740997314453e-01) (107, 7.83738434314727783203e-01) (108, 7.56083726882934570312e-01) (109, 6.38090491294860839844e-01) (110, 5.98435401916503906250e-01) (111, 7.38333582878112792969e-01) (112, 7.15288817882537841797e-01) (113, 6.49966061115264892578e-01) (114, 8.14858019351959228516e-01) (115, 6.47359848022460937500e-01) (116, 8.15431535243988037109e-01) (117, 8.02425086498260498047e-01) (118, 2.04929873347282409668e-01) (119, -7.50255346298217773438e-01) (120, 1.95324480533599853516e-01) (121, 8.53512406349182128906e-01) (122, 8.78918111324310302734e-01) (123, 8.37687492370605468750e-01) (124, 8.49972724914550781250e-01) (125, 9.58463191986083984375e-01) (126, 9.17233586311340332031e-01) (127, 9.60702717304229736328e-01) (128, 2.45215341448783874512e-01) (129, 2.11653545498847961426e-01) (130, 2.86771744489669799805e-01) (131, 1.40870243310928344727e-01) (132, 2.01929479837417602539e-01) (133, 2.81635612249374389648e-01) (134, 1.91807404160499572754e-01) (135, 2.04826354980468750000e-01) (136, 1.57127320766448974609e-01) (137, 2.65026897192001342773e-01) (138, 2.41276457905769348145e-01) (139, 1.65693029761314392090e-01) (140, 1.43206760287284851074e-01) (141, 2.60981082916259765625e-01) (142, 3.14716249704360961914e-01) (143, 2.88441359996795654297e-01) (144, 1.34800657629966735840e-01) (145, 2.78187483549118041992e-01) (146, 1.63132369518280029297e-01) (147, 1.29338577389717102051e-01) (148, 1.35336041450500488281e-01) (149, 2.94557988643646240234e-01) (150, 2.97782003879547119141e-01) (151, 2.41474822163581848145e-01) (152, 2.12989270687103271484e-01) (153, 2.19260841608047485352e-01) (154, 1.18335269391536712646e-01) (155, 2.99161076545715332031e-01) (156, 2.03022956848144531250e-01) (157, 2.68796741962432861328e-01) (158, 2.98621535301208496094e-01) (159, 1.84197992086410522461e-01) (160, 2.16410040855407714844e-01) (161, 3.18452209234237670898e-01) (162, 2.34464377164840698242e-01) (163, 3.27735632658004760742e-01) (164, 3.12195867300033569336e-01) (165, 1.43844932317733764648e-01) (166, 2.50135213136672973633e-01) (167, 1.87275052070617675781e-01) (168, 3.27390044927597045898e-01) (169, 1.65243729948997497559e-01) (170, 2.25927114486694335938e-01) (171, 1.43039673566818237305e-01) (172, 3.00675183534622192383e-01) (173, 2.18242198228836059570e-01) (174, 3.09759199619293212891e-01) (175, 3.15495431423187255859e-01) (176, -1.52359575033187866211e-01) (177, -1.78459376096725463867e-01) (178, -1.19331097230315208435e-02) (179, -1.41133204102516174316e-01) (180, -2.75279760360717773438e-01) (0, 1.82445275783538818359e+00) (1, 1.82834029197692871094e+00) (2, 1.74205338954925537109e+00) (3, 1.72457277774810791016e+00) (4, 1.83630347251892089844e+00) (5, 1.73620808124542236328e+00) (6, 1.82258927822113037109e+00) (7, 1.80009377002716064453e+00) (8, 1.72925567626953125000e+00) (9, 1.60432314872741699219e+00) (10, 1.61356937885284423828e+00) (11, 1.64553844928741455078e+00) (12, 1.70500612258911132812e+00) (13, 1.60563755035400390625e+00) (14, 1.62385118007659912109e+00) (15, 1.71964883804321289062e+00) (16, 1.72892701625823974609e+00) (17, 1.68292880058288574219e+00) (18, 1.71712887287139892578e+00) (19, 1.76632285118103027344e+00) (20, 1.58362483978271484375e+00) (21, 1.73545360565185546875e+00) (22, 1.70584118366241455078e+00) (23, 1.64012932777404785156e+00) (24, 1.68300473690032958984e+00) (25, 1.71659827232360839844e+00) (26, 1.71242070198059082031e+00) (27, 1.80107259750366210938e+00) (28, 1.76901197433471679688e+00) (29, 1.82754278182983398438e+00) (30, 1.73274981975555419922e+00) (31, 1.73118126392364501953e+00) (32, 1.80236828327178955078e+00) (33, 1.68249809741973876953e+00) (34, 1.80374383926391601562e+00) (35, 1.78666150569915771484e+00) (36, 1.76620137691497802734e+00) (37, 1.77381098270416259766e+00) (38, 1.73423314094543457031e+00) (39, 1.81515789031982421875e+00) (40, 1.76910626888275146484e+00) (41, 1.73924505710601806641e+00) (42, 1.69943296909332275391e+00) (43, 1.71581709384918212891e+00) (44, 1.78894376754760742188e+00) (45, 1.74952077865600585938e+00) (46, 1.65795087814331054688e+00) (47, 1.74035561084747314453e+00) (48, 1.65572905540466308594e+00) (49, 1.79987013339996337891e+00) (50, 1.72940683364868164062e+00) (51, 1.66208207607269287109e+00) (52, 1.75858008861541748047e+00) (53, 1.68982172012329101562e+00) (54, 1.75548028945922851562e+00) (55, 1.69532406330108642578e+00) (56, 1.82736647129058837891e+00) (57, 1.69073307514190673828e+00) (58, 1.17408049106597900391e+00) (59, 1.27344989776611328125e+00) (60, 1.19534754753112792969e+00) (61, 1.33710610866546630859e+00) (62, 1.17497801780700683594e+00) (63, 1.16806244850158691406e+00) (64, 1.13928568363189697266e+00) (65, 1.34183192253112792969e+00) (66, 1.08677854537963867188e+01) (67, 1.08571443557739257812e+01) (68, 1.08222160339355468750e+01) (69, 1.07586402893066406250e+01) (70, 5.23329687118530273438e+00) (71, 2.40000419616699218750e+01) (72, 2.41066055297851562500e+01) (73, 2.39469032287597656250e+01) (74, 1.57473230361938476562e+00) (75, 5.86307096481323242188e+00) (76, 1.59242022037506103516e+00) (77, 1.63829386234283447266e+00) (78, 1.50038850307464599609e+00) (79, 1.61629736423492431641e+00) (80, 1.23248767852783203125e+00) (81, 1.22314822673797607422e+00) (82, 1.27173256874084472656e+00) (83, 1.15641987323760986328e+00) (84, 1.26685118675231933594e+00) (85, 1.18297970294952392578e+00) (86, 1.20876717567443847656e+00) (87, 1.25576162338256835938e+00) (88, 6.25718593597412109375e-01) (89, 6.19794547557830810547e-01) (90, 1.18426096439361572266e+00) (91, 1.08565366268157958984e+00) (92, 1.20738720893859863281e+00) (93, 1.19954371452331542969e+00) (94, 1.09712541103363037109e+00) (95, 1.22945415973663330078e+00) (96, 1.17989194393157958984e+00) (97, 1.26590907573699951172e+00) (98, 1.18232274055480957031e+00) (99, 1.08893597126007080078e+00) (100, 1.08620011806488037109e+00) (101, 1.10517275333404541016e+00) (102, 1.14102983474731445312e+00) (103, 1.25655150413513183594e+00) (104, 1.11388373374938964844e+00) (105, 1.07666432857513427734e+00) (106, 1.16273462772369384766e+00) (107, 1.22242283821105957031e+00) (108, 1.23958063125610351562e+00) (109, 1.19418632984161376953e+00) (110, 1.16002726554870605469e+00) (111, 1.16614735126495361328e+00) (112, 1.11302924156188964844e+00) (113, 1.13733005523681640625e+00) (114, 1.25341188907623291016e+00) (115, 1.11094141006469726562e+00) (116, 1.27144002914428710938e+00) (117, 1.18597030639648437500e+00) (118, 1.10930907726287841797e+00) (119, 1.06185472011566162109e+00) (120, 1.15325450897216796875e+00) (121, 1.22959673404693603516e+00) (122, 1.25574135780334472656e+00) (123, 1.28982841968536376953e+00) (124, 1.15889191627502441406e+00) (125, 1.27954876422882080078e+00) (126, 1.24413251876831054688e+00) (127, 1.26445710659027099609e+00) (128, 1.25073039531707763672e+00) (129, 1.13645899295806884766e+00) (130, 1.26587104797363281250e+00) (131, 1.66935515403747558594e+00) (132, 1.57435154914855957031e+00) (133, 1.54557001590728759766e+00) (134, 1.65331077575683593750e+00) (135, 1.61757922172546386719e+00) (136, 1.54183828830718994141e+00) (137, 1.54134202003479003906e+00) (138, 1.72139167785644531250e+00) (139, 1.66446101665496826172e+00) (140, 1.81951069831848144531e+00) (141, 1.81791579723358154297e+00) (142, 1.88729059696197509766e+00) (143, 1.66496169567108154297e+00) (144, 1.81236219406127929688e+00) (145, 1.86820888519287109375e+00) (146, 1.83606290817260742188e+00) (147, 2.03690671920776367188e+00) (148, 2.01302886009216308594e+00) (149, 2.85287809371948242188e+00) (150, 2.70483160018920898438e+00) (151, 2.16245794296264648438e+00) (152, 2.13470768928527832031e+00) (153, 2.23919367790222167969e+00) (154, 2.16070055961608886719e+00) (155, 2.02883410453796386719e+00) (156, 2.05034732818603515625e+00) (157, 1.93696582317352294922e+00) (158, 1.45541298389434814453e+00) (159, 1.46324527263641357422e+00) (160, 1.43588745594024658203e+00) (161, 1.42607235908508300781e+00) (162, 1.42957222461700439453e+00) (163, 1.50721073150634765625e+00) (164, 1.47792434692382812500e+00) (165, 1.38534605503082275391e+00) (166, 1.42725300788879394531e+00) (167, 1.50065171718597412109e+00) (168, 1.60810279846191406250e+00) (169, 1.67408597469329833984e+00) (170, 1.53861856460571289062e+00) (171, 1.61178886890411376953e+00) (172, 1.67780900001525878906e+00) (173, 6.44439399242401123047e-01) (174, 3.66115242242813110352e-01) (175, 2.55191147327423095703e-01) (176, 3.38841229677200317383e-01) (177, 2.73039996623992919922e-01) (178, 3.29114049673080444336e-01) (179, 3.88600647449493408203e-01) (180, -2.78208494186401367188e-01) (0, 1.69478511810302734375e+00) (1, 1.64536285400390625000e+00) (2, 1.64449477195739746094e+00) (3, 1.70809674263000488281e+00) (4, 1.57703757286071777344e+00) (5, 1.62144958972930908203e+00) (6, 1.68761432170867919922e+00) (7, 1.64317345619201660156e+00) (8, 1.75004673004150390625e+00) (9, 1.62404370307922363281e+00) (10, 1.55224502086639404297e+00) (11, 1.65741348266601562500e+00) (12, 1.73241937160491943359e+00) (13, 1.21772944927215576172e+00) (14, 1.09155702590942382812e+00) (15, 8.35082292556762695312e-01) (16, 8.82829189300537109375e-01) (17, 8.31311106681823730469e-01) (18, 8.48177671432495117188e-01) (19, 7.94127464294433593750e-01) (20, 8.41973662376403808594e-01) (21, 7.94583439826965332031e-01) (22, 7.74089574813842773438e-01) (23, 8.49453330039978027344e-01) (24, 7.66495466232299804688e-01) (25, 8.53453516960144042969e-01) (26, 8.11887800693511962891e-01) (27, 8.98798406124114990234e-01) (28, 8.22567522525787353516e-01) (29, 8.40488314628601074219e-01) (30, 9.51622962951660156250e-01) (31, 8.14232826232910156250e-01) (32, 9.79881644248962402344e-01) (33, 8.66361558437347412109e-01) (34, 9.74464476108551025391e-01) (35, 8.19286942481994628906e-01) (36, 9.47110593318939208984e-01) (37, 1.06060147285461425781e+00) (38, 1.22812879085540771484e+00) (39, 1.68084847927093505859e+00) (40, 2.20566105842590332031e+00) (41, 1.07728767395019531250e+00) (42, 2.31017494201660156250e+00) (43, 2.43962836265563964844e+00) (44, 1.52843439579010009766e+00) (45, 1.54651117324829101562e+00) (46, 1.11010611057281494141e+00) (47, 1.28204298019409179688e+00) (48, 1.25385379791259765625e+00) (49, 1.27510786056518554688e+00) (50, 1.16077518463134765625e+00) (51, 9.12484943866729736328e-01) (52, 8.53573799133300781250e-01) (53, 9.18977260589599609375e-01) (54, 8.40662598609924316406e-01) (55, 9.04904246330261230469e-01) (56, 8.40541362762451171875e-01) (57, 9.18780326843261718750e-01) (58, 8.36690664291381835938e-01) (59, 8.95971238613128662109e-01) (60, 9.95830476284027099609e-01) (61, 1.47733283042907714844e+00) (62, 1.25407648086547851562e+00) (63, 3.29431951045989990234e-01) (64, 1.56247496604919433594e-01) (65, 2.42752432823181152344e-01) (66, 3.10580706596374511719e+00) (67, 5.76986014842987060547e-01) (68, 2.82824540138244628906e+00) (69, 2.91670012474060058594e+00) (70, 4.92626398801803588867e-01) (71, 9.47753131389617919922e-01) (72, 6.35516762733459472656e-01) (73, 4.43563640117645263672e-01) (74, 2.15912848711013793945e-01) (75, 1.24250382184982299805e-01) (76, 1.80902421474456787109e-01) (77, 2.48051583766937255859e-01) (78, 1.51265561580657958984e-01) (79, 1.14913240075111389160e-01) (80, 1.86388343572616577148e-01) (81, 1.67174965143203735352e-01) (82, 1.61799058318138122559e-01) (83, 5.55773964151740074158e-03) (84, 1.37550365179777145386e-02) (85, -1.48391276597976684570e-02) (86, 1.23779959976673126221e-01) (87, 1.12571612000465393066e-01) (88, 1.69937983155250549316e-01) (89, 1.78384572267532348633e-01) (90, 4.09007966518402099609e-02) (91, 1.90227657556533813477e-01) (92, 1.91538661718368530273e-01) (93, 1.59105986356735229492e-01) (94, 1.72149419784545898438e-01) (95, 5.82341551780700683594e-02) (96, 5.39450496435165405273e-02) (97, 1.65294736623764038086e-01) (98, 6.54148831963539123535e-02) (99, 6.23677149415016174316e-02) (100, 6.21723644435405731201e-02) (101, 2.12744683027267456055e-01) (102, 6.43139779567718505859e-02) (103, 9.02029871940612792969e-02) (104, 2.11691573262214660645e-01) (105, 2.33849853277206420898e-01) (106, 1.67515724897384643555e-01) (107, 1.21070273220539093018e-01) (108, 2.27618291974067687988e-01) (109, 1.11406907439231872559e-01) (110, 2.30141237378120422363e-01) (111, 1.87291219830513000488e-01) (112, 1.86960384249687194824e-01) (113, 1.93875059485435485840e-01) (114, 4.44653898477554321289e-01) (115, 1.90335005521774291992e-01) (116, 1.81185916066169738770e-01) (117, 1.80322632193565368652e-01) (118, 4.62368577718734741211e-01) (119, 2.50235348939895629883e-01) (120, 1.56610742211341857910e-01) (121, 2.39492088556289672852e-01) (122, 2.12851166725158691406e-01) (123, 8.60409438610076904297e-02) (124, 1.69476449489593505859e-01) (125, 3.79965901374816894531e-01) (126, 9.78002399206161499023e-02) (127, 1.75440177321434020996e-01) (128, 7.47892856597900390625e-02) (129, 1.29507571458816528320e-01) (130, 2.06144466996192932129e-01) (131, 1.05298168957233428955e-01) (132, 1.12982593476772308350e-01) (133, 8.48710775375366210938e-01) (134, 7.54678249359130859375e-01) (135, 7.04126596450805664062e-01) (136, 8.40291202068328857422e-01) (137, 5.90491652488708496094e-01) (138, 7.20598042011260986328e-01) (139, 7.25258708000183105469e-01) (140, 6.01602435111999511719e-01) (141, 6.55484855175018310547e-01) (142, 6.80336236953735351562e-01) (143, 5.65300166606903076172e-01) (144, 6.16864919662475585938e-01) (145, 6.02221727371215820312e-01) (146, 5.91687679290771484375e-01) (147, 6.20134949684143066406e-01) (148, 7.22933292388916015625e-01) (149, 7.98460960388183593750e-01) (150, 6.49971008300781250000e-01) (151, 7.75006890296936035156e-01) (152, 7.60055720806121826172e-01) (153, 7.89496362209320068359e-01) (154, 7.84411251544952392578e-01) (155, 6.55100405216217041016e-01) (156, 6.72744572162628173828e-01) (157, 6.18996262550354003906e-01) (158, 7.71763801574707031250e-01) (159, 6.95986688137054443359e-01) (160, 