FANN_FLO_2.1
num_layers=3
learning_rate=0.700000
connection_rate=1.000000
network_type=0
learning_momentum=0.000000
training_algorithm=2
train_error_function=1
train_stop_function=0
cascade_output_change_fraction=0.010000
quickprop_decay=-0.000100
quickprop_mu=1.750000
rprop_increase_factor=1.200000
rprop_decrease_factor=0.500000
rprop_delta_min=0.000000
rprop_delta_max=50.000000
rprop_delta_zero=0.100000
cascade_output_stagnation_epochs=12
cascade_candidate_change_fraction=0.010000
cascade_candidate_stagnation_epochs=12
cascade_max_out_epochs=150
cascade_min_out_epochs=50
cascade_max_cand_epochs=150
cascade_min_cand_epochs=50
cascade_num_candidate_groups=2
bit_fail_limit=3.49999994039535522461e-01
cascade_candidate_limit=1.00000000000000000000e+03
cascade_weight_multiplier=4.00000005960464477539e-01
cascade_activation_functions_count=10
cascade_activation_functions=3 5 7 8 10 11 14 15 16 17 
cascade_activation_steepnesses_count=4
cascade_activation_steepnesses=2.50000000000000000000e-01 5.00000000000000000000e-01 7.50000000000000000000e-01 1.00000000000000000000e+00 
layer_sizes=181 362 50 
scale_included=0
neurons (num_inputs, activation_function, activation_steepness)=(0, 0, 0.00000000000000000000e+00) (0, 0, 0.00000000000000000000e+00) (0, 0, 0.00000000000000000000e+00) (0, 0, 0.00000000000000000000e+00) (0, 0, 0.00000000000000000000e+00) (0, 0, 0.00000000000000000000e+00) (0, 0, 0.00000000000000000000e+00) (0, 0, 0.00000000000000000000e+00) (0, 0, 0.00000000000000000000e+00) (0, 0, 0.00000000000000000000e+00) (0, 0, 0.00000000000000000000e+00) (0, 0, 0.00000000000000000000e+00) (0, 0, 0.00000000000000000000e+00) (0, 0, 0.00000000000000000000e+00) (0, 0, 0.00000000000000000000e+00) (0, 0, 0.00000000000000000000e+00) (0, 0, 0.00000000000000000000e+00) (0, 0, 0.00000000000000000000e+00) (0, 0, 0.00000000000000000000e+00) (0, 0, 0.00000000000000000000e+00) (0, 0, 0.00000000000000000000e+00) (0, 0, 0.00000000000000000000e+00) (0, 0, 0.00000000000000000000e+00) (0, 0, 0.00000000000000000000e+00) (0, 0, 0.00000000000000000000e+00) (0, 0, 0.00000000000000000000e+00) (0, 0, 0.00000000000000000000e+00) (0, 0, 0.00000000000000000000e+00) (0, 0, 0.00000000000000000000e+00) (0, 0, 0.00000000000000000000e+00) (0, 0, 0.00000000000000000000e+00) (0, 0, 0.00000000000000000000e+00) (0, 0, 0.00000000000000000000e+00) (0, 0, 0.00000000000000000000e+00) (0, 0, 0.00000000000000000000e+00) (0, 0, 0.00000000000000000000e+00) (0, 0, 0.00000000000000000000e+00) (0, 0, 0.00000000000000000000e+00) (0, 0, 0.00000000000000000000e+00) (0, 0, 0.00000000000000000000e+00) (0, 0, 0.00000000000000000000e+00) (0, 0, 0.00000000000000000000e+00) (0, 0, 0.00000000000000000000e+00) (0, 0, 0.00000000000000000000e+00) (0, 0, 0.00000000000000000000e+00) (0, 0, 0.00000000000000000000e+00) (0, 0, 0.00000000000000000000e+00) (0, 0, 0.00000000000000000000e+00) (0, 0, 0.00000000000000000000e+00) (0, 0, 0.00000000000000000000e+00) (0, 0, 0.00000000000000000000e+00) (0, 0, 0.00000000000000000000e+00) (0, 0, 0.00000000000000000000e+00) (0, 0, 0.00000000000000000000e+00) (0, 0, 0.00000000000000000000e+00) (0, 0, 0.00000000000000000000e+00) (0, 0, 0.00000000000000000000e+00) (0, 0, 0.00000000000000000000e+00) (0, 0, 0.00000000000000000000e+00) (0, 0, 0.00000000000000000000e+00) (0, 0, 0.00000000000000000000e+00) (0, 0, 0.00000000000000000000e+00) (0, 0, 0.00000000000000000000e+00) (0, 0, 0.00000000000000000000e+00) (0, 0, 0.00000000000000000000e+00) (0, 0, 0.00000000000000000000e+00) (0, 0, 0.00000000000000000000e+00) (0, 0, 0.00000000000000000000e+00) (0, 0, 0.00000000000000000000e+00) (0, 0, 0.00000000000000000000e+00) (0, 0, 0.00000000000000000000e+00) (0, 0, 0.00000000000000000000e+00) (0, 0, 0.00000000000000000000e+00) (0, 0, 0.00000000000000000000e+00) (0, 0, 0.00000000000000000000e+00) (0, 0, 0.00000000000000000000e+00) (0, 0, 0.00000000000000000000e+00) (0, 0, 0.00000000000000000000e+00) (0, 0, 0.00000000000000000000e+00) (0, 0, 0.00000000000000000000e+00) (0, 0, 0.00000000000000000000e+00) (0, 0, 0.00000000000000000000e+00) (0, 0, 0.00000000000000000000e+00) (0, 0, 0.00000000000000000000e+00) (0, 0, 0.00000000000000000000e+00) (0, 0, 0.00000000000000000000e+00) (0, 0, 0.00000000000000000000e+00) (0, 0, 0.00000000000000000000e+00) (0, 0, 0.00000000000000000000e+00) (0, 0, 0.00000000000000000000e+00) (0, 0, 0.00000000000000000000e+00) (0, 0, 0.00000000000000000000e+00) (0, 0, 0.00000000000000000000e+00) (0, 0, 0.00000000000000000000e+00) (0, 0, 0.00000000000000000000e+00) (0, 0, 0.00000000000000000000e+00) (0, 0, 0.00000000000000000000e+00) (0, 0, 0.00000000000000000000e+00) (0, 0, 0.00000000000000000000e+00) (0, 0, 0.00000000000000000000e+00) (0, 0, 0.00000000000000000000e+00) (0, 0, 0.00000000000000000000e+00) (0, 0, 0.00000000000000000000e+00) (0, 0, 0.00000000000000000000e+00) (0, 0, 0.00000000000000000000e+00) (0, 0, 0.00000000000000000000e+00) (0, 0, 0.00000000000000000000e+00) (0, 0, 0.00000000000000000000e+00) (0, 0, 0.00000000000000000000e+00) (0, 0, 0.00000000000000000000e+00) (0, 0, 0.00000000000000000000e+00) (0, 0, 0.00000000000000000000e+00) (0, 0, 0.00000000000000000000e+00) (0, 0, 0.00000000000000000000e+00) (0, 0, 0.00000000000000000000e+00) (0, 0, 0.00000000000000000000e+00) (0, 0, 0.00000000000000000000e+00) (0, 0, 0.00000000000000000000e+00) (0, 0, 0.00000000000000000000e+00) (0, 0, 0.00000000000000000000e+00) (0, 0, 0.00000000000000000000e+00) (0, 0, 0.00000000000000000000e+00) (0, 0, 0.00000000000000000000e+00) (0, 0, 0.00000000000000000000e+00) (0, 0, 0.00000000000000000000e+00) (0, 0, 0.00000000000000000000e+00) (0, 0, 0.00000000000000000000e+00) (0, 0, 0.00000000000000000000e+00) (0, 0, 0.00000000000000000000e+00) (0, 0, 0.00000000000000000000e+00) (0, 0, 0.00000000000000000000e+00) (0, 0, 0.00000000000000000000e+00) (0, 0, 0.00000000000000000000e+00) (0, 0, 0.00000000000000000000e+00) (0, 0, 0.00000000000000000000e+00) (0, 0, 0.00000000000000000000e+00) (0, 0, 0.00000000000000000000e+00) (0, 0, 0.00000000000000000000e+00) (0, 0, 0.00000000000000000000e+00) (0, 0, 0.00000000000000000000e+00) (0, 0, 0.00000000000000000000e+00) (0, 0, 0.00000000000000000000e+00) (0, 0, 0.00000000000000000000e+00) (0, 0, 0.00000000000000000000e+00) (0, 0, 0.00000000000000000000e+00) (0, 0, 0.00000000000000000000e+00) (0, 0, 0.00000000000000000000e+00) (0, 0, 0.00000000000000000000e+00) (0, 0, 0.00000000000000000000e+00) (0, 0, 0.00000000000000000000e+00) (0, 0, 0.00000000000000000000e+00) (0, 0, 0.00000000000000000000e+00) (0, 0, 0.00000000000000000000e+00) (0, 0, 0.00000000000000000000e+00) (0, 0, 0.00000000000000000000e+00) (0, 0, 0.00000000000000000000e+00) (0, 0, 0.00000000000000000000e+00) (0, 0, 0.00000000000000000000e+00) (0, 0, 0.00000000000000000000e+00) (0, 0, 0.00000000000000000000e+00) (0, 0, 0.00000000000000000000e+00) (0, 0, 0.00000000000000000000e+00) (0, 0, 0.00000000000000000000e+00) (0, 0, 0.00000000000000000000e+00) (0, 0, 0.00000000000000000000e+00) (0, 0, 0.00000000000000000000e+00) (0, 0, 0.00000000000000000000e+00) (0, 0, 0.00000000000000000000e+00) (0, 0, 0.00000000000000000000e+00) (0, 0, 0.00000000000000000000e+00) (0, 0, 0.00000000000000000000e+00) (0, 0, 0.00000000000000000000e+00) (0, 0, 0.00000000000000000000e+00) (0, 0, 0.00000000000000000000e+00) (0, 0, 0.00000000000000000000e+00) (0, 0, 0.00000000000000000000e+00) (0, 0, 0.00000000000000000000e+00) (0, 0, 0.00000000000000000000e+00) (0, 0, 0.00000000000000000000e+00) (0, 0, 0.00000000000000000000e+00) (0, 0, 0.00000000000000000000e+00) (181, 5, 5.00000000000000000000e-01) (181, 5, 5.00000000000000000000e-01) (181, 5, 5.00000000000000000000e-01) (181, 5, 5.00000000000000000000e-01) (181, 5, 5.00000000000000000000e-01) (181, 5, 5.00000000000000000000e-01) (181, 5, 5.00000000000000000000e-01) (181, 5, 5.00000000000000000000e-01) (181, 5, 5.00000000000000000000e-01) (181, 5, 5.00000000000000000000e-01) (181, 5, 5.00000000000000000000e-01) (181, 5, 5.00000000000000000000e-01) (181, 5, 5.00000000000000000000e-01) (181, 5, 5.00000000000000000000e-01) (181, 5, 5.00000000000000000000e-01) (181, 5, 5.00000000000000000000e-01) (181, 5, 5.00000000000000000000e-01) (181, 5, 5.00000000000000000000e-01) (181, 5, 5.00000000000000000000e-01) (181, 5, 5.00000000000000000000e-01) (181, 5, 5.00000000000000000000e-01) (181, 5, 5.00000000000000000000e-01) (181, 5, 5.00000000000000000000e-01) (181, 5, 5.00000000000000000000e-01) (181, 5, 5.00000000000000000000e-01) (181, 5, 5.00000000000000000000e-01) (181, 5, 5.00000000000000000000e-01) (181, 5, 5.00000000000000000000e-01) (181, 5, 5.00000000000000000000e-01) (181, 5, 5.00000000000000000000e-01) (181, 5, 5.00000000000000000000e-01) (181, 5, 5.00000000000000000000e-01) (181, 5, 5.00000000000000000000e-01) (181, 5, 5.00000000000000000000e-01) (181, 5, 5.00000000000000000000e-01) (181, 5, 5.00000000000000000000e-01) (181, 5, 5.00000000000000000000e-01) (181, 5, 5.00000000000000000000e-01) (181, 5, 5.00000000000000000000e-01) (181, 5, 5.00000000000000000000e-01) (181, 5, 5.00000000000000000000e-01) (181, 5, 5.00000000000000000000e-01) (181, 5, 5.00000000000000000000e-01) (181, 5, 5.00000000000000000000e-01) (181, 5, 5.00000000000000000000e-01) (181, 5, 5.00000000000000000000e-01) (181, 5, 5.00000000000000000000e-01) (181, 5, 5.00000000000000000000e-01) (181, 5, 5.00000000000000000000e-01) (181, 5, 5.00000000000000000000e-01) (181, 5, 5.00000000000000000000e-01) (181, 5, 5.00000000000000000000e-01) (181, 5, 5.00000000000000000000e-01) (181, 5, 5.00000000000000000000e-01) (181, 5, 5.00000000000000000000e-01) (181, 5, 5.00000000000000000000e-01) (181, 5, 5.00000000000000000000e-01) (181, 5, 5.00000000000000000000e-01) (181, 5, 5.00000000000000000000e-01) (181, 5, 5.00000000000000000000e-01) (181, 5, 5.00000000000000000000e-01) (181, 5, 5.00000000000000000000e-01) (181, 5, 5.00000000000000000000e-01) (181, 5, 5.00000000000000000000e-01) (181, 5, 5.00000000000000000000e-01) (181, 5, 5.00000000000000000000e-01) (181, 5, 5.00000000000000000000e-01) (181, 5, 5.00000000000000000000e-01) (181, 5, 5.00000000000000000000e-01) (181, 5, 5.00000000000000000000e-01) (181, 5, 5.00000000000000000000e-01) (181, 5, 5.00000000000000000000e-01) (181, 5, 5.00000000000000000000e-01) (181, 5, 5.00000000000000000000e-01) (181, 5, 5.00000000000000000000e-01) (181, 5, 5.00000000000000000000e-01) (181, 5, 5.00000000000000000000e-01) (181, 5, 5.00000000000000000000e-01) (181, 5, 5.00000000000000000000e-01) (181, 5, 5.00000000000000000000e-01) (181, 5, 5.00000000000000000000e-01) (181, 5, 5.00000000000000000000e-01) (181, 5, 5.00000000000000000000e-01) (181, 5, 5.00000000000000000000e-01) (181, 5, 5.00000000000000000000e-01) (181, 5, 5.00000000000000000000e-01) (181, 5, 5.00000000000000000000e-01) (181, 5, 5.00000000000000000000e-01) (181, 5, 5.00000000000000000000e-01) (181, 5, 5.00000000000000000000e-01) (181, 5, 5.00000000000000000000e-01) (181, 5, 5.00000000000000000000e-01) (181, 5, 5.00000000000000000000e-01) (181, 5, 5.00000000000000000000e-01) (181, 5, 5.00000000000000000000e-01) (181, 5, 5.00000000000000000000e-01) (181, 5, 5.00000000000000000000e-01) (181, 5, 5.00000000000000000000e-01) (181, 5, 5.00000000000000000000e-01) (181, 5, 5.00000000000000000000e-01) (181, 5, 5.00000000000000000000e-01) (181, 5, 5.00000000000000000000e-01) (181, 5, 5.00000000000000000000e-01) (181, 5, 5.00000000000000000000e-01) (181, 5, 5.00000000000000000000e-01) (181, 5, 5.00000000000000000000e-01) (181, 5, 5.00000000000000000000e-01) (181, 5, 5.00000000000000000000e-01) (181, 5, 5.00000000000000000000e-01) (181, 5, 5.00000000000000000000e-01) (181, 5, 5.00000000000000000000e-01) (181, 5, 5.00000000000000000000e-01) (181, 5, 5.00000000000000000000e-01) (181, 5, 5.00000000000000000000e-01) (181, 5, 5.00000000000000000000e-01) (181, 5, 5.00000000000000000000e-01) (181, 5, 5.00000000000000000000e-01) (181, 5, 5.00000000000000000000e-01) (181, 5, 5.00000000000000000000e-01) (181, 5, 5.00000000000000000000e-01) (181, 5, 5.00000000000000000000e-01) (181, 5, 5.00000000000000000000e-01) (181, 5, 5.00000000000000000000e-01) (181, 5, 5.00000000000000000000e-01) (181, 5, 5.00000000000000000000e-01) (181, 5, 5.00000000000000000000e-01) (181, 5, 5.00000000000000000000e-01) (181, 5, 5.00000000000000000000e-01) (181, 5, 5.00000000000000000000e-01) (181, 5, 5.00000000000000000000e-01) (181, 5, 5.00000000000000000000e-01) (181, 5, 5.00000000000000000000e-01) (181, 5, 5.00000000000000000000e-01) (181, 5, 5.00000000000000000000e-01) (181, 5, 5.00000000000000000000e-01) (181, 5, 5.00000000000000000000e-01) (181, 5, 5.00000000000000000000e-01) (181, 5, 5.00000000000000000000e-01) (181, 5, 5.00000000000000000000e-01) (181, 5, 5.00000000000000000000e-01) (181, 5, 5.00000000000000000000e-01) (181, 5, 5.00000000000000000000e-01) (181, 5, 5.00000000000000000000e-01) (181, 5, 5.00000000000000000000e-01) (181, 5, 5.00000000000000000000e-01) (181, 5, 5.00000000000000000000e-01) (181, 5, 5.00000000000000000000e-01) (181, 5, 5.00000000000000000000e-01) (181, 5, 5.00000000000000000000e-01) (181, 5, 5.00000000000000000000e-01) (181, 5, 5.00000000000000000000e-01) (181, 5, 5.00000000000000000000e-01) (181, 5, 5.00000000000000000000e-01) (181, 5, 5.00000000000000000000e-01) (181, 5, 5.00000000000000000000e-01) (181, 5, 5.00000000000000000000e-01) (181, 5, 5.00000000000000000000e-01) (181, 5, 5.00000000000000000000e-01) (181, 5, 5.00000000000000000000e-01) (181, 5, 5.00000000000000000000e-01) (181, 5, 5.00000000000000000000e-01) (181, 5, 5.00000000000000000000e-01) (181, 5, 5.00000000000000000000e-01) (181, 5, 5.00000000000000000000e-01) (181, 5, 5.00000000000000000000e-01) (181, 5, 5.00000000000000000000e-01) (181, 5, 5.00000000000000000000e-01) (181, 5, 5.00000000000000000000e-01) (181, 5, 5.00000000000000000000e-01) (181, 5, 5.00000000000000000000e-01) (181, 5, 5.00000000000000000000e-01) (181, 5, 5.00000000000000000000e-01) (181, 5, 5.00000000000000000000e-01) (181, 5, 5.00000000000000000000e-01) (181, 5, 5.00000000000000000000e-01) (181, 5, 5.00000000000000000000e-01) (181, 5, 5.00000000000000000000e-01) (181, 5, 5.00000000000000000000e-01) (181, 5, 5.00000000000000000000e-01) (181, 5, 5.00000000000000000000e-01) (181, 5, 5.00000000000000000000e-01) (181, 5, 5.00000000000000000000e-01) (181, 5, 5.00000000000000000000e-01) (181, 5, 5.00000000000000000000e-01) (181, 5, 5.00000000000000000000e-01) (181, 5, 5.00000000000000000000e-01) (181, 5, 5.00000000000000000000e-01) (181, 5, 5.00000000000000000000e-01) (181, 5, 5.00000000000000000000e-01) (181, 5, 5.00000000000000000000e-01) (181, 5, 5.00000000000000000000e-01) (181, 5, 5.00000000000000000000e-01) (181, 5, 5.00000000000000000000e-01) (181, 5, 5.00000000000000000000e-01) (181, 5, 5.00000000000000000000e-01) (181, 5, 5.00000000000000000000e-01) (181, 5, 5.00000000000000000000e-01) (181, 5, 5.00000000000000000000e-01) (181, 5, 5.00000000000000000000e-01) (181, 5, 5.00000000000000000000e-01) (181, 5, 5.00000000000000000000e-01) (181, 5, 5.00000000000000000000e-01) (181, 5, 5.00000000000000000000e-01) (181, 5, 5.00000000000000000000e-01) (181, 5, 5.00000000000000000000e-01) (181, 5, 5.00000000000000000000e-01) (181, 5, 5.00000000000000000000e-01) (181, 5, 5.00000000000000000000e-01) (181, 5, 5.00000000000000000000e-01) (181, 5, 5.00000000000000000000e-01) (181, 5, 5.00000000000000000000e-01) (181, 5, 5.00000000000000000000e-01) (181, 5, 5.00000000000000000000e-01) (181, 5, 5.00000000000000000000e-01) (181, 5, 5.00000000000000000000e-01) (181, 5, 5.00000000000000000000e-01) (181, 5, 5.00000000000000000000e-01) (181, 5, 5.00000000000000000000e-01) (181, 5, 5.00000000000000000000e-01) (181, 5, 5.00000000000000000000e-01) (181, 5, 5.00000000000000000000e-01) (181, 5, 5.00000000000000000000e-01) (181, 5, 5.00000000000000000000e-01) (181, 5, 5.00000000000000000000e-01) (181, 5, 5.00000000000000000000e-01) (181, 5, 5.00000000000000000000e-01) (181, 5, 5.00000000000000000000e-01) (181, 5, 5.00000000000000000000e-01) (181, 5, 5.00000000000000000000e-01) (181, 5, 5.00000000000000000000e-01) (181, 5, 5.00000000000000000000e-01) (181, 5, 5.00000000000000000000e-01) (181, 5, 5.00000000000000000000e-01) (181, 5, 5.00000000000000000000e-01) (181, 5, 5.00000000000000000000e-01) (181, 5, 5.00000000000000000000e-01) (181, 5, 5.00000000000000000000e-01) (181, 5, 5.00000000000000000000e-01) (181, 5, 5.00000000000000000000e-01) (181, 5, 5.00000000000000000000e-01) (181, 5, 5.00000000000000000000e-01) (181, 5, 5.00000000000000000000e-01) (181, 5, 5.00000000000000000000e-01) (181, 5, 5.00000000000000000000e-01) (181, 5, 5.00000000000000000000e-01) (181, 5, 5.00000000000000000000e-01) (181, 5, 5.00000000000000000000e-01) (181, 5, 5.00000000000000000000e-01) (181, 5, 5.00000000000000000000e-01) (181, 5, 5.00000000000000000000e-01) (181, 5, 5.00000000000000000000e-01) (181, 5, 5.00000000000000000000e-01) (181, 5, 5.00000000000000000000e-01) (181, 5, 5.00000000000000000000e-01) (181, 5, 5.00000000000000000000e-01) (181, 5, 5.00000000000000000000e-01) (181, 5, 5.00000000000000000000e-01) (181, 5, 5.00000000000000000000e-01) (181, 5, 5.00000000000000000000e-01) (181, 5, 5.00000000000000000000e-01) (181, 5, 5.00000000000000000000e-01) (181, 5, 5.00000000000000000000e-01) (181, 5, 5.00000000000000000000e-01) (181, 5, 5.00000000000000000000e-01) (181, 5, 5.00000000000000000000e-01) (181, 5, 5.00000000000000000000e-01) (181, 5, 5.00000000000000000000e-01) (181, 5, 5.00000000000000000000e-01) (181, 5, 5.00000000000000000000e-01) (181, 5, 5.00000000000000000000e-01) (181, 5, 5.00000000000000000000e-01) (181, 5, 5.00000000000000000000e-01) (181, 5, 5.00000000000000000000e-01) (181, 5, 5.00000000000000000000e-01) (181, 5, 5.00000000000000000000e-01) (181, 5, 5.00000000000000000000e-01) (181, 5, 5.00000000000000000000e-01) (181, 5, 5.00000000000000000000e-01) (181, 5, 5.00000000000000000000e-01) (181, 5, 5.00000000000000000000e-01) (181, 5, 5.00000000000000000000e-01) (181, 5, 5.00000000000000000000e-01) (181, 5, 5.00000000000000000000e-01) (181, 5, 5.00000000000000000000e-01) (181, 5, 5.00000000000000000000e-01) (181, 5, 5.00000000000000000000e-01) (181, 5, 5.00000000000000000000e-01) (181, 5, 5.00000000000000000000e-01) (181, 5, 5.00000000000000000000e-01) (181, 5, 5.00000000000000000000e-01) (181, 5, 5.00000000000000000000e-01) (181, 5, 5.00000000000000000000e-01) (181, 5, 5.00000000000000000000e-01) (181, 5, 5.00000000000000000000e-01) (181, 5, 5.00000000000000000000e-01) (181, 5, 5.00000000000000000000e-01) (181, 5, 5.00000000000000000000e-01) (181, 5, 5.00000000000000000000e-01) (181, 5, 5.00000000000000000000e-01) (181, 5, 5.00000000000000000000e-01) (181, 5, 5.00000000000000000000e-01) (181, 5, 5.00000000000000000000e-01) (181, 5, 5.00000000000000000000e-01) (181, 5, 5.00000000000000000000e-01) (181, 5, 5.00000000000000000000e-01) (181, 5, 5.00000000000000000000e-01) (181, 5, 5.00000000000000000000e-01) (181, 5, 5.00000000000000000000e-01) (181, 5, 5.00000000000000000000e-01) (181, 5, 5.00000000000000000000e-01) (181, 5, 5.00000000000000000000e-01) (181, 5, 5.00000000000000000000e-01) (181, 5, 5.00000000000000000000e-01) (181, 5, 5.00000000000000000000e-01) (181, 5, 5.00000000000000000000e-01) (181, 5, 5.00000000000000000000e-01) (181, 5, 5.00000000000000000000e-01) (181, 5, 5.00000000000000000000e-01) (181, 5, 5.00000000000000000000e-01) (181, 5, 5.00000000000000000000e-01) (181, 5, 5.00000000000000000000e-01) (181, 5, 5.00000000000000000000e-01) (181, 5, 5.00000000000000000000e-01) (181, 5, 5.00000000000000000000e-01) (181, 5, 5.00000000000000000000e-01) (181, 5, 5.00000000000000000000e-01) (181, 5, 5.00000000000000000000e-01) (181, 5, 5.00000000000000000000e-01) (181, 5, 5.00000000000000000000e-01) (181, 5, 5.00000000000000000000e-01) (181, 5, 5.00000000000000000000e-01) (181, 5, 5.00000000000000000000e-01) (181, 5, 5.00000000000000000000e-01) (181, 5, 5.00000000000000000000e-01) (181, 5, 5.00000000000000000000e-01) (181, 5, 5.00000000000000000000e-01) (181, 5, 5.00000000000000000000e-01) (181, 5, 5.00000000000000000000e-01) (181, 5, 5.00000000000000000000e-01) (181, 5, 5.00000000000000000000e-01) (181, 5, 5.00000000000000000000e-01) (181, 5, 5.00000000000000000000e-01) (181, 5, 5.00000000000000000000e-01) (181, 5, 5.00000000000000000000e-01) (181, 5, 5.00000000000000000000e-01) (181, 5, 5.00000000000000000000e-01) (181, 5, 5.00000000000000000000e-01) (181, 5, 5.00000000000000000000e-01) (181, 5, 5.00000000000000000000e-01) (181, 5, 5.00000000000000000000e-01) (181, 5, 5.00000000000000000000e-01) (181, 5, 5.00000000000000000000e-01) (181, 5, 5.00000000000000000000e-01) (181, 5, 5.00000000000000000000e-01) (181, 5, 5.00000000000000000000e-01) (181, 5, 5.00000000000000000000e-01) (181, 5, 5.00000000000000000000e-01) (181, 5, 5.00000000000000000000e-01) (181, 5, 5.00000000000000000000e-01) (181, 5, 5.00000000000000000000e-01) (181, 5, 5.00000000000000000000e-01) (0, 5, 0.00000000000000000000e+00) (362, 5, 5.00000000000000000000e-01) (362, 5, 5.00000000000000000000e-01) (362, 5, 5.00000000000000000000e-01) (362, 5, 5.00000000000000000000e-01) (362, 5, 5.00000000000000000000e-01) (362, 5, 5.00000000000000000000e-01) (362, 5, 5.00000000000000000000e-01) (362, 5, 5.00000000000000000000e-01) (362, 5, 5.00000000000000000000e-01) (362, 5, 5.00000000000000000000e-01) (362, 5, 5.00000000000000000000e-01) (362, 5, 5.00000000000000000000e-01) (362, 5, 5.00000000000000000000e-01) (362, 5, 5.00000000000000000000e-01) (362, 5, 5.00000000000000000000e-01) (362, 5, 5.00000000000000000000e-01) (362, 5, 5.00000000000000000000e-01) (362, 5, 5.00000000000000000000e-01) (362, 5, 5.00000000000000000000e-01) (362, 5, 5.00000000000000000000e-01) (362, 5, 5.00000000000000000000e-01) (362, 5, 5.00000000000000000000e-01) (362, 5, 5.00000000000000000000e-01) (362, 5, 5.00000000000000000000e-01) (362, 5, 5.00000000000000000000e-01) (362, 5, 5.00000000000000000000e-01) (362, 5, 5.00000000000000000000e-01) (362, 5, 5.00000000000000000000e-01) (362, 5, 5.00000000000000000000e-01) (362, 5, 5.00000000000000000000e-01) (362, 5, 5.00000000000000000000e-01) (362, 5, 5.00000000000000000000e-01) (362, 5, 5.00000000000000000000e-01) (362, 5, 5.00000000000000000000e-01) (362, 5, 5.00000000000000000000e-01) (362, 5, 5.00000000000000000000e-01) (362, 5, 5.00000000000000000000e-01) (362, 5, 5.00000000000000000000e-01) (362, 5, 5.00000000000000000000e-01) (362, 5, 5.00000000000000000000e-01) (362, 5, 5.00000000000000000000e-01) (362, 5, 5.00000000000000000000e-01) (362, 5, 5.00000000000000000000e-01) (362, 5, 5.00000000000000000000e-01) (362, 5, 5.00000000000000000000e-01) (362, 5, 5.00000000000000000000e-01) (362, 5, 5.00000000000000000000e-01) (362, 5, 5.00000000000000000000e-01) (362, 5, 5.00000000000000000000e-01) (0, 5, 0.00000000000000000000e+00) 
connections (connected_to_neuron, weight)=(0, 4.72726851701736450195e-01) (1, 4.44725245237350463867e-01) (2, 4.77855056524276733398e-01) (3, 4.02093261480331420898e-01) (4, 4.02964681386947631836e-01) (5, 4.45005446672439575195e-01) (6, 5.33411264419555664062e-01) (7, 4.49970424175262451172e-01) (8, 5.39291441440582275391e-01) (9, 4.85078990459442138672e-01) (10, 5.38579583168029785156e-01) (11, 7.43544936180114746094e-01) (12, 6.32642567157745361328e-01) (13, 6.24253392219543457031e-01) (14, 6.86466932296752929688e-01) (15, 6.99568033218383789062e-01) (16, 6.99128985404968261719e-01) (17, 7.88334906101226806641e-01) (18, 7.71518886089324951172e-01) (19, 7.20879018306732177734e-01) (20, 6.27330720424652099609e-01) (21, 7.10810124874114990234e-01) (22, 1.28348219394683837891e+00) (23, 7.15821564197540283203e-01) (24, 6.68431580066680908203e-01) (25, 7.39180266857147216797e-01) (26, 7.13366091251373291016e-01) (27, 2.71783828735351562500e+00) (28, 8.41362118721008300781e-01) (29, 7.85066187381744384766e-01) (30, 1.14848351478576660156e+00) (31, 1.17658782005310058594e+00) (32, 5.70636570453643798828e-01) (33, 5.25105655193328857422e-01) (34, 4.80273157358169555664e-01) (35, 3.97010236978530883789e-01) (36, 6.11755192279815673828e-01) (37, 1.08163535594940185547e+00) (38, 1.12589800357818603516e+00) (39, 1.20887291431427001953e+00) (40, 1.19524538516998291016e+00) (41, 1.10985124111175537109e+00) (42, 1.54270625114440917969e+00) (43, 1.43217074871063232422e+00) (44, 1.52651953697204589844e+00) (45, 1.48778462409973144531e+00) (46, 1.23261523246765136719e+00) (47, 1.30902552604675292969e+00) (48, 1.13701164722442626953e+00) (49, 1.74111318588256835938e+00) (50, 3.38822531700134277344e+00) (51, 3.32094454765319824219e+00) (52, 7.57415676116943359375e+00) (53, 7.46004486083984375000e+00) (54, 1.88357563018798828125e+01) (55, 1.87431850433349609375e+01) (56, 1.87076530456542968750e+01) (57, 1.87275810241699218750e+01) (58, 1.88062133789062500000e+01) (59, 1.88900585174560546875e+01) (60, 1.88538532257080078125e+01) (61, 1.88551177978515625000e+01) (62, 1.87672309875488281250e+01) (63, 1.88482036590576171875e+01) (64, 1.88032093048095703125e+01) (65, 1.88676643371582031250e+01) (66, 1.88635711669921875000e+01) (67, 1.88150863647460937500e+01) (68, 1.87201290130615234375e+01) (69, 1.87530956268310546875e+01) (70, 4.09262657165527343750e-01) (71, 4.95149314403533935547e-01) (72, 4.14626419544219970703e-01) (73, 2.91269153356552124023e-01) (74, 4.58152681589126586914e-01) (75, 4.55750852823257446289e-01) (76, 3.09862554073333740234e-01) (77, 3.69412600994110107422e-01) (78, 4.45224970579147338867e-01) (79, 3.14072668552398681641e-01) (80, 4.40450131893157958984e-01) (81, 3.54057073593139648438e-01) (82, 3.16226422786712646484e-01) (83, 3.78434956073760986328e-01) (84, 4.81023222208023071289e-01) (85, 2.95675903558731079102e-01) (86, 2.53927767276763916016e-01) (87, 3.44543337821960449219e-01) (88, 2.44490191340446472168e-01) (89, 3.05337578058242797852e-01) (90, 3.48877519369125366211e-01) (91, 1.84611216187477111816e-01) (92, 2.61160433292388916016e-01) (93, 2.24799558520317077637e-01) (94, 1.08134782314300537109e+00) (95, 9.88539099693298339844e-01) (96, 8.08855056762695312500e-01) (97, 9.31044340133666992188e-01) (98, 9.58174991607666015625e+00) (99, 3.20435553789138793945e-01) (100, 5.31040668487548828125e-01) (101, 3.43266844749450683594e-01) (102, 3.59831601381301879883e-01) (103, 4.34138685464859008789e-01) (104, 3.38955312967300415039e-01) (105, 3.38029533624649047852e-01) (106, 2.06704666137695312500e+02) (107, 9.65408742427825927734e-01) (108, 6.73240482807159423828e-01) (109, 6.19288861751556396484e-01) (110, 1.57733631134033203125e+00) (111, 1.53602552413940429688e+00) (112, 1.58026969432830810547e+00) (113, 1.46104562282562255859e+00) (114, 1.50448775291442871094e+00) (115, 1.54694485664367675781e+00) (116, 1.48940026760101318359e+00) (117, 1.41697359085083007812e+00) (118, 9.13438379764556884766e-01) (119, 7.23323702812194824219e-01) (120, 6.23947739601135253906e-01) (121, 6.70580148696899414062e-01) (122, 5.63724994659423828125e-01) (123, 5.25536060333251953125e-01) (124, 5.27360916137695312500e-01) (125, 5.50326287746429443359e-01) (126, 5.45199990272521972656e-01) (127, 5.67700862884521484375e-01) (128, 5.82608461380004882812e-01) (129, 7.52595007419586181641e-01) (130, 5.62647283077239990234e-01) (131, 4.01516944169998168945e-01) (132, 3.82851749658584594727e-01) (133, 5.39699912071228027344e-01) (134, 4.20479357242584228516e-01) (135, 3.25274080038070678711e-01) (136, 4.72148209810256958008e-01) (137, 4.92174416780471801758e-01) (138, 3.38545739650726318359e-01) (139, 3.24132025241851806641e-01) (140, 2.92436659336090087891e-01) (141, 4.45030629634857177734e-01) (142, 3.95481884479522705078e-01) (143, 4.11974489688873291016e-01) (144, 4.44986164569854736328e-01) (145, 4.40648704767227172852e-01) (146, 2.99395233392715454102e-01) (147, 2.76442855596542358398e-01) (148, 2.36955136060714721680e-01) (149, 2.51810878515243530273e-01) (150, 2.55371242761611938477e-01) (151, 1.89077943563461303711e-01) (152, 2.98033416271209716797e-01) (153, 1.75533205270767211914e-01) (154, 2.78870671987533569336e-01) (155, 1.89419522881507873535e-01) (156, 2.64708966016769409180e-01) (157, 1.63511633872985839844e-01) (158, 2.86219775676727294922e-01) (159, 2.83513486385345458984e-01) (160, 1.43598645925521850586e-01) (161, 2.18650504946708679199e-01) (162, 2.92944043874740600586e-01) (163, 1.42353072762489318848e-01) (164, 1.89289748668670654297e-01) (165, 2.13995516300201416016e-01) (166, 1.71828448772430419922e-01) (167, 1.69209390878677368164e-01) (168, 2.16233149170875549316e-01) (169, 2.62805670499801635742e-01) (170, 2.38940864801406860352e-01) (171, 4.03545051813125610352e-01) (172, 4.02711361646652221680e-01) (173, 3.45427989959716796875e-01) (174, 3.78516793251037597656e-01) (175, 4.11052942276000976562e-01) (176, 3.34152132272720336914e-01) (177, 4.27393376827239990234e-01) (178, 4.37140643596649169922e-01) (179, 3.91438782215118408203e-01) (180, 9.27994549274444580078e-02) (0, 1.63600951433181762695e-01) (1, 2.51601815223693847656e-01) (2, 1.16584919393062591553e-01) (3, 2.07877933979034423828e-01) (4, 2.00744271278381347656e-01) (5, 1.76273003220558166504e-01) (6, 1.44478186964988708496e-01) (7, 2.46283784508705139160e-01) (8, 1.54760763049125671387e-01) (9, 1.21153682470321655273e-01) (10, 2.80172944068908691406e-01) (11, 2.73123472929000854492e-01) (12, 1.13813444972038269043e-01) (13, 1.22059263288974761963e-01) (14, 1.54337257146835327148e-01) (15, 2.04976782202720642090e-01) (16, 1.63845270872116088867e-01) (17, 1.86117649078369140625e-01) (18, 9.85324904322624206543e-02) (19, 1.11306488513946533203e-01) (20, 1.09714172780513763428e-01) (21, 2.38166183233261108398e-01) (22, 2.78742492198944091797e-01) (23, 2.16499298810958862305e-01) (24, 1.77745208144187927246e-01) (25, 2.06527337431907653809e-01) (26, 2.51410454511642456055e-01) (27, 7.45108127593994140625e-02) (28, 1.75326585769653320312e-01) (29, 1.76562041044235229492e-01) (30, 1.85656487941741943359e-01) (31, 2.51179635524749755859e-01) (32, 1.39646515250205993652e-01) (33, 2.12215691804885864258e-01) (34, 1.28502205014228820801e-01) (35, 2.10300251841545104980e-01) (36, 6.11327290534973144531e-02) (37, 1.88415870070457458496e-01) (38, 1.62772372364997863770e-01) (39, 1.63156285881996154785e-01) (40, 2.40865662693977355957e-01) (41, 1.71977460384368896484e-01) (42, 1.19349099695682525635e-01) (43, 2.52933681011199951172e-01) (44, 1.95129677653312683105e-01) (45, 1.54581055045127868652e-01) (46, 1.52551114559173583984e-01) (47, 6.07125610113143920898e-02) (48, 4.70347069203853607178e-02) (49, 1.59666672348976135254e-01) (50, 8.00067707896232604980e-02) (51, 4.58015315234661102295e-02) (52, -1.62388697266578674316e-01) (53, -2.19413042068481445312e-01) (54, -9.30230692028999328613e-02) (55, -1.38314455747604370117e-01) (56, -2.89302170276641845703e-01) (57, -4.05742794275283813477e-01) (58, -2.57006615400314331055e-01) (59, -4.81360405683517456055e-02) (60, -7.14906230568885803223e-02) (61, 4.72803562879562377930e-02) (62, 1.46035909652709960938e-01) (63, 2.12607130408287048340e-01) (64, 1.56378939747810363770e-01) (65, 2.17503324151039123535e-01) (66, 2.15242013335227966309e-01) (67, 2.10723280906677246094e-01) (68, 1.96909859776496887207e-01) (69, 1.22290894389152526855e-01) (70, 2.25056007504463195801e-01) (71, 1.05249762535095214844e-01) (72, 1.63034573197364807129e-01) (73, 7.02567696571350097656e-02) (74, 8.28645527362823486328e-02) (75, 1.19564592838287353516e-01) (76, 2.11081385612487792969e-01) (77, 2.23673522472381591797e-01) (78, 1.43641546368598937988e-01) (79, 2.31623992323875427246e-01) (80, 1.56915202736854553223e-01) (81, 1.85527995228767395020e-01) (82, 2.65378594398498535156e-01) (83, 2.34363466501235961914e-01) (84, 1.93586781620979309082e-01) (85, 2.15106233954429626465e-01) (86, 1.94078892469406127930e-01) (87, 5.72127163410186767578e-01) (88, 5.68527162075042724609e-01) (89, 5.79347133636474609375e-01) (90, 5.52482783794403076172e-01) (91, 7.01944172382354736328e-01) (92, 5.89733242988586425781e-01) (93, 2.09047585725784301758e-01) (94, 1.95662915706634521484e-01) (95, -9.18090701103210449219e-01) (96, -6.68161153793334960938e+00) (97, -2.98404312133789062500e+00) (98, -5.75971412658691406250e+00) (99, -4.00704354047775268555e-01) (100, 1.72668308019638061523e-01) (101, 1.68097764253616333008e-01) (102, 1.23521462082862854004e-01) (103, 8.29447358846664428711e-02) (104, 9.41792726516723632812e-02) (105, 1.07652544975280761719e-01) (106, -3.19024994969367980957e-02) (107, 6.82508647441864013672e-02) (108, 1.05948626995086669922e-01) (109, 1.74243301153182983398e-01) (110, 3.82533706724643707275e-02) (111, 1.77389472723007202148e-01) (112, 7.68617615103721618652e-02) (113, 2.25656125694513320923e-02) (114, 1.29931166768074035645e-01) (115, 1.97032809257507324219e-01) (116, 1.56831994652748107910e-01) (117, 2.30392605066299438477e-01) (118, 2.29898303747177124023e-01) (119, 1.74359723925590515137e-01) (120, 7.28533789515495300293e-02) (121, 2.36033454537391662598e-01) (122, 1.41174077987670898438e-01) (123, 1.28629148006439208984e-01) (124, 1.58363312482833862305e-01) (125, 9.03904065489768981934e-02) (126, 1.13407313823699951172e-01) (127, 6.68769031763076782227e-02) (128, 1.78571209311485290527e-01) (129, 2.32696950435638427734e-01) (130, 9.58355367183685302734e-02) (131, 1.47616490721702575684e-01) (132, 1.99124470353126525879e-01) (133, 2.50119447708129882812e-01) (134, 2.22965106368064880371e-01) (135, 1.51124522089958190918e-01) (136, 2.02258989214897155762e-01) (137, 1.30446746945381164551e-01) (138, 2.31984347105026245117e-01) (139, 9.56570208072662353516e-02) (140, 9.53587442636489868164e-02) (141, 2.55359917879104614258e-01) (142, 2.56747901439666748047e-01) (143, 1.52659013867378234863e-01) (144, 2.58825182914733886719e-01) (145, 1.63940921425819396973e-01) (146, 1.16530351340770721436e-01) (147, 1.78693562746047973633e-01) (148, 1.69938713312149047852e-01) (149, 1.01404026150703430176e-01) (150, 1.07654817402362823486e-01) (151, 1.79162889719009399414e-01) (152, 9.00845229625701904297e-02) (153, 2.02109441161155700684e-01) (154, 2.60545343160629272461e-01) (155, 2.00657948851585388184e-01) (156, 2.50942677259445190430e-01) (157, 1.38146638870239257812e-01) (158, 2.32290640473365783691e-01) (159, 1.88869521021842956543e-01) (160, 1.34300678968429565430e-01) (161, 2.81337827444076538086e-01) (162, 2.50782608985900878906e-01) (163, 2.26712808012962341309e-01) (164, 2.35414057970046997070e-01) (165, 1.84102103114128112793e-01) (166, 2.89980828762054443359e-01) (167, 1.52387425303459167480e-01) (168, 2.28605881333351135254e-01) (169, 2.36324205994606018066e-01) (170, 1.59919157624244689941e-01) (171, 2.18638747930526733398e-01) (172, 1.87156707048416137695e-01) (173, 1.12351581454277038574e-01) (174, 2.83850938081741333008e-01) (175, 1.58073723316192626953e-01) (176, 1.88343375921249389648e-01) (177, 1.12665571272373199463e-01) (178, 2.49571233987808227539e-01) (179, 2.55622118711471557617e-01) (180, 2.79658055305480957031e+00) (0, 3.76898497343063354492e-01) (1, 2.55092740058898925781e-01) (2, 2.37214267253875732422e-01) (3, 2.90138900279998779297e-01) (4, 2.25615426898002624512e-01) (5, 3.47845405340194702148e-01) (6, 2.44759634137153625488e-01) (7, 2.38218963146209716797e-01) (8, 2.54593193531036376953e-01) (9, 3.07191997766494750977e-01) (10, 2.85195380449295043945e-01) (11, 2.59412258863449096680e-01) (12, 2.81455397605895996094e-01) (13, 2.10359275341033935547e-01) (14, 3.96142661571502685547e-01) (15, 4.14806604385375976562e-01) (16, 4.49133515357971191406e-01) (17, 3.20523649454116821289e-01) (18, 5.05563020706176757812e-01) (19, 5.48136472702026367188e-01) (20, 5.12212216854095458984e-01) (21, 6.28704607486724853516e-01) (22, 1.02220737934112548828e+00) (23, 4.19782400131225585938e-01) (24, 5.07163584232330322266e-01) (25, 3.92108917236328125000e-01) (26, 5.20815730094909667969e-01) (27, 1.08389389514923095703e+00) (28, 2.74414896965026855469e-01) (29, 4.81353968381881713867e-01) (30, 3.64969402551651000977e-01) (31, 5.60480058193206787109e-01) (32, 4.16292220354080200195e-01) (33, 2.82192289829254150391e-01) (34, 5.13767302036285400391e-01) (35, 4.53406989574432373047e-01) (36, 6.43724679946899414062e-01) (37, 5.70366978645324707031e-01) (38, 5.30243158340454101562e-01) (39, 5.23063421249389648438e-01) (40, 5.12824475765228271484e-01) (41, 6.32052123546600341797e-01) (42, 9.08468663692474365234e-01) (43, 8.99502217769622802734e-01) (44, 1.59240245819091796875e+00) (45, 1.55189728736877441406e+00) (46, 1.38759481906890869141e+00) (47, 1.47110307216644287109e+00) (48, 1.46863806247711181641e+00) (49, 1.46265673637390136719e+00) (50, 1.80760717391967773438e+00) (51, 1.77213621139526367188e+00) (52, 1.88118648529052734375e+00) (53, 1.80527591705322265625e+00) (54, 4.03063964843750000000e+00) (55, 4.03600358963012695312e+00) (56, 4.04451847076416015625e+00) (57, 4.01784992218017578125e+00) (58, 5.47783088684082031250e+00) (59, 5.50823068618774414062e+00) (60, 5.40716409683227539062e+00) (61, 9.28110885620117187500e+00) (62, 9.27582454681396484375e+00) (63, 9.17738628387451171875e+00) (64, 9.33614063262939453125e+00) (65, 9.34793376922607421875e+00) (66, 9.18996143341064453125e+00) (67, 9.33668231964111328125e+00) (68, 9.26246738433837890625e+00) (69, 4.15468740463256835938e+00) (70, 3.91630113124847412109e-01) (71, 4.83677923679351806641e-01) (72, 3.86700332164764404297e-01) (73, 5.15760958194732666016e-01) (74, 3.97171467542648315430e-01) (75, 5.09160518646240234375e-01) (76, 3.97879689931869506836e-01) (77, 4.34275925159454345703e-01) (78, 3.83513450622558593750e-01) (79, 2.72686362266540527344e-01) (80, 3.01145106554031372070e-01) (81, 4.26488131284713745117e-01) (82, 3.44835698604583740234e-01) (83, 3.81354689598083496094e-01) (84, 6.31818711757659912109e-01) (85, 4.41614031791687011719e-01) (86, 2.88550525903701782227e-01) (87, 3.13783288002014160156e-01) (88, 4.07923817634582519531e-01) (89, 3.50296795368194580078e-01) (90, 2.39326030015945434570e-01) (91, 4.34556782245635986328e-01) (92, 2.73582160472869873047e-01) (93, 3.56933832168579101562e-01) (94, 1.54645586013793945312e+00) (95, 5.99335432052612304688e-01) (96, 5.08680164813995361328e-01) (97, 6.26916587352752685547e-01) (98, 2.36450886726379394531e+00) (99, 4.53489899635314941406e-01) (100, 3.24536114931106567383e-01) (101, 4.33233857154846191406e-01) (102, 3.42072129249572753906e-01) (103, 3.55932801961898803711e-01) (104, 3.81385177373886108398e-01) (105, 3.89539510011672973633e-01) (106, 3.52552886962890625000e+02) (107, 2.28046417236328125000e+00) (108, 2.30542159080505371094e+00) (109, 2.27626061439514160156e+00) (110, 2.26970314979553222656e+00) (111, 1.17077100276947021484e+00) (112, 1.26739954948425292969e+00) (113, 1.12299418449401855469e+00) (114, 6.58183932304382324219e-01) (115, 8.02317261695861816406e-01) (116, 7.64886736869812011719e-01) (117, 6.96468770503997802734e-01) (118, 7.00294494628906250000e-01) (119, 4.98543381690979003906e-01) (120, 5.71918487548828125000e-01) (121, 4.34712201356887817383e-01) (122, 4.55683171749114990234e-01) (123, 3.73675107955932617188e-01) (124, 5.50489008426666259766e-01) (125, 4.55548435449600219727e-01) (126, 3.90477597713470458984e-01) (127, 4.63738143444061279297e-01) (128, 4.89803940057754516602e-01) (129, 5.45633792877197265625e-01) (130, 4.39102023839950561523e-01) (131, 3.81111443042755126953e-01) (132, 5.11168599128723144531e-01) (133, 4.78669703006744384766e-01) (134, 3.98040175437927246094e-01) (135, 3.78738850355148315430e-01) (136, 3.45450967550277709961e-01) (137, 2.63702034950256347656e-01) (138, 3.52122068405151367188e-01) (139, 1.82866796851158142090e-01) (140, 7.71108791232109069824e-02) (141, 1.54806151986122131348e-01) (142, -1.51820760220289230347e-02) (143, 1.70983716845512390137e-01) (144, 1.16486564278602600098e-01) (145, 4.27184480940923094749e-04) (146, 1.35007306933403015137e-01) (147, 4.06847968697547912598e-02) (148, 5.51056005060672760010e-02) (149, -3.59992273151874542236e-02) (150, 1.16947352886199951172e-01) (151, 1.01530253887176513672e-02) (152, 4.19270023703575134277e-02) (153, 1.80538352578878402710e-02) (154, 2.53865402191877365112e-02) (155, 3.43778394162654876709e-02) (156, 1.15504927933216094971e-01) (157, 3.68499867618083953857e-02) (158, 1.18029966950416564941e-01) (159, 2.50583607703447341919e-02) (160, -1.85729674994945526123e-02) (161, -3.99594902992248535156e-02) (162, 9.84171591699123382568e-03) (163, -6.00460320711135864258e-02) (164, -7.86352232098579406738e-02) (165, -6.76959902048110961914e-02) (166, 3.82803864777088165283e-02) (167, 1.94820426404476165771e-02) (168, -4.77775298058986663818e-02) (169, -5.33814020454883575439e-02) (170, -4.00745682418346405029e-02) (171, 3.59713077545166015625e-01) (172, 4.44421589374542236328e-01) (173, 3.45711201429367065430e-01) (174, 3.57666373252868652344e-01) (175, 3.88282120227813720703e-01) (176, 3.73512089252471923828e-01) (177, 3.20047408342361450195e-01) (178, 4.59668040275573730469e-01) (179, 4.60778594017028808594e-01) (180, 3.79214398562908172607e-02) (0, 3.38068932294845581055e-01) (1, 3.55045586824417114258e-01) (2, 4.72866594791412353516e-01) (3, 3.42100262641906738281e-01) (4, 4.45348501205444335938e-01) (5, 3.71997237205505371094e-01) (6, 3.22956651449203491211e-01) (7, 1.59757599234580993652e-01) (8, 1.67587041854858398438e-01) (9, 2.26338163018226623535e-01) (10, 2.99187481403350830078e-01) (11, 4.04567509889602661133e-01) (12, 5.13118863105773925781e-01) (13, 4.47033554315567016602e-01) (14, 4.10802334547042846680e-01) (15, 3.27409774065017700195e-01) (16, 3.67300331592559814453e-01) (17, 5.13902306556701660156e-01) (18, 3.64938437938690185547e-01) (19, 4.03301954269409179688e-01) (20, 3.68836998939514160156e-01) (21, 4.43309187889099121094e-01) (22, 1.45230257511138916016e+00) (23, 4.61936712265014648438e-01) (24, 6.12236738204956054688e-01) (25, 5.63320934772491455078e-01) (26, 6.09912455081939697266e-01) (27, 2.60910439491271972656e+00) (28, 8.30070078372955322266e-01) (29, 1.17992913722991943359e+00) (30, 1.10057651996612548828e+00) (31, 1.08611357212066650391e+00) (32, 4.29819047451019287109e-01) (33, 2.65919208526611328125e-01) (34, 6.19613349437713623047e-01) (35, 6.69996321201324462891e-01) (36, 7.89447426795959472656e-01) (37, 7.97921836376190185547e-01) (38, 8.68414342403411865234e-01) (39, 8.45805108547210693359e-01) (40, 9.07728433609008789062e-01) (41, 7.92701184749603271484e-01) (42, 8.02845418453216552734e-01) (43, 1.61589646339416503906e+00) (44, 1.64776706695556640625e+00) (45, 1.57673501968383789062e+00) (46, 1.46807801723480224609e+00) (47, 1.50468373298645019531e+00) (48, 1.58684229850769042969e+00) (49, 8.84621560573577880859e-01) (50, 1.51063740253448486328e+00) (51, 1.53385388851165771484e+00) (52, 1.18380212783813476562e+00) (53, 1.91065311431884765625e+00) (54, 1.79506838321685791016e+00) (55, 1.89578866958618164062e+00) (56, 3.92085266113281250000e+00) (57, 7.95810413360595703125e+00) (58, 3.98537898063659667969e+00) (59, 3.82511353492736816406e+00) (60, 4.00349903106689453125e+00) (61, 7.96661281585693359375e+00) (62, 7.98814582824707031250e+00) (63, 8.10838985443115234375e+00) (64, 7.99661064147949218750e+00) (65, 8.07032585144042968750e+00) (66, 8.03521060943603515625e+00) (67, 3.67233705520629882812e+00) (68, 3.54705834388732910156e+00) (69, 1.87197399139404296875e+00) (70, 3.66933941841125488281e-01) (71, 3.09471994638442993164e-01) (72, 4.79105740785598754883e-01) (73, 3.93117666244506835938e-01) (74, 3.58034640550613403320e-01) (75, 4.75628286600112915039e-01) (76, 3.65418612957000732422e-01) (77, 3.58237624168395996094e-01) (78, 5.10106861591339111328e-01) (79, 4.64612007141113281250e-01) (80, 3.49519520998001098633e-01) (81, 4.44353342056274414062e-01) (82, 3.77844065427780151367e-01) (83, 3.03974330425262451172e-01) (84, 4.32332754135131835938e-01) (85, 4.41023617982864379883e-01) (86, 2.63027340173721313477e-01) (87, 4.16987180709838867188e-01) (88, 3.44498634338378906250e-01) (89, 3.47145617008209228516e-01) (90, 1.84813246130943298340e-01) (91, 3.99549484252929687500e-01) (92, 2.51691818237304687500e-01) (93, 3.07019561529159545898e-01) (94, 9.73161041736602783203e-01) (95, 1.07539010047912597656e+00) (96, 7.80128657817840576172e-01) (97, 8.37560474872589111328e-01) (98, 3.96011090278625488281e+00) (99, 3.05512636899948120117e-01) (100, 3.69876861572265625000e-01) (101, 4.00033116340637207031e-01) (102, 3.56055438518524169922e-01) (103, 3.57247769832611083984e-01) (104, 3.73817861080169677734e-01) (105, 3.99049818515777587891e-01) (106, 1.30386975097656250000e+03) (107, 7.50393509864807128906e-01) (108, 2.38815474510192871094e+00) (109, 2.26697993278503417969e+00) (110, 2.28538393974304199219e+00) (111, 1.28765940666198730469e+00) (112, 1.21276831626892089844e+00) (113, 1.20530402660369873047e+00) (114, 1.12560498714447021484e+00) (115, 1.09986567497253417969e+00) (116, 5.56239426136016845703e-01) (117, 5.24353802204132080078e-01) (118, 4.59583044052124023438e-01) (119, 4.54422622919082641602e-01) (120, 3.97466987371444702148e-01) (121, 4.09532785415649414062e-01) (122, 4.29071068763732910156e-01) (123, 4.15701478719711303711e-01) (124, 4.84394431114196777344e-01) (125, 3.95174175500869750977e-01) (126, 5.01868546009063720703e-01) (127, 5.06529986858367919922e-01) (128, 4.75466072559356689453e-01) (129, 5.56663215160369873047e-01) (130, 5.66966414451599121094e-01) (131, 3.63903254270553588867e-01) (132, 4.38608676195144653320e-01) (133, 3.90375256538391113281e-01) (134, 4.52309101819992065430e-01) (135, 4.52317923307418823242e-01) (136, 4.50274676084518432617e-01) (137, 4.28203582763671875000e-01) (138, 3.32656294107437133789e-01) (139, 3.60201001167297363281e-01) (140, 4.22236651182174682617e-01) (141, 3.41666787862777709961e-01) (142, 3.51756185293197631836e-01) (143, 3.44353854656219482422e-01) (144, 4.52137261629104614258e-01) (145, 3.82998138666152954102e-01) (146, 3.43670308589935302734e-01) (147, 3.09431165456771850586e-01) (148, 3.99507641792297363281e-01) (149, 3.56179237365722656250e-01) (150, 3.70196372270584106445e-01) (151, 4.19991821050643920898e-01) (152, 3.79886060953140258789e-01) (153, 4.13682073354721069336e-01) (154, 2.47919291257858276367e-01) (155, 2.73399740457534790039e-01) (156, 3.13494175672531127930e-01) (157, 2.44255647063255310059e-01) (158, 2.80337631702423095703e-01) (159, 1.92798212170600891113e-01) (160, 2.16022953391075134277e-01) (161, 2.43510037660598754883e-01) (162, 2.16142728924751281738e-01) (163, 1.11701078712940216064e-01) (164, 1.10015824437141418457e-01) (165, 1.44582852721214294434e-01) (166, 2.84287363290786743164e-01) (167, 3.00153136253356933594e-01) (168, 2.99110323190689086914e-01) (169, 1.43101856112480163574e-01) (170, 1.77323654294013977051e-01) (171, 4.02048259973526000977e-01) (172, 3.65471333265304565430e-01) (173, 4.10252183675765991211e-01) (174, 2.83850699663162231445e-01) (175, 3.58999878168106079102e-01) (176, 3.34641516208648681641e-01) (177, 3.79786103963851928711e-01) (178, 4.22303050756454467773e-01) (179, 2.97323226928710937500e-01) (180, -2.62279748916625976562e-01) (0, 3.48047971725463867188e-01) (1, 2.72863149642944335938e-01) (2, 4.25472080707550048828e-01) (3, 3.16728919744491577148e-01) (4, 2.75781959295272827148e-01) (5, 2.59810566902160644531e-01) (6, 2.95806795358657836914e-01) (7, 3.87683600187301635742e-01) (8, 4.07794237136840820312e-01) (9, 3.56251180171966552734e-01) (10, 2.82266855239868164062e-01) (11, 3.48071545362472534180e-01) (12, 2.70535588264465332031e-01) (13, 2.86935508251190185547e-01) (14, 3.51746082305908203125e-01) (15, 3.10456544160842895508e-01) (16, 2.66395688056945800781e-01) (17, 3.27673196792602539062e-01) (18, 2.98623442649841308594e-01) (19, 2.99627959728240966797e-01) (20, 3.95125716924667358398e-01) (21, 4.51097428798675537109e-01) (22, 7.43873000144958496094e-01) (23, 5.27384102344512939453e-01) (24, 4.51750129461288452148e-01) (25, 4.93576705455780029297e-01) (26, 6.10115587711334228516e-01) (27, 1.32617211341857910156e+00) (28, 4.66796547174453735352e-01) (29, 4.58192467689514160156e-01) (30, 6.19934082031250000000e-01) (31, 6.38779163360595703125e-01) (32, 3.43155235052108764648e-01) (33, 4.57380145788192749023e-01) (34, 6.02390050888061523438e-01) (35, 5.98969519138336181641e-01) (36, 6.96724534034729003906e-01) (37, 5.68346679210662841797e-01) (38, 7.43141233921051025391e-01) (39, 6.51804924011230468750e-01) (40, 6.67885839939117431641e-01) (41, 5.65579354763031005859e-01) (42, 7.53742277622222900391e-01) (43, 1.20947635173797607422e+00) (44, 1.13053989410400390625e+00) (45, 1.18884706497192382812e+00) (46, 1.27940452098846435547e+00) (47, 1.16214764118194580078e+00) (48, 1.27221810817718505859e+00) (49, 1.16333138942718505859e+00) (50, 2.14123773574829101562e+00) (51, 3.82723689079284667969e+00) (52, 2.02411794662475585938e+00) (53, 3.72953701019287109375e+00) (54, 3.87238883972167968750e+00) (55, 3.70756077766418457031e+00) (56, 3.77708435058593750000e+00) (57, 3.83861184120178222656e+00) (58, 3.84430789947509765625e+00) (59, 3.79590344429016113281e+00) (60, 3.84837150573730468750e+00) (61, 3.57952613830566406250e+01) (62, 3.56855773925781250000e+01) (63, 3.94628906250000000000e+01) (64, 3.93428764343261718750e+01) (65, 3.94631729125976562500e+01) (66, 3.93062057495117187500e+01) (67, 3.92833290100097656250e+01) (68, 1.67197666168212890625e+01) (69, 1.50343360900878906250e+01) (70, 5.37593662738800048828e-01) (71, 5.38296163082122802734e-01) (72, 4.51759248971939086914e-01) (73, 5.29873728752136230469e-01) (74, 4.80014801025390625000e-01) (75, 4.21096831560134887695e-01) (76, 5.00561237335205078125e-01) (77, 3.27960342168807983398e-01) (78, 4.09910202026367187500e-01) (79, 4.44080770015716552734e-01) (80, 3.33606332540512084961e-01) (81, 4.94821190834045410156e-01) (82, 3.82581412792205810547e-01) (83, 3.29954534769058227539e-01) (84, 1.31310153007507324219e+00) (85, 4.11342591047286987305e-01) (86, 3.43917876482009887695e-01) (87, 3.31042140722274780273e-01) (88, 3.87542456388473510742e-01) (89, 2.26059004664421081543e-01) (90, 2.40465939044952392578e-01) (91, 3.33216369152069091797e-01) (92, 3.57203722000122070312e-01) (93, 2.83540874719619750977e-01) (94, 4.23448371887207031250e+00) (95, 9.71885144710540771484e-01) (96, 9.26163613796234130859e-01) (97, 1.55393588542938232422e+00) (98, 1.50535478591918945312e+01) (99, 4.59388673305511474609e-01) (100, 4.04822289943695068359e-01) (101, 3.67840379476547241211e-01) (102, 3.90395611524581909180e-01) (103, 4.33970928192138671875e-01) (104, 2.62739121913909912109e-01) (105, 3.69634211063385009766e-01) (106, 1.22961891174316406250e+02) (107, 2.70225310325622558594e+00) (108, 2.67251801490783691406e+00) (109, 5.62461996078491210938e+00) (110, 5.62856197357177734375e+00) (111, 5.50674676895141601562e+00) (112, 5.63107252120971679688e+00) (113, 5.67684078216552734375e+00) (114, 5.54404401779174804688e+00) (115, 2.90870022773742675781e+00) (116, 2.94032764434814453125e+00) (117, 2.84613537788391113281e+00) (118, 1.70103776454925537109e+00) (119, 1.78287482261657714844e+00) (120, 7.83881247043609619141e-01) (121, 7.58775949478149414062e-01) (122, 7.42369472980499267578e-01) (123, 7.01337456703186035156e-01) (124, 8.94274890422821044922e-01) (125, 7.47521936893463134766e-01) (126, 8.00442695617675781250e-01) (127, 9.24373924732208251953e-01) (128, 8.90308201313018798828e-01) (129, 8.11051666736602783203e-01) (130, 9.46275770664215087891e-01) (131, 8.42725574970245361328e-01) (132, 5.67253530025482177734e-01) (133, 5.14406263828277587891e-01) (134, 1.12810373306274414062e-01) (135, 1.27383723855018615723e-01) (136, 2.24075242877006530762e-02) (137, -4.64704632759094238281e-02) (138, 4.46247868239879608154e-02) (139, -8.43207389116287231445e-02) (140, -1.36531785130500793457e-01) (141, -4.09682989120483398438e-02) (142, -1.07469029724597930908e-01) (143, -1.02922152727842330933e-02) (144, -9.46318581700325012207e-02) (145, 2.95817703008651733398e-01) (146, 3.08697134256362915039e-01) (147, 2.81957954168319702148e-01) (148, 1.91165760159492492676e-01) (149, 5.03946721553802490234e-01) (150, 3.60646307468414306641e-01) (151, 4.05679583549499511719e-01) (152, 3.93786072731018066406e-01) (153, 4.34078395366668701172e-01) (154, 4.54682141542434692383e-01) (155, 3.38033735752105712891e-01) (156, 4.31572973728179931641e-01) (157, 3.04630696773529052734e-01) (158, 2.83488720655441284180e-01) (159, 3.42799842357635498047e-01) (160, 2.60080128908157348633e-01) (161, 2.32511729001998901367e-01) (162, 3.88435721397399902344e-01) (163, 2.65640944242477416992e-01) (164, 3.60058486461639404297e-01) (165, 2.56410270929336547852e-01) (166, 2.57392317056655883789e-01) (167, 2.17557013034820556641e-01) (168, 3.23813319206237792969e-01) (169, 2.16821640729904174805e-01) (170, 2.76704609394073486328e-01) (171, 1.01335383951663970947e-02) (172, -1.29351043142378330231e-03) (173, -5.21327089518308639526e-03) (174, -2.89281178265810012817e-02) (175, -9.90215018391609191895e-02) (176, -9.95408743619918823242e-02) (177, -1.09274454414844512939e-01) (178, -4.83353808522224426270e-03) (179, -9.61446315050125122070e-02) (180, 1.37091442942619323730e-01) (0, -3.71604599058628082275e-02) (1, 1.31159856915473937988e-01) (2, 1.03616148233413696289e-01) (3, 1.05049580335617065430e-01) (4, 9.36581790447235107422e-02) (5, -4.68685366213321685791e-02) (6, 4.81045879423618316650e-02) (7, 1.09254516661167144775e-01) (8, -2.03249137848615646362e-02) (9, 1.34123131632804870605e-01) (10, -1.22532378882169723511e-02) (11, 4.33874549344182014465e-03) (12, -1.81424811482429504395e-01) (13, -2.49525114893913269043e-01) (14, -3.40316355228424072266e-01) (15, -3.26688081026077270508e-01) (16, -1.93143889307975769043e-01) (17, -2.95036196708679199219e-01) (18, -1.82054325938224792480e-01) (19, -1.55987054109573364258e-01) (20, -1.97292655706405639648e-01) (21, -2.05205589532852172852e-01) (22, -2.04290032386779785156e-01) (23, -2.50040888786315917969e-01) (24, -2.85741388797760009766e-01) (25, -3.40961068868637084961e-01) (26, -1.88528403639793395996e-01) (27, -2.32231974601745605469e-01) (28, -1.44241526722908020020e-01) (29, -2.86749750375747680664e-01) (30, -1.44209489226341247559e-01) (31, -3.34513515233993530273e-01) (32, -2.86360800266265869141e-01) (33, -1.75979152321815490723e-01) (34, -1.64077758789062500000e-01) (35, -1.44923567771911621094e-01) (36, -1.69840410351753234863e-01) (37, -2.61032879352569580078e-01) (38, -1.79807141423225402832e-01) (39, -1.36534824967384338379e-01) (40, -2.87006646394729614258e-01) (41, -1.51257365942001342773e-01) (42, -2.90611565113067626953e-01) (43, -3.13616633415222167969e-01) (44, -2.42630586028099060059e-01) (45, -2.70281940698623657227e-01) (46, -2.91873902082443237305e-01) (47, -2.91331499814987182617e-01) (48, -2.20438569784164428711e-01) (49, -3.31018775701522827148e-01) (50, -3.01467806100845336914e-01) (51, -2.71302551031112670898e-01) (52, -2.30301558971405029297e-01) (53, -3.79434585571289062500e-01) (54, -2.07858115434646606445e-01) (55, -3.58196377754211425781e-01) (56, -3.67857962846755981445e-01) (57, -2.29010432958602905273e-01) (58, -2.13734537363052368164e-01) (59, -3.71039807796478271484e-01) (60, -3.68479192256927490234e-01) (61, -1.62767961621284484863e-01) (62, -3.09988319873809814453e-01) (63, -2.77078300714492797852e-01) (64, -1.98103532195091247559e-01) (65, -3.18741977214813232422e-01) (66, -2.65458464622497558594e-01) (67, -2.14259624481201171875e-01) (68, 2.27712914347648620605e-01) (69, 1.62611618638038635254e-01) (70, -4.67533199116587638855e-03) (71, 3.09294853359460830688e-02) (72, -9.87206771969795227051e-02) (73, 6.13079331815242767334e-02) (74, 6.85189962387084960938e-02) (75, 7.24735436961054801941e-03) (76, -5.54047115147113800049e-02) (77, -7.64134079217910766602e-02) (78, 4.21738363802433013916e-02) (79, 3.34361009299755096436e-02) (80, -1.91220462322235107422e-01) (81, -2.17974856495857238770e-01) (82, -1.28479987382888793945e-01) (83, -6.08077459037303924561e-03) (84, -1.75385087728500366211e-01) (85, -1.86686962842941284180e-01) (86, -1.82288587093353271484e-01) (87, -1.53480231761932373047e+00) (88, -1.38782083988189697266e+00) (89, -3.49612116813659667969e-01) (90, -2.96917021274566650391e-01) (91, -3.87057214975357055664e-01) (92, -4.15857046842575073242e-01) (93, -3.08007925748825073242e-01) (94, -5.86774982511997222900e-02) (95, -1.48993819952011108398e-01) (96, -1.75890654325485229492e-01) (97, -1.36837735772132873535e-01) (98, 4.36939708888530731201e-02) (99, -5.85310459136962890625e-01) (100, -8.49182680249214172363e-02) (101, -1.02170735597610473633e-01) (102, -6.48841977119445800781e-01) (103, -6.25624120235443115234e-01) (104, -1.67858314514160156250e+00) (105, -1.69374597072601318359e+00) (106, -1.15597642958164215088e-01) (107, 3.41940939426422119141e-01) (108, 3.42750996351242065430e-01) (109, 2.74059832096099853516e-01) (110, 2.88053065538406372070e-01) (111, 3.37649911642074584961e-01) (112, 2.30674371123313903809e-01) (113, 3.12148809432983398438e-01) (114, 3.27008873224258422852e-01) (115, 2.28325247764587402344e-01) (116, 3.27481240034103393555e-01) (117, 5.44948339462280273438e-01) (118, 4.68781650066375732422e-01) (119, 5.10097265243530273438e-01) (120, 5.64745962619781494141e-01) (121, 5.41748583316802978516e-01) (122, 5.35993039608001708984e-01) (123, 4.19266402721405029297e-01) (124, 2.99780070781707763672e-01) (125, 2.75239348411560058594e-01) (126, 3.60637187957763671875e-01) (127, 4.12505924701690673828e-01) (128, 4.22006189823150634766e-01) (129, 4.03259158134460449219e-01) (130, 3.97531867027282714844e-01) (131, 3.72136086225509643555e-01) (132, 3.38358968496322631836e-01) (133, 2.62430787086486816406e-01) (134, 2.74914801120758056641e-01) (135, 1.81964293122291564941e-01) (136, 2.70704537630081176758e-01) (137, 2.55247175693511962891e-01) (138, 2.25017517805099487305e-01) (139, 1.54377996921539306641e-01) (140, 2.59018361568450927734e-01) (141, 9.10488739609718322754e-02) (142, 3.99142771959304809570e-01) (143, 4.03689831495285034180e-01) (144, 3.18821787834167480469e-01) (145, 3.14609825611114501953e-01) (146, 2.24361941218376159668e-01) (147, 2.36847475171089172363e-01) (148, 2.59626150131225585938e-01) (149, -2.21071466803550720215e-02) (150, 3.61812189221382141113e-02) (151, 2.54004113376140594482e-02) (152, 4.24364320933818817139e-02) (153, 1.11837163567543029785e-01) (154, 1.10886216163635253906e-01) (155, 2.24321365356445312500e-01) (156, 2.95375645160675048828e-01) (157, 2.96106159687042236328e-01) (158, 2.48718127608299255371e-01) (159, 3.08217853307723999023e-01) (160, 3.51924329996109008789e-01) (161, 3.43780100345611572266e-01) (162, 3.56084465980529785156e-01) (163, 3.05520355701446533203e-01) (164, 4.27644729614257812500e-01) (165, 4.54437196254730224609e-01) (166, 3.11239540576934814453e-01) (167, 3.67108464241027832031e-01) (168, 4.07524496316909790039e-01) (169, 4.38228279352188110352e-01) (170, 4.53100770711898803711e-01) (171, 1.53909111022949218750e+00) (172, 1.60079419612884521484e+00) (173, 1.59857952594757080078e+00) (174, 1.55430877208709716797e+00) (175, 1.53299987316131591797e+00) (176, 1.52702105045318603516e+00) (177, 1.58092033863067626953e+00) (178, 1.57209694385528564453e+00) (179, 1.58932650089263916016e+00) (180, 1.08776969909667968750e+01) (0, 4.70116287469863891602e-02) (1, 1.42073675990104675293e-01) (2, 5.39148226380348205566e-02) (3, 1.49707645177841186523e-01) (4, 1.57549783587455749512e-01) (5, 1.68035566806793212891e-01) (6, 8.81476849317550659180e-02) (7, 9.90669056773185729980e-02) (8, 6.06258809566497802734e-02) (9, 1.49335945025086402893e-02) (10, -2.76512354612350463867e-02) (11, 7.34470412135124206543e-02) (12, 3.88147756457328796387e-02) (13, -2.59289517998695373535e-02) (14, 3.93839227035641670227e-03) (15, 2.61438041925430297852e-02) (16, 1.86465289443731307983e-02) (17, 1.31659805774688720703e-01) (18, 1.43644571304321289062e-01) (19, 1.44967049360275268555e-01) (20, 1.93172134459018707275e-02) (21, -3.69380116462707519531e-02) (22, 3.12005914747714996338e-03) (23, 2.19926275312900543213e-02) (24, 1.02692000567913055420e-01) (25, -3.59320342540740966797e-02) (26, 7.97285884618759155273e-02) (27, -2.80501574277877807617e-01) (28, 8.15905407071113586426e-02) (29, 1.77160780876874923706e-02) (30, 3.28993387520313262939e-02) (31, 1.30920425057411193848e-01) (32, -2.59816180914640426636e-02) (33, 1.13491080701351165771e-01) (34, 1.17185778915882110596e-01) (35, 1.55349269509315490723e-01) (36, 1.05024948716163635254e-01) (37, 1.04300212115049362183e-02) (38, 5.22199198603630065918e-02) (39, -4.48628216981887817383e-02) (40, 2.34348643571138381958e-02) (41, 4.63272109627723693848e-02) (42, 6.42021298408508300781e-02) (43, 8.83528143167495727539e-02) (44, 4.53360192477703094482e-02) (45, 9.53437462449073791504e-02) (46, -8.60275477170944213867e-02) (47, 7.26171061396598815918e-02) (48, 3.16262692213058471680e-02) (49, 7.28942006826400756836e-02) (50, 5.52143007516860961914e-02) (51, -5.17059527337551116943e-02) (52, -6.72486796975135803223e-02) (53, -5.56349791586399078369e-02) (54, -3.75322103500366210938e-02) (55, 2.76513826102018356323e-02) (56, -4.57366891205310821533e-02) (57, -1.09916515648365020752e-01) (58, -1.10366776585578918457e-01) (59, -1.31431400775909423828e-01) (60, -5.69672286510467529297e-02) (61, -1.98922753334045410156e-01) (62, -3.20509582757949829102e-01) (63, -2.14507609605789184570e-01) (64, -2.45658054947853088379e-01) (65, -1.71967744827270507812e-01) (66, -2.14997306466102600098e-01) (67, -1.23344846069812774658e-01) (68, -1.34267404675483703613e-01) (69, -1.43092706799507141113e-01) (70, -6.33803233504295349121e-02) (71, -2.58165854029357433319e-03) (72, 2.14424412697553634644e-02) (73, 8.13734233379364013672e-02) (74, -9.69918537884950637817e-03) (75, -1.43570574000477790833e-02) (76, 7.94852152466773986816e-02) (77, 2.90072499774396419525e-03) (78, -2.05635800957679748535e-02) (79, 5.52622489631175994873e-02) (80, 2.03152112662792205811e-02) (81, -5.13823404908180236816e-02) (82, 3.36945988237857818604e-02) (83, 6.23705312609672546387e-02) (84, -2.16137133538722991943e-02) (85, 4.33538891375064849854e-02) (86, 5.90581186115741729736e-02) (87, 1.69370379298925399780e-02) (88, 1.10752537846565246582e-01) (89, -6.47067949175834655762e-02) (90, 4.08700667321681976318e-02) (91, 3.86966578662395477295e-02) (92, 7.72725716233253479004e-02) (93, 6.10509142279624938965e-02) (94, -8.05185884237289428711e-02) (95, -6.10812455415725708008e-02) (96, 1.74479354172945022583e-02) (97, 8.22495520114898681641e-02) (98, -2.22881119698286056519e-02) (99, 5.18667250871658325195e-02) (100, 1.11134186387062072754e-01) (101, 7.74578005075454711914e-02) (102, -2.49549765139818191528e-02) (103, 4.16788980364799499512e-02) (104, 5.66540397703647613525e-02) (105, 5.82438036799430847168e-02) (106, 5.15691563487052917480e-02) (107, 2.86697666160762310028e-03) (108, -7.36575797200202941895e-02) (109, -1.00447870790958404541e-01) (110, -1.19582019746303558350e-01) (111, 5.55268302559852600098e-03) (112, -5.53026571869850158691e-02) (113, -9.00445356965065002441e-02) (114, -5.31246550381183624268e-02) (115, 9.37488153576850891113e-02) (116, 3.93958836793899536133e-02) (117, 1.00342407822608947754e-01) (118, -2.08374578505754470825e-02) (119, 4.59700897336006164551e-02) (120, 1.18546374142169952393e-01) (121, 9.36865583062171936035e-02) (122, -4.38083447515964508057e-02) (123, 2.08281446248292922974e-02) (124, -3.51943410933017730713e-02) (125, -7.13137611746788024902e-02) (126, 4.86414358019828796387e-02) (127, -1.35308861732482910156e-01) (128, -1.24111734330654144287e-01) (129, -7.26802796125411987305e-02) (130, -9.10393707454204559326e-03) (131, 4.13583926856517791748e-02) (132, 5.67785948514938354492e-02) (133, 4.60836216807365417480e-02) (134, -3.26200276613235473633e-02) (135, 1.90209317952394485474e-03) (136, -2.89147589355707168579e-02) (137, -5.97033463418483734131e-02) (138, -1.01086013019084930420e-01) (139, -8.41178186237812042236e-03) (140, -3.32029424607753753662e-02) (141, -7.49711021780967712402e-02) (142, -9.41226109862327575684e-02) (143, 4.07440848648548126221e-02) (144, -4.26587276160717010498e-02) (145, -2.39403285086154937744e-02) (146, 6.71404749155044555664e-02) (147, 1.56825602054595947266e-01) (148, 3.88652943074703216553e-02) (149, 1.25694587826728820801e-01) (150, 5.37300929427146911621e-02) (151, -7.91869778186082839966e-03) (152, 9.70518365502357482910e-02) (153, 1.26173183321952819824e-01) (154, 1.73960134387016296387e-01) (155, 3.83768528699874877930e-02) (156, -6.56460039317607879639e-03) (157, 1.61198049783706665039e-01) (158, 4.25863713026046752930e-02) (159, 1.96388363838195800781e-02) (160, 3.41620333492755889893e-02) (161, 1.67319655418395996094e-01) (162, -1.52587741613388061523e-02) (163, 1.87493413686752319336e-02) (164, 1.31430476903915405273e-01) (165, 6.31734356284141540527e-02) (166, 1.31265953183174133301e-01) (167, 2.46036723256111145020e-02) (168, 1.22127488255500793457e-01) (169, 1.48515850305557250977e-01) (170, 1.23976759612560272217e-01) (171, -9.76819172501564025879e-02) (172, 8.45077857375144958496e-02) (173, 4.08181175589561462402e-02) (174, 3.03752105683088302612e-02) (175, -7.08377733826637268066e-02) (176, -9.58087891340255737305e-02) (177, -4.59846854209899902344e-02) (178, -8.56540873646736145020e-02) (179, -3.86355482041835784912e-02) (180, 2.17420101165771484375e+00) (0, -2.20546290278434753418e-01) (1, -2.35698118805885314941e-01) (2, -3.51076245307922363281e-01) (3, -2.72166788578033447266e-01) (4, -2.39816963672637939453e-01) (5, -2.91091203689575195312e-01) (6, -2.57123291492462158203e-01) (7, -2.40155085921287536621e-01) (8, -2.10505515336990356445e-01) (9, -2.09577053785324096680e-01) (10, -2.09340855479240417480e-01) (11, -2.35195547342300415039e-01) (12, -2.18728274106979370117e-01) (13, -1.64813622832298278809e-01) (14, -2.77066916227340698242e-01) (15, -3.24615120887756347656e-01) (16, -2.02330157160758972168e-01) (17, -2.31792882084846496582e-01) (18, -1.85678645968437194824e-01) (19, -2.39711597561836242676e-01) (20, -2.94188201427459716797e-01) (21, -1.75860270857810974121e-01) (22, -2.67325013875961303711e-01) (23, -3.63039940595626831055e-01) (24, -2.57373183965682983398e-01) (25, -2.28757351636886596680e-01) (26, -3.51652711629867553711e-01) (27, -1.98925346136093139648e-01) (28, 1.16899386048316955566e-01) (29, 1.30299655720591545105e-02) (30, -7.35037028789520263672e-02) (31, 5.19308401271700859070e-03) (32, -5.60350120067596435547e-02) (33, -3.43005955219268798828e-02) (34, -8.30344185233116149902e-02) (35, 4.91613410413265228271e-02) (36, 1.95100978016853332520e-02) (37, 1.13286525011062622070e-02) (38, -4.75323349237442016602e-02) (39, -4.49791140854358673096e-02) (40, -5.41425533592700958252e-02) (41, -9.56441760063171386719e-02) (42, 7.68821537494659423828e-02) (43, 8.73583331704139709473e-02) (44, -9.88301113247871398926e-02) (45, -3.78013141453266143799e-02) (46, -7.81120881438255310059e-02) (47, 5.75759895145893096924e-02) (48, -1.08830757439136505127e-01) (49, -1.12613931298255920410e-01) (50, -2.49100383371114730835e-02) (51, -4.61157523095607757568e-02) (52, 7.12761357426643371582e-02) (53, -1.12905681133270263672e-01) (54, -3.49970608949661254883e-02) (55, -8.40942747890949249268e-03) (56, 3.00010871142148971558e-02) (57, -1.38137722387909889221e-02) (58, -2.23812721669673919678e-02) (59, 1.76589787006378173828e-02) (60, -9.91121083498001098633e-02) (61, 3.90306226909160614014e-02) (62, -4.38510663807392120361e-02) (63, -5.28890378773212432861e-02) (64, -1.03825926780700683594e-01) (65, -2.88573484867811203003e-02) (66, -9.68643426895141601562e-02) (67, 2.34405416995286941528e-02) (68, -1.09772011637687683105e-01) (69, -3.66403050720691680908e-02) (70, -1.11221075057983398438e-01) (71, -5.16870617866516113281e-02) (72, -1.81147046387195587158e-02) (73, -1.23465627431869506836e-01) (74, 4.15163993835449218750e-01) (75, 4.63091492652893066406e-01) (76, 4.19997334480285644531e-01) (77, 4.50318813323974609375e-01) (78, 4.39975351095199584961e-01) (79, 4.32345241308212280273e-01) (80, 4.68470007181167602539e-01) (81, 5.39749622344970703125e-01) (82, 5.06040990352630615234e-01) (83, 4.71976876258850097656e-01) (84, 3.51955890655517578125e-01) (85, 4.05918627977371215820e-01) (86, 3.96701157093048095703e-01) (87, 5.17740190029144287109e-01) (88, 5.17528295516967773438e-01) (89, 5.05982339382171630859e-01) (90, 4.79582190513610839844e-01) (91, 3.64480406045913696289e-01) (92, 4.62750643491744995117e-01) (93, 2.97960370779037475586e-01) (94, 3.18713001906871795654e-02) (95, 4.42307204008102416992e-01) (96, 4.61045384407043457031e-01) (97, 4.14665043354034423828e-01) (98, 3.01806777715682983398e-01) (99, 2.27537184953689575195e-01) (100, 2.19847321510314941406e-01) (101, 2.09255933761596679688e-01) (102, 1.89962275326251983643e-02) (103, 1.89801573753356933594e-01) (104, 1.83101296424865722656e-01) (105, 1.55900031328201293945e-01) (106, 1.62409722805023193359e-01) (107, 1.12935289740562438965e-01) (108, 1.16379238665103912354e-01) (109, 2.68847912549972534180e-01) (110, 1.70941069722175598145e-01) (111, 2.05194488167762756348e-01) (112, 2.28826507925987243652e-01) (113, 1.38579308986663818359e-01) (114, 1.27928286790847778320e-01) (115, 2.80967772006988525391e-01) (116, 2.54527151584625244141e-01) (117, 2.47761115431785583496e-01) (118, 2.95180290937423706055e-01) (119, 2.61079460382461547852e-01) (120, 2.24982783198356628418e-01) (121, 2.45869114995002746582e-01) (122, 3.03616017103195190430e-01) (123, 1.75899729132652282715e-01) (124, 2.90911078453063964844e-01) (125, 2.27546885609626770020e-01) (126, 1.58547043800354003906e-01) (127, 2.34403595328330993652e-01) (128, 1.82967618107795715332e-01) (129, 2.91467666625976562500e-01) (130, 1.99477151036262512207e-01) (131, 2.35587254166603088379e-01) (132, 2.41098895668983459473e-01) (133, 2.41544306278228759766e-01) (134, 1.95052713155746459961e-01) (135, 1.90534472465515136719e-01) (136, 1.51942655444145202637e-01) (137, 2.76538372039794921875e-01) (138, 2.21925884485244750977e-01) (139, 1.78280785679817199707e-01) (140, 2.54646897315979003906e-01) (141, 1.42924800515174865723e-01) (142, 1.27821177244186401367e-01) (143, 2.27601736783981323242e-01) (144, 2.23662793636322021484e-01) (145, 1.98462799191474914551e-01) (146, 2.08772212266921997070e-01) (147, 1.62707075476646423340e-01) (148, 1.18434727191925048828e-01) (149, -6.07619769871234893799e-02) (150, 8.72735828161239624023e-02) (151, 8.18154215812683105469e-03) (152, 8.49714130163192749023e-02) (153, 5.95969073474407196045e-02) (154, 5.26498705148696899414e-02) (155, 4.06506694853305816650e-02) (156, -8.26180633157491683960e-03) (157, 1.16279102861881256104e-01) (158, -2.01616007834672927856e-02) (159, 4.21742834150791168213e-02) (160, 2.61526972055435180664e-01) (161, 2.32598930597305297852e-01) (162, 3.31742763519287109375e-01) (163, 1.71003043651580810547e-01) (164, 1.48290291428565979004e-01) (165, 2.05782562494277954102e-01) (166, 2.44506523013114929199e-01) (167, 1.83373808860778808594e-01) (168, 1.67612135410308837891e-01) (169, 1.55730947852134704590e-01) (170, 2.49247282743453979492e-01) (171, 3.27323704957962036133e-01) (172, 2.02767461538314819336e-01) (173, 2.80960828065872192383e-01) (174, 2.38016992807388305664e-01) (175, 3.09513658285140991211e-01) (176, 3.62511068582534790039e-01) (177, 3.30343455076217651367e-01) (178, 3.55291515588760375977e-01) (179, 3.64701002836227416992e-01) (180, 9.37456190586090087891e-01) (0, 3.76214474439620971680e-01) (1, 3.05628418922424316406e-01) (2, 4.07230645418167114258e-01) (3, 3.25680762529373168945e-01) (4, 2.47747987508773803711e-01) (5, 3.36677193641662597656e-01) (6, 3.66783946752548217773e-01) (7, 3.91502708196640014648e-01) (8, 3.43990892171859741211e-01) (9, 2.36060827970504760742e-01) (10, 3.05760651826858520508e-01) (11, 2.30360746383666992188e-01) (12, 2.21826523542404174805e-01) (13, 3.40169101953506469727e-01) (14, 2.40222021937370300293e-01) (15, 3.11251789331436157227e-01) (16, 2.72240519523620605469e-01) (17, 3.05905103683471679688e-01) (18, 3.31991940736770629883e-01) (19, 2.73957520723342895508e-01) (20, 4.00869250297546386719e-01) (21, 2.86545187234878540039e-01) (22, 4.96698826551437377930e-01) (23, 3.16982418298721313477e-01) (24, 3.56999695301055908203e-01) (25, 2.45829895138740539551e-01) (26, 3.31371694803237915039e-01) (27, 5.03158926963806152344e-01) (28, 4.95667815208435058594e-01) (29, 4.24101084470748901367e-01) (30, 4.58066254854202270508e-01) (31, 5.15505969524383544922e-01) (32, 3.48277151584625244141e-01) (33, 2.85842686891555786133e-01) (34, 3.34827899932861328125e-01) (35, 4.53825056552886962891e-01) (36, 4.78601515293121337891e-01) (37, 2.84897685050964355469e-01) (38, 4.49787884950637817383e-01) (39, 4.19776648283004760742e-01) (40, 4.14000570774078369141e-01) (41, 5.65626621246337890625e-01) (42, 6.70950651168823242188e-01) (43, 5.61454951763153076172e-01) (44, 5.20612299442291259766e-01) (45, 8.14913570880889892578e-01) (46, 3.45357465744018554688e+00) (47, 3.36658287048339843750e+00) (48, 7.73560285568237304688e+00) (49, 7.69291305541992187500e+00) (50, 1.37511348724365234375e+01) (51, 1.37058897018432617188e+01) (52, 5.76408207416534423828e-01) (53, 8.03442418575286865234e-01) (54, 9.67845141887664794922e-01) (55, 8.52007865905761718750e-01) (56, 8.11740338802337646484e-01) (57, 8.90797436237335205078e-01) (58, 9.83135998249053955078e-01) (59, 1.05732178688049316406e+00) (60, 9.47509884834289550781e-01) (61, 9.39830970764160156250e+00) (62, 9.52993488311767578125e+00) (63, 9.41705322265625000000e+00) (64, 9.47664451599121093750e+00) (65, 9.38416004180908203125e+00) (66, 9.39027595520019531250e+00) (67, 9.47322463989257812500e+00) (68, 9.38673591613769531250e+00) (69, 9.55734062194824218750e+00) (70, 2.60162770748138427734e-01) (71, 2.71369636058807373047e-01) (72, 2.85187512636184692383e-01) (73, 2.43890732526779174805e-01) (74, 3.45419496297836303711e-01) (75, 3.16405951976776123047e-01) (76, 2.74351119995117187500e-01) (77, 3.07469069957733154297e-01) (78, 4.08423304557800292969e-01) (79, 3.95151376724243164062e-01) (80, 3.91492843627929687500e-01) (81, 3.30753386020660400391e-01) (82, 2.13633701205253601074e-01) (83, 3.04609090089797973633e-01) (84, 3.32752674818038940430e-01) (85, 2.42156296968460083008e-01) (86, 3.19377005100250244141e-01) (87, 2.47271195054054260254e-01) (88, 2.45071321725845336914e-01) (89, 2.52340555191040039062e-01) (90, 2.97864437103271484375e-01) (91, 3.26578170061111450195e-01) (92, 2.78793454170227050781e-01) (93, 2.63312518596649169922e-01) (94, 5.67611694335937500000e-01) (95, 5.26706576347351074219e-01) (96, 2.10205864906311035156e+00) (97, 3.71030092239379882812e+00) (98, 1.15070037841796875000e+02) (99, 7.10066080093383789062e-01) (100, 3.74452978372573852539e-01) (101, 3.17938506603240966797e-01) (102, 3.24914097785949707031e-01) (103, 2.23868206143379211426e-01) (104, 3.24571549892425537109e-01) (105, 2.49791368842124938965e-01) (106, 3.17475585937500000000e+01) (107, 9.67380046844482421875e-01) (108, 9.12851572036743164062e-01) (109, 8.70959758758544921875e-01) (110, 9.21120703220367431641e-01) (111, 8.57457876205444335938e-01) (112, 9.55296933650970458984e-01) (113, 9.56241548061370849609e-01) (114, 7.03069567680358886719e-01) (115, 6.11409485340118408203e-01) (116, 6.38682186603546142578e-01) (117, 5.45468270778656005859e-01) (118, 5.97672760486602783203e-01) (119, 6.49305701255798339844e-01) (120, 5.72148621082305908203e-01) (121, 4.98389631509780883789e-01) (122, 5.77433288097381591797e-01) (123, 6.44012570381164550781e-01) (124, 5.46988487243652343750e-01) (125, 5.41995465755462646484e-01) (126, 6.11801505088806152344e-01) (127, 5.99669337272644042969e-01) (128, 5.14136612415313720703e-01) (129, 4.68888610601425170898e-01) (130, 6.53727889060974121094e-01) (131, 6.58193290233612060547e-01) (132, 5.55184245109558105469e-01) (133, 5.46747446060180664062e-01) (134, 6.55823647975921630859e-01) (135, 4.98918324708938598633e-01) (136, 4.04277801513671875000e-01) (137, 3.80787193775177001953e-01) (138, 4.41660881042480468750e-01) (139, 2.39106893539428710938e-01) (140, 3.43005955219268798828e-01) (141, 2.36877813935279846191e-01) (142, 2.29521080851554870605e-01) (143, 2.70255953073501586914e-01) (144, 1.83234661817550659180e-01) (145, 3.58177989721298217773e-01) (146, 3.07520002126693725586e-01) (147, 3.35793763399124145508e-01) (148, 2.17289432883262634277e-01) (149, 2.66979664564132690430e-01) (150, 3.47299039363861083984e-01) (151, 3.53618294000625610352e-01) (152, 2.90702193975448608398e-01) (153, 2.50463217496871948242e-01) (154, 3.08864623308181762695e-01) (155, 3.65590572357177734375e-01) (156, 3.16885381937026977539e-01) (157, 2.56628245115280151367e-01) (158, 3.00756663084030151367e-01) (159, 1.68175771832466125488e-01) (160, 2.71199434995651245117e-01) (161, 2.99443066120147705078e-01) (162, 1.73238873481750488281e-01) (163, 3.64957243204116821289e-01) (164, 1.90280497074127197266e-01) (165, 1.72827124595642089844e-01) (166, 3.64886254072189331055e-01) (167, 2.86101341247558593750e-01) (168, 2.53302752971649169922e-01) (169, 3.11174094676971435547e-01) (170, 2.91955798864364624023e-01) (171, 2.44210511445999145508e-01) (172, 2.08558112382888793945e-01) (173, 3.82715433835983276367e-01) (174, 3.32977026700973510742e-01) (175, 2.10622519254684448242e-01) (176, 3.59722763299942016602e-01) (177, 2.58480697870254516602e-01) (178, 3.64399939775466918945e-01) (179, 3.95127981901168823242e-01) (180, 1.41244873404502868652e-01) (0, -1.48340642452239990234e-01) (1, -1.10866539180278778076e-01) (2, -2.27218940854072570801e-01) (3, -8.05900841951370239258e-02) (4, -1.70216098427772521973e-01) (5, -2.28363305330276489258e-01) (6, -1.27756759524345397949e-01) (7, -7.52381384372711181641e-02) (8, -8.95628705620765686035e-02) (9, -1.20674945414066314697e-01) (10, -9.52760651707649230957e-02) (11, -7.94891044497489929199e-02) (12, -3.69678586721420288086e-02) (13, -9.87649634480476379395e-02) (14, -5.74408955872058868408e-02) (15, -1.11612685024738311768e-01) (16, -1.81650608777999877930e-01) (17, -2.09580138325691223145e-01) (18, -2.17717632651329040527e-01) (19, -2.35123559832572937012e-01) (20, -8.20825770497322082520e-02) (21, -1.80692672729492187500e-01) (22, -2.20192760229110717773e-01) (23, -8.69749188423156738281e-02) (24, 9.54371392726898193359e-02) (25, -7.77099207043647766113e-02) (26, -6.13735523074865341187e-04) (27, -5.12292310595512390137e-02) (28, -1.69477373361587524414e-01) (29, -2.52951413393020629883e-01) (30, -1.56555473804473876953e-01) (31, -2.39219695329666137695e-01) (32, -3.08265089988708496094e-01) (33, -9.22670364379882812500e-02) (34, -2.01289206743240356445e-01) (35, -1.43661230802536010742e-01) (36, -2.37368613481521606445e-01) (37, -7.11456462740898132324e-02) (38, -1.32458806037902832031e-02) (39, -7.80340060591697692871e-02) (40, 6.27064658328890800476e-03) (41, 6.21556714177131652832e-02) (42, -3.00573389977216720581e-02) (43, -5.18345572054386138916e-02) (44, -5.98195604979991912842e-02) (45, 8.86984393000602722168e-02) (46, 9.20862406492233276367e-02) (47, 1.54209407046437263489e-02) (48, -6.56868442893028259277e-02) (49, -7.19972550868988037109e-02) (50, 7.77414962649345397949e-02) (51, -5.08046001195907592773e-02) (52, -9.32722818106412887573e-03) (53, 4.36402931809425354004e-02) (54, 8.72439220547676086426e-02) (55, 3.55579145252704620361e-02) (56, 1.12296052277088165283e-01) (57, -1.11844502389430999756e-02) (58, 8.55018347501754760742e-02) (59, 9.30655002593994140625e-02) (60, 7.73060917854309082031e-02) (61, 6.79374858736991882324e-02) (62, -7.16296723112463951111e-03) (63, 1.22273392975330352783e-01) (64, 6.35815560817718505859e-02) (65, 8.00050497055053710938e-02) (66, 6.50103688240051269531e-02) (67, 1.11131638288497924805e-01) (68, 6.78520277142524719238e-02) (69, 1.60186111927032470703e-01) (70, 9.10395085811614990234e-02) (71, -2.08460055291652679443e-02) (72, 1.25299066305160522461e-01) (73, 1.68184176087379455566e-01) (74, 3.17993909120559692383e-02) (75, 1.71206995844841003418e-01) (76, 1.22072845697402954102e-01) (77, -1.49468109011650085449e-02) (78, 3.52698192000389099121e-03) (79, -8.88320803642272949219e-02) (80, -3.08381821960210800171e-02) (81, 6.65210187435150146484e-03) (82, -2.31314394623041152954e-02) (83, 1.24823763966560363770e-01) (84, 1.49632126092910766602e-01) (85, 1.54865801334381103516e-01) (86, 8.60540866851806640625e-02) (87, 2.49954372644424438477e-01) (88, -4.44525433704257011414e-03) (89, -2.12049949914216995239e-02) (90, 7.96348229050636291504e-02) (91, 1.11507944762706756592e-01) (92, 8.71450528502464294434e-02) (93, 1.33184015750885009766e-01) (94, -2.45303809642791748047e-02) (95, -9.52901393175125122070e-02) (96, -7.70446285605430603027e-02) (97, -1.19465619325637817383e-01) (98, 2.70344428718090057373e-02) (99, 6.83941468596458435059e-02) (100, 7.05910027027130126953e-02) (101, -3.72959300875663757324e-02) (102, 1.90835501998662948608e-02) (103, 2.43827234953641891479e-02) (104, -8.10721050947904586792e-03) (105, 1.34495154023170471191e-01) (106, -9.71780717372894287109e-03) (107, 2.53499299287796020508e-01) (108, 2.35274851322174072266e-01) (109, 2.29546085000038146973e-01) (110, 2.71665841341018676758e-01) (111, 3.10657113790512084961e-01) (112, 2.69635587930679321289e-01) (113, 2.91770190000534057617e-01) (114, 2.83894777297973632812e-01) (115, 2.06949904561042785645e-01) (116, 2.08341866731643676758e-01) (117, 2.93485015630722045898e-01) (118, 1.59999430179595947266e-01) (119, 2.21229881048202514648e-01) (120, 3.00485044717788696289e-01) (121, 2.65200883150100708008e-01) (122, 1.67013630270957946777e-01) (123, 2.23230704665184020996e-01) (124, 2.18362182378768920898e-01) (125, 2.96765744686126708984e-01) (126, 2.67442196607589721680e-01) (127, 2.01862797141075134277e-01) (128, 2.37649559974670410156e-01) (129, 1.70343935489654541016e-01) (130, 1.50768831372261047363e-01) (131, 4.46910083293914794922e-01) (132, 4.74672675132751464844e-01) (133, 3.11282068490982055664e-01) (134, 3.96007418632507324219e-01) (135, 3.65487456321716308594e-01) (136, 3.17906975746154785156e-01) (137, 3.31860721111297607422e-01) (138, 4.29099828004837036133e-01) (139, 3.62470746040344238281e-01) (140, 3.69951725006103515625e-01) (141, 3.07815492153167724609e-01) (142, 4.79567676782608032227e-01) (143, 4.44096863269805908203e-01) (144, 3.89305114746093750000e-01) (145, 3.51785898208618164062e-01) (146, 4.92999374866485595703e-01) (147, 4.55602884292602539062e-01) (148, 3.06607633829116821289e-01) (149, 3.62159103155136108398e-01) (150, 4.75169152021408081055e-01) (151, 6.07621729373931884766e-01) (152, 5.75022161006927490234e-01) (153, 5.00239074230194091797e-01) (154, 4.94692265987396240234e-01) (155, 4.66920912265777587891e-01) (156, 4.68595623970031738281e-01) (157, 4.26441073417663574219e-01) (158, 6.08243167400360107422e-01) (159, 4.28257346153259277344e-01) (160, 4.93049025535583496094e-01) (161, 4.39805179834365844727e-01) (162, 5.56815028190612792969e-01) (163, 4.73455816507339477539e-01) (164, 3.11806887388229370117e-01) (165, 3.08137625455856323242e-01) (166, 3.90271306037902832031e-01) (167, 4.91903930902481079102e-01) (168, 4.98001039028167724609e-01) (169, 3.24074268341064453125e-01) (170, 3.98698478937149047852e-01) (171, 8.80562126636505126953e-01) (172, 7.96485126018524169922e-01) (173, 8.42473387718200683594e-01) (174, 8.21374118328094482422e-01) (175, 6.93670213222503662109e-01) (176, 7.01736152172088623047e-01) (177, 8.20278942584991455078e-01) (178, 8.52862656116485595703e-01) (179, 7.11468696594238281250e-01) (180, -8.44411998987197875977e-02) (0, 2.11280018091201782227e-01) (1, 2.04008117318153381348e-01) (2, 3.07843387126922607422e-01) (3, 2.87407904863357543945e-01) (4, 2.70474940538406372070e-01) (5, 3.46538186073303222656e-01) (6, 3.27940940856933593750e-01) (7, 2.47630193829536437988e-01) (8, 3.05495023727416992188e-01) (9, 3.22090804576873779297e-01) (10, 3.77473682165145874023e-01) (11, 3.94752770662307739258e-01) (12, 3.30691993236541748047e-01) (13, 2.82606661319732666016e-01) (14, 3.44182938337326049805e-01) (15, 4.05696034431457519531e-01) (16, 4.41690027713775634766e-01) (17, 3.93277406692504882812e-01) (18, 5.32597005367279052734e-01) (19, 5.48953294754028320312e-01) (20, 5.75165092945098876953e-01) (21, 5.29019892215728759766e-01) (22, 1.49531352519989013672e+00) (23, 6.18084132671356201172e-01) (24, 5.50676405429840087891e-01) (25, 5.49787461757659912109e-01) (26, 6.30053102970123291016e-01) (27, 1.64209640026092529297e+00) (28, 4.90686804056167602539e-01) (29, 6.29884719848632812500e-01) (30, 8.22977840900421142578e-01) (31, 7.14528501033782958984e-01) (32, 4.65901136398315429688e-01) (33, 3.47444772720336914062e-01) (34, 8.99269402027130126953e-01) (35, 8.16315710544586181641e-01) (36, 7.73922145366668701172e-01) (37, 8.26440036296844482422e-01) (38, 8.98801922798156738281e-01) (39, 6.08845710754394531250e-01) (40, 7.74506866931915283203e-01) (41, 8.71289789676666259766e-01) (42, 9.04202640056610107422e-01) (43, 1.55034148693084716797e+00) (44, 1.59494554996490478516e+00) (45, 1.43725061416625976562e+00) (46, 1.57253921031951904297e+00) (47, 1.45671880245208740234e+00) (48, 8.08986008167266845703e-01) (49, 8.82405340671539306641e-01) (50, 7.79033362865447998047e-01) (51, 8.08197438716888427734e-01) (52, 1.25247633457183837891e+00) (53, 1.03388822078704833984e+00) (54, 2.15447545051574707031e+00) (55, 2.11958742141723632812e+00) (56, 2.15720272064208984375e+00) (57, 2.12896943092346191406e+00) (58, 1.12114393711090087891e+00) (59, 9.92753744125366210938e-01) (60, 1.10388994216918945312e+00) (61, 2.39911031723022460938e+00) (62, 2.36227321624755859375e+00) (63, 2.63883972167968750000e+00) (64, 2.51732635498046875000e+00) (65, 2.55160474777221679688e+00) (66, 2.70900535583496093750e+00) (67, 1.18226826190948486328e+00) (68, 1.26906454563140869141e+00) (69, 1.28469967842102050781e+00) (70, 4.51216518878936767578e-01) (71, 4.07126456499099731445e-01) (72, 3.06555986404418945312e-01) (73, 3.82962614297866821289e-01) (74, 3.42103391885757446289e-01) (75, 2.94704675674438476562e-01) (76, 4.13108378648757934570e-01) (77, 3.07293742895126342773e-01) (78, 3.41081678867340087891e-01) (79, 4.52777296304702758789e-01) (80, 3.96178305149078369141e-01) (81, 3.25647473335266113281e-01) (82, 2.50243484973907470703e-01) (83, 2.41575926542282104492e-01) (84, 4.29441690444946289062e-01) (85, 4.69670534133911132812e-01) (86, 3.75233262777328491211e-01) (87, 3.36440682411193847656e-01) (88, 3.42457503080368041992e-01) (89, 3.07274192571640014648e-01) (90, 3.71833980083465576172e-01) (91, 2.76460736989974975586e-01) (92, 2.52095460891723632812e-01) (93, 2.89783656597137451172e-01) (94, 3.01082134246826171875e-01) (95, 3.88470590114593505859e-01) (96, 4.96642082929611206055e-01) (97, 6.38584494590759277344e-01) (98, 1.29909896850585937500e+00) (99, 4.71213281154632568359e-01) (100, 4.41031932830810546875e-01) (101, 3.40272963047027587891e-01) (102, 4.42474335432052612305e-01) (103, 4.73079770803451538086e-01) (104, 4.48161095380783081055e-01) (105, 4.01284545660018920898e-01) (106, 2.48496379852294921875e+01) (107, 6.35441732406616210938e+00) (108, 6.30889606475830078125e+00) (109, 1.37237632274627685547e+00) (110, 1.12016129493713378906e+00) (111, 1.24634075164794921875e+00) (112, 1.19250845909118652344e+00) (113, 1.12929522991180419922e+00) (114, 1.25073945522308349609e+00) (115, 1.15604519844055175781e+00) (116, 5.40099740028381347656e-01) (117, 4.13294851779937744141e-01) (118, 3.11711430549621582031e-01) (119, 4.63357478380203247070e-01) (120, 2.55500674247741699219e-01) (121, 2.15662926435470581055e-01) (122, 2.77434438467025756836e-01) (123, 2.79065489768981933594e-01) (124, 2.67695933580398559570e-01) (125, 2.82022446393966674805e-01) (126, 3.10484945774078369141e-01) (127, 3.63185137510299682617e-01) (128, 3.21953862905502319336e-01) (129, 4.07779067754745483398e-01) (130, 3.73108327388763427734e-01) (131, 2.17527076601982116699e-01) (132, 3.99681508541107177734e-01) (133, 3.05527985095977783203e-01) (134, 3.80208015441894531250e-01) (135, 3.37040513753890991211e-01) (136, 3.07548344135284423828e-01) (137, 3.66780996322631835938e-01) (138, 2.16859981417655944824e-01) (139, 3.45855861902236938477e-01) (140, 2.21189796924591064453e-01) (141, 2.77383446693420410156e-01) (142, 3.32961946725845336914e-01) (143, 3.42623740434646606445e-01) (144, 3.35459738969802856445e-01) (145, 3.12787801027297973633e-01) (146, 2.40804255008697509766e-01) (147, 3.95292371511459350586e-01) (148, 2.50174283981323242188e-01) (149, 2.95490771532058715820e-01) (150, 4.07058298587799072266e-01) (151, 3.08207303285598754883e-01) (152, 2.97616779804229736328e-01) (153, 2.73438215255737304688e-01) (154, 3.76469969749450683594e-01) (155, 3.56578767299652099609e-01) (156, 3.39574456214904785156e-01) (157, 2.69490927457809448242e-01) (158, 3.01897346973419189453e-01) (159, 2.13355451822280883789e-01) (160, 2.05300360918045043945e-01) (161, 2.44292944669723510742e-01) (162, 2.00170472264289855957e-01) (163, 1.97298064827919006348e-01) (164, 3.37809681892395019531e-01) (165, 3.68145018815994262695e-01) (166, 3.21986943483352661133e-01) (167, 2.28081226348876953125e-01) (168, 3.18716615438461303711e-01) (169, 3.23164254426956176758e-01) (170, 3.63178998231887817383e-01) (171, 3.58844012022018432617e-01) (172, 2.20121815800666809082e-01) (173, 3.15715104341506958008e-01) (174, 3.04875135421752929688e-01) (175, 3.59603375196456909180e-01) (176, 2.33052730560302734375e-01) (177, 3.50229114294052124023e-01) (178, 3.59445840120315551758e-01) (179, 2.88915812969207763672e-01) (180, -8.75187516212463378906e-02) (0, 2.22593903541564941406e-01) (1, 2.53460019826889038086e-01) (2, 1.86483606696128845215e-01) (3, 8.30885171890258789062e-02) (4, 2.21300631761550903320e-01) (5, 1.34429037570953369141e-01) (6, 2.21019625663757324219e-01) (7, 9.31751206517219543457e-02) (8, 2.39112362265586853027e-01) (9, 2.37162292003631591797e-01) (10, 1.01023986935615539551e-01) (11, 8.12677666544914245605e-02) (12, 2.35195681452751159668e-01) (13, 1.12690880894660949707e-01) (14, 2.33446478843688964844e-01) (15, 2.24210828542709350586e-01) (16, 2.55770295858383178711e-01) (17, 8.71445685625076293945e-02) (18, 1.63110807538032531738e-01) (19, 2.00053647160530090332e-01) (20, 2.67242908477783203125e-01) (21, 1.09824232757091522217e-01) (22, 1.97289183735847473145e-01) (23, 1.84578046202659606934e-01) (24, 2.16315537691116333008e-01) (25, 1.69264689087867736816e-01) (26, 1.72214150428771972656e-01) (27, 1.14156052470207214355e-01) (28, 1.19647629559040069580e-01) (29, 8.99479165673255920410e-02) (30, 1.81467294692993164062e-01) (31, 2.64412999153137207031e-01) (32, 2.62607306241989135742e-01) (33, 8.89638289809226989746e-02) (34, 2.81608164310455322266e-01) (35, 2.16684505343437194824e-01) (36, 1.53413653373718261719e-01) (37, 2.19031915068626403809e-01) (38, 1.83368980884552001953e-01) (39, 6.25040233135223388672e-02) (40, 1.25233456492424011230e-01) (41, 2.04488977789878845215e-01) (42, 4.92039024829864501953e-02) (43, 6.68568387627601623535e-02) (44, 2.47224867343902587891e-02) (45, 2.09627628326416015625e-01) (46, 2.11901068687438964844e-01) (47, 2.02321499586105346680e-01) (48, 1.06529993936419487000e-02) (49, 7.06816837191581726074e-02) (50, 9.78145897388458251953e-02) (51, 1.30271062254905700684e-01) (52, 1.05691939592361450195e-01) (53, 3.10453586280345916748e-02) (54, 8.39324668049812316895e-02) (55, 3.73688079416751861572e-02) (56, 6.72790110111236572266e-02) (57, -4.00476753711700439453e-02) (58, 6.31187483668327331543e-02) (59, 8.17938055843114852905e-03) (60, -1.24136880040168762207e-01) (61, 1.13844396546483039856e-02) (62, 1.35837823152542114258e-01) (63, 2.47559603303670883179e-02) (64, 4.57015335559844970703e-02) (65, 1.54567539691925048828e-01) (66, 1.59195184707641601562e-01) (67, 1.22461624443531036377e-01) (68, 6.72683343291282653809e-02) (69, 7.26689398288726806641e-02) (70, 1.71399444341659545898e-01) (71, 2.05447405576705932617e-01) (72, 9.52258929610252380371e-02) (73, 2.06467166543006896973e-01) (74, 5.89034073054790496826e-02) (75, 1.02228775620460510254e-01) (76, 2.05402478575706481934e-01) (77, 6.15966171026229858398e-02) (78, 2.31466725468635559082e-01) (79, 3.41464459896087646484e-01) (80, 2.76304990053176879883e-01) (81, 3.37461411952972412109e-01) (82, 3.51637214422225952148e-01) (83, 2.11016207933425903320e-01) (84, 3.87594759464263916016e-01) (85, 2.12978512048721313477e-01) (86, 2.28422120213508605957e-01) (87, 3.28860968351364135742e-01) (88, 2.71438241004943847656e-01) (89, 4.05662775039672851562e-01) (90, 3.10670107603073120117e-01) (91, 3.33400279283523559570e-01) (92, 2.15187236666679382324e-01) (93, 4.67472486197948455811e-02) (94, -9.60092365741729736328e-01) (95, -5.90789735317230224609e-01) (96, -2.39309623837471008301e-01) (97, -1.13995261490345001221e-01) (98, -1.45319211483001708984e+00) (99, -3.07144403457641601562e-01) (100, 7.53431767225265502930e-02) (101, 8.20270553231239318848e-03) (102, -7.38640278577804565430e-02) (103, -8.43511372804641723633e-02) (104, -4.24245819449424743652e-02) (105, -1.22761055827140808105e-01) (106, -4.52654409408569335938e+00) (107, -4.90143507719039916992e-01) (108, -4.49422746896743774414e-01) (109, -6.12164437770843505859e-01) (110, -5.66212475299835205078e-01) (111, -1.35045215487480163574e-01) (112, -4.39908318221569061279e-02) (113, 4.10550460219383239746e-03) (114, 3.48901562392711639404e-02) (115, -4.82338108122348785400e-03) (116, 3.90069410204887390137e-02) (117, -4.60003279149532318115e-02) (118, 5.07943816483020782471e-02) (119, -8.90845581889152526855e-02) (120, 7.83841535449028015137e-02) (121, -2.36867610365152359009e-02) (122, 7.21229314804077148438e-02) (123, 8.64589214324951171875e-03) (124, 1.32171109318733215332e-01) (125, 1.09559357166290283203e-01) (126, 9.93301644921302795410e-02) (127, 1.34569734334945678711e-01) (128, 4.26022615283727645874e-03) (129, 8.21759849786758422852e-02) (130, 2.15233452618122100830e-02) (131, 1.91647768020629882812e-01) (132, 2.01923891901969909668e-01) (133, 7.77456164360046386719e-02) (134, 3.30689735710620880127e-02) (135, 8.51376652717590332031e-02) (136, 1.56574934720993041992e-01) (137, 1.24169856309890747070e-01) (138, 1.22680194675922393799e-01) (139, 3.34433838725090026855e-02) (140, 7.92894065380096435547e-02) (141, 1.25296220183372497559e-01) (142, 1.98395639657974243164e-01) (143, 1.67866453528404235840e-01) (144, 4.89867627620697021484e-02) (145, 1.52871951460838317871e-01) (146, 2.44607105851173400879e-01) (147, 2.31381118297576904297e-01) (148, 1.83683112263679504395e-01) (149, 2.10470139980316162109e-01) (150, 5.83313703536987304688e-02) (151, 1.56557604670524597168e-01) (152, 8.98888483643531799316e-02) (153, 2.20912754535675048828e-01) (154, 1.80514946579933166504e-01) (155, 2.19703301787376403809e-01) (156, 1.33284226059913635254e-01) (157, 8.33663344383239746094e-02) (158, 1.97827562689781188965e-01) (159, 1.73192128539085388184e-01) (160, 2.17107564210891723633e-01) (161, 2.68746107816696166992e-01) (162, 2.14005783200263977051e-01) (163, 2.50871807336807250977e-01) (164, 1.41187608242034912109e-01) (165, 2.40704208612442016602e-01) (166, 3.27800095081329345703e-01) (167, 2.45319098234176635742e-01) (168, 1.29004433751106262207e-01) (169, 2.02480569481849670410e-01) (170, 2.50349342823028564453e-01) (171, -4.66656237840652465820e-02) (172, 6.03136792778968811035e-02) (173, -1.91941447556018829346e-02) (174, -1.20595119893550872803e-01) (175, 6.75057619810104370117e-02) (176, -1.08118072152137756348e-01) (177, 6.92370682954788208008e-02) (178, 4.41119596362113952637e-02) (179, 1.31978737190365791321e-02) (180, 5.45287609100341796875e-01) (0, 4.47322309017181396484e-01) (1, 3.14633786678314208984e-01) (2, 2.76167750358581542969e-01) (3, 4.28987145423889160156e-01) (4, 4.55900311470031738281e-01) (5, 4.56034600734710693359e-01) (6, 3.16879272460937500000e-01) (7, 2.23723083734512329102e-01) (8, 3.01644772291183471680e-01) (9, 3.35098177194595336914e-01) (10, 4.05935734510421752930e-01) (11, 3.00535857677459716797e-01) (12, 2.79701977968215942383e-01) (13, 3.21817994117736816406e-01) (14, 3.07880401611328125000e-01) (15, 4.58726137876510620117e-01) (16, 3.88909727334976196289e-01) (17, 5.23455262184143066406e-01) (18, 4.91682827472686767578e-01) (19, 4.96434271335601806641e-01) (20, 4.77970182895660400391e-01) (21, 3.70075166225433349609e-01) (22, 2.23820877075195312500e+00) (23, 3.90767514705657958984e-01) (24, 5.17772614955902099609e-01) (25, 8.80653321743011474609e-01) (26, 9.53861057758331298828e-01) (27, 2.12942600250244140625e+00) (28, 6.09345555305480957031e-01) (29, 7.04835832118988037109e-01) (30, 8.34503114223480224609e-01) (31, 7.29956090450286865234e-01) (32, 3.04514169692993164062e-01) (33, 2.63166606426239013672e-01) (34, 5.78298926353454589844e-01) (35, 5.68013370037078857422e-01) (36, 5.28296589851379394531e-01) (37, 6.46934270858764648438e-01) (38, 6.13930702209472656250e-01) (39, 6.49662315845489501953e-01) (40, 5.89640617370605468750e-01) (41, 5.88864386081695556641e-01) (42, 1.03282594680786132812e+00) (43, 1.78454828262329101562e+00) (44, 2.16908550262451171875e+00) (45, 2.08735585212707519531e+00) (46, 2.28477048873901367188e+00) (47, 2.23076224327087402344e+00) (48, 4.78203678131103515625e+00) (49, 4.34783220291137695312e+00) (50, 6.71113252639770507812e+00) (51, 6.66978836059570312500e+00) (52, 2.19386148452758789062e+00) (53, 2.04257726669311523438e+00) (54, 2.18274354934692382812e+00) (55, 2.03518199920654296875e+00) (56, 7.21387338638305664062e+00) (57, 1.54599523544311523438e+01) (58, 1.54705781936645507812e+01) (59, 7.11149835586547851562e+00) (60, 7.06823396682739257812e+00) (61, 3.67988128662109375000e+01) (62, 3.69200210571289062500e+01) (63, 3.68395576477050781250e+01) (64, 3.68059539794921875000e+01) (65, 3.67754325866699218750e+01) (66, 3.68846855163574218750e+01) (67, 3.68102264404296875000e+01) (68, 3.68860702514648437500e+01) (69, 1.57663574218750000000e+01) (70, 5.37773489952087402344e-01) (71, 4.90033298730850219727e-01) (72, 3.42889219522476196289e-01) (73, 4.36722636222839355469e-01) (74, 3.70905131101608276367e-01) (75, 4.27867352962493896484e-01) (76, 4.39016491174697875977e-01) (77, 3.70450139045715332031e-01) (78, -1.69482920318841934204e-02) (79, 1.07670100405812263489e-02) (80, 1.02351270616054534912e-01) (81, 2.91922837495803833008e-02) (82, -6.37102946639060974121e-02) (83, 4.69196364283561706543e-02) (84, 1.76937729120254516602e-01) (85, 2.05131322145462036133e-01) (86, 6.07687942683696746826e-02) (87, -6.68193995952606201172e-02) (88, -1.63799479603767395020e-01) (89, -1.67810261249542236328e-01) (90, 6.32804725319147109985e-03) (91, -1.42519533634185791016e-01) (92, -1.31433561444282531738e-01) (93, -3.33396308124065399170e-02) (94, 1.25364434719085693359e+00) (95, 1.84993040561676025391e+00) (96, 2.12536478042602539062e+00) (97, 1.01717996597290039062e+01) (98, 8.10968139648437500000e+02) (99, 3.51816892623901367188e-01) (100, 2.27706015110015869141e-01) (101, 2.87618368864059448242e-01) (102, 2.44105413556098937988e-01) (103, 2.42917701601982116699e-01) (104, 4.28278386592864990234e-01) (105, 3.08967202901840209961e-01) (106, 2.40349407196044921875e+01) (107, 3.75994968414306640625e+00) (108, 1.77424621582031250000e+00) (109, 1.20994985103607177734e+00) (110, 1.23712563514709472656e+00) (111, 1.02974832057952880859e+00) (112, 1.02386367321014404297e+00) (113, 9.46441590785980224609e-01) (114, 1.74409937858581542969e+00) (115, 1.73389446735382080078e+00) (116, 8.54133009910583496094e-01) (117, 8.97399425506591796875e-01) (118, 7.46064424514770507812e-01) (119, 4.76648390293121337891e-01) (120, 5.17996728420257568359e-01) (121, 4.20688360929489135742e-01) (122, 4.90763902664184570312e-01) (123, 4.21437919139862060547e-01) (124, 4.39491689205169677734e-01) (125, 4.19316798448562622070e-01) (126, 7.35169172286987304688e-01) (127, 1.25151002407073974609e+00) (128, 1.24766647815704345703e+00) (129, 