FANN_FLO_2.1
num_layers=3
learning_rate=0.700000
connection_rate=1.000000
network_type=0
learning_momentum=0.000000
training_algorithm=2
train_error_function=1
train_stop_function=0
cascade_output_change_fraction=0.010000
quickprop_decay=-0.000100
quickprop_mu=1.750000
rprop_increase_factor=1.200000
rprop_decrease_factor=0.500000
rprop_delta_min=0.000000
rprop_delta_max=50.000000
rprop_delta_zero=0.100000
cascade_output_stagnation_epochs=12
cascade_candidate_change_fraction=0.010000
cascade_candidate_stagnation_epochs=12
cascade_max_out_epochs=150
cascade_min_out_epochs=50
cascade_max_cand_epochs=150
cascade_min_cand_epochs=50
cascade_num_candidate_groups=2
bit_fail_limit=3.49999994039535522461e-01
cascade_candidate_limit=1.00000000000000000000e+03
cascade_weight_multiplier=4.00000005960464477539e-01
cascade_activation_functions_count=10
cascade_activation_functions=3 5 7 8 10 11 14 15 16 17 
cascade_activation_steepnesses_count=4
cascade_activation_steepnesses=2.50000000000000000000e-01 5.00000000000000000000e-01 7.50000000000000000000e-01 1.00000000000000000000e+00 
layer_sizes=181 362 50 
scale_included=0
neurons (num_inputs, activation_function, activation_steepness)=(0, 0, 0.00000000000000000000e+00) (0, 0, 0.00000000000000000000e+00) (0, 0, 0.00000000000000000000e+00) (0, 0, 0.00000000000000000000e+00) (0, 0, 0.00000000000000000000e+00) (0, 0, 0.00000000000000000000e+00) (0, 0, 0.00000000000000000000e+00) (0, 0, 0.00000000000000000000e+00) (0, 0, 0.00000000000000000000e+00) (0, 0, 0.00000000000000000000e+00) (0, 0, 0.00000000000000000000e+00) (0, 0, 0.00000000000000000000e+00) (0, 0, 0.00000000000000000000e+00) (0, 0, 0.00000000000000000000e+00) (0, 0, 0.00000000000000000000e+00) (0, 0, 0.00000000000000000000e+00) (0, 0, 0.00000000000000000000e+00) (0, 0, 0.00000000000000000000e+00) (0, 0, 0.00000000000000000000e+00) (0, 0, 0.00000000000000000000e+00) (0, 0, 0.00000000000000000000e+00) (0, 0, 0.00000000000000000000e+00) (0, 0, 0.00000000000000000000e+00) (0, 0, 0.00000000000000000000e+00) (0, 0, 0.00000000000000000000e+00) (0, 0, 0.00000000000000000000e+00) (0, 0, 0.00000000000000000000e+00) (0, 0, 0.00000000000000000000e+00) (0, 0, 0.00000000000000000000e+00) (0, 0, 0.00000000000000000000e+00) (0, 0, 0.00000000000000000000e+00) (0, 0, 0.00000000000000000000e+00) (0, 0, 0.00000000000000000000e+00) (0, 0, 0.00000000000000000000e+00) (0, 0, 0.00000000000000000000e+00) (0, 0, 0.00000000000000000000e+00) (0, 0, 0.00000000000000000000e+00) (0, 0, 0.00000000000000000000e+00) (0, 0, 0.00000000000000000000e+00) (0, 0, 0.00000000000000000000e+00) (0, 0, 0.00000000000000000000e+00) (0, 0, 0.00000000000000000000e+00) (0, 0, 0.00000000000000000000e+00) (0, 0, 0.00000000000000000000e+00) (0, 0, 0.00000000000000000000e+00) (0, 0, 0.00000000000000000000e+00) (0, 0, 0.00000000000000000000e+00) (0, 0, 0.00000000000000000000e+00) (0, 0, 0.00000000000000000000e+00) (0, 0, 0.00000000000000000000e+00) (0, 0, 0.00000000000000000000e+00) (0, 0, 0.00000000000000000000e+00) (0, 0, 0.00000000000000000000e+00) (0, 0, 0.00000000000000000000e+00) (0, 0, 0.00000000000000000000e+00) (0, 0, 0.00000000000000000000e+00) (0, 0, 0.00000000000000000000e+00) (0, 0, 0.00000000000000000000e+00) (0, 0, 0.00000000000000000000e+00) (0, 0, 0.00000000000000000000e+00) (0, 0, 0.00000000000000000000e+00) (0, 0, 0.00000000000000000000e+00) (0, 0, 0.00000000000000000000e+00) (0, 0, 0.00000000000000000000e+00) (0, 0, 0.00000000000000000000e+00) (0, 0, 0.00000000000000000000e+00) (0, 0, 0.00000000000000000000e+00) (0, 0, 0.00000000000000000000e+00) (0, 0, 0.00000000000000000000e+00) (0, 0, 0.00000000000000000000e+00) (0, 0, 0.00000000000000000000e+00) (0, 0, 0.00000000000000000000e+00) (0, 0, 0.00000000000000000000e+00) (0, 0, 0.00000000000000000000e+00) (0, 0, 0.00000000000000000000e+00) (0, 0, 0.00000000000000000000e+00) (0, 0, 0.00000000000000000000e+00) (0, 0, 0.00000000000000000000e+00) (0, 0, 0.00000000000000000000e+00) (0, 0, 0.00000000000000000000e+00) (0, 0, 0.00000000000000000000e+00) (0, 0, 0.00000000000000000000e+00) (0, 0, 0.00000000000000000000e+00) (0, 0, 0.00000000000000000000e+00) (0, 0, 0.00000000000000000000e+00) (0, 0, 0.00000000000000000000e+00) (0, 0, 0.00000000000000000000e+00) (0, 0, 0.00000000000000000000e+00) (0, 0, 0.00000000000000000000e+00) (0, 0, 0.00000000000000000000e+00) (0, 0, 0.00000000000000000000e+00) (0, 0, 0.00000000000000000000e+00) (0, 0, 0.00000000000000000000e+00) (0, 0, 0.00000000000000000000e+00) (0, 0, 0.00000000000000000000e+00) (0, 0, 0.00000000000000000000e+00) (0, 0, 0.00000000000000000000e+00) (0, 0, 0.00000000000000000000e+00) (0, 0, 0.00000000000000000000e+00) (0, 0, 0.00000000000000000000e+00) (0, 0, 0.00000000000000000000e+00) (0, 0, 0.00000000000000000000e+00) (0, 0, 0.00000000000000000000e+00) (0, 0, 0.00000000000000000000e+00) (0, 0, 0.00000000000000000000e+00) (0, 0, 0.00000000000000000000e+00) (0, 0, 0.00000000000000000000e+00) (0, 0, 0.00000000000000000000e+00) (0, 0, 0.00000000000000000000e+00) (0, 0, 0.00000000000000000000e+00) (0, 0, 0.00000000000000000000e+00) (0, 0, 0.00000000000000000000e+00) (0, 0, 0.00000000000000000000e+00) (0, 0, 0.00000000000000000000e+00) (0, 0, 0.00000000000000000000e+00) (0, 0, 0.00000000000000000000e+00) (0, 0, 0.00000000000000000000e+00) (0, 0, 0.00000000000000000000e+00) (0, 0, 0.00000000000000000000e+00) (0, 0, 0.00000000000000000000e+00) (0, 0, 0.00000000000000000000e+00) (0, 0, 0.00000000000000000000e+00) (0, 0, 0.00000000000000000000e+00) (0, 0, 0.00000000000000000000e+00) (0, 0, 0.00000000000000000000e+00) (0, 0, 0.00000000000000000000e+00) (0, 0, 0.00000000000000000000e+00) (0, 0, 0.00000000000000000000e+00) (0, 0, 0.00000000000000000000e+00) (0, 0, 0.00000000000000000000e+00) (0, 0, 0.00000000000000000000e+00) (0, 0, 0.00000000000000000000e+00) (0, 0, 0.00000000000000000000e+00) (0, 0, 0.00000000000000000000e+00) (0, 0, 0.00000000000000000000e+00) (0, 0, 0.00000000000000000000e+00) (0, 0, 0.00000000000000000000e+00) (0, 0, 0.00000000000000000000e+00) (0, 0, 0.00000000000000000000e+00) (0, 0, 0.00000000000000000000e+00) (0, 0, 0.00000000000000000000e+00) (0, 0, 0.00000000000000000000e+00) (0, 0, 0.00000000000000000000e+00) (0, 0, 0.00000000000000000000e+00) (0, 0, 0.00000000000000000000e+00) (0, 0, 0.00000000000000000000e+00) (0, 0, 0.00000000000000000000e+00) (0, 0, 0.00000000000000000000e+00) (0, 0, 0.00000000000000000000e+00) (0, 0, 0.00000000000000000000e+00) (0, 0, 0.00000000000000000000e+00) (0, 0, 0.00000000000000000000e+00) (0, 0, 0.00000000000000000000e+00) (0, 0, 0.00000000000000000000e+00) (0, 0, 0.00000000000000000000e+00) (0, 0, 0.00000000000000000000e+00) (0, 0, 0.00000000000000000000e+00) (0, 0, 0.00000000000000000000e+00) (0, 0, 0.00000000000000000000e+00) (0, 0, 0.00000000000000000000e+00) (0, 0, 0.00000000000000000000e+00) (0, 0, 0.00000000000000000000e+00) (0, 0, 0.00000000000000000000e+00) (0, 0, 0.00000000000000000000e+00) (0, 0, 0.00000000000000000000e+00) (0, 0, 0.00000000000000000000e+00) (0, 0, 0.00000000000000000000e+00) (0, 0, 0.00000000000000000000e+00) (0, 0, 0.00000000000000000000e+00) (0, 0, 0.00000000000000000000e+00) (0, 0, 0.00000000000000000000e+00) (0, 0, 0.00000000000000000000e+00) (0, 0, 0.00000000000000000000e+00) (0, 0, 0.00000000000000000000e+00) (0, 0, 0.00000000000000000000e+00) (0, 0, 0.00000000000000000000e+00) (0, 0, 0.00000000000000000000e+00) (0, 0, 0.00000000000000000000e+00) (0, 0, 0.00000000000000000000e+00) (0, 0, 0.00000000000000000000e+00) (0, 0, 0.00000000000000000000e+00) (181, 5, 5.00000000000000000000e-01) (181, 5, 5.00000000000000000000e-01) (181, 5, 5.00000000000000000000e-01) (181, 5, 5.00000000000000000000e-01) (181, 5, 5.00000000000000000000e-01) (181, 5, 5.00000000000000000000e-01) (181, 5, 5.00000000000000000000e-01) (181, 5, 5.00000000000000000000e-01) (181, 5, 5.00000000000000000000e-01) (181, 5, 5.00000000000000000000e-01) (181, 5, 5.00000000000000000000e-01) (181, 5, 5.00000000000000000000e-01) (181, 5, 5.00000000000000000000e-01) (181, 5, 5.00000000000000000000e-01) (181, 5, 5.00000000000000000000e-01) (181, 5, 5.00000000000000000000e-01) (181, 5, 5.00000000000000000000e-01) (181, 5, 5.00000000000000000000e-01) (181, 5, 5.00000000000000000000e-01) (181, 5, 5.00000000000000000000e-01) (181, 5, 5.00000000000000000000e-01) (181, 5, 5.00000000000000000000e-01) (181, 5, 5.00000000000000000000e-01) (181, 5, 5.00000000000000000000e-01) (181, 5, 5.00000000000000000000e-01) (181, 5, 5.00000000000000000000e-01) (181, 5, 5.00000000000000000000e-01) (181, 5, 5.00000000000000000000e-01) (181, 5, 5.00000000000000000000e-01) (181, 5, 5.00000000000000000000e-01) (181, 5, 5.00000000000000000000e-01) (181, 5, 5.00000000000000000000e-01) (181, 5, 5.00000000000000000000e-01) (181, 5, 5.00000000000000000000e-01) (181, 5, 5.00000000000000000000e-01) (181, 5, 5.00000000000000000000e-01) (181, 5, 5.00000000000000000000e-01) (181, 5, 5.00000000000000000000e-01) (181, 5, 5.00000000000000000000e-01) (181, 5, 5.00000000000000000000e-01) (181, 5, 5.00000000000000000000e-01) (181, 5, 5.00000000000000000000e-01) (181, 5, 5.00000000000000000000e-01) (181, 5, 5.00000000000000000000e-01) (181, 5, 5.00000000000000000000e-01) (181, 5, 5.00000000000000000000e-01) (181, 5, 5.00000000000000000000e-01) (181, 5, 5.00000000000000000000e-01) (181, 5, 5.00000000000000000000e-01) (181, 5, 5.00000000000000000000e-01) (181, 5, 5.00000000000000000000e-01) (181, 5, 5.00000000000000000000e-01) (181, 5, 5.00000000000000000000e-01) (181, 5, 5.00000000000000000000e-01) (181, 5, 5.00000000000000000000e-01) (181, 5, 5.00000000000000000000e-01) (181, 5, 5.00000000000000000000e-01) (181, 5, 5.00000000000000000000e-01) (181, 5, 5.00000000000000000000e-01) (181, 5, 5.00000000000000000000e-01) (181, 5, 5.00000000000000000000e-01) (181, 5, 5.00000000000000000000e-01) (181, 5, 5.00000000000000000000e-01) (181, 5, 5.00000000000000000000e-01) (181, 5, 5.00000000000000000000e-01) (181, 5, 5.00000000000000000000e-01) (181, 5, 5.00000000000000000000e-01) (181, 5, 5.00000000000000000000e-01) (181, 5, 5.00000000000000000000e-01) (181, 5, 5.00000000000000000000e-01) (181, 5, 5.00000000000000000000e-01) (181, 5, 5.00000000000000000000e-01) (181, 5, 5.00000000000000000000e-01) (181, 5, 5.00000000000000000000e-01) (181, 5, 5.00000000000000000000e-01) (181, 5, 5.00000000000000000000e-01) (181, 5, 5.00000000000000000000e-01) (181, 5, 5.00000000000000000000e-01) (181, 5, 5.00000000000000000000e-01) (181, 5, 5.00000000000000000000e-01) (181, 5, 5.00000000000000000000e-01) (181, 5, 5.00000000000000000000e-01) (181, 5, 5.00000000000000000000e-01) (181, 5, 5.00000000000000000000e-01) (181, 5, 5.00000000000000000000e-01) (181, 5, 5.00000000000000000000e-01) (181, 5, 5.00000000000000000000e-01) (181, 5, 5.00000000000000000000e-01) (181, 5, 5.00000000000000000000e-01) (181, 5, 5.00000000000000000000e-01) (181, 5, 5.00000000000000000000e-01) (181, 5, 5.00000000000000000000e-01) (181, 5, 5.00000000000000000000e-01) (181, 5, 5.00000000000000000000e-01) (181, 5, 5.00000000000000000000e-01) (181, 5, 5.00000000000000000000e-01) (181, 5, 5.00000000000000000000e-01) (181, 5, 5.00000000000000000000e-01) (181, 5, 5.00000000000000000000e-01) (181, 5, 5.00000000000000000000e-01) (181, 5, 5.00000000000000000000e-01) (181, 5, 5.00000000000000000000e-01) (181, 5, 5.00000000000000000000e-01) (181, 5, 5.00000000000000000000e-01) (181, 5, 5.00000000000000000000e-01) (181, 5, 5.00000000000000000000e-01) (181, 5, 5.00000000000000000000e-01) (181, 5, 5.00000000000000000000e-01) (181, 5, 5.00000000000000000000e-01) (181, 5, 5.00000000000000000000e-01) (181, 5, 5.00000000000000000000e-01) (181, 5, 5.00000000000000000000e-01) (181, 5, 5.00000000000000000000e-01) (181, 5, 5.00000000000000000000e-01) (181, 5, 5.00000000000000000000e-01) (181, 5, 5.00000000000000000000e-01) (181, 5, 5.00000000000000000000e-01) (181, 5, 5.00000000000000000000e-01) (181, 5, 5.00000000000000000000e-01) (181, 5, 5.00000000000000000000e-01) (181, 5, 5.00000000000000000000e-01) (181, 5, 5.00000000000000000000e-01) (181, 5, 5.00000000000000000000e-01) (181, 5, 5.00000000000000000000e-01) (181, 5, 5.00000000000000000000e-01) (181, 5, 5.00000000000000000000e-01) (181, 5, 5.00000000000000000000e-01) (181, 5, 5.00000000000000000000e-01) (181, 5, 5.00000000000000000000e-01) (181, 5, 5.00000000000000000000e-01) (181, 5, 5.00000000000000000000e-01) (181, 5, 5.00000000000000000000e-01) (181, 5, 5.00000000000000000000e-01) (181, 5, 5.00000000000000000000e-01) (181, 5, 5.00000000000000000000e-01) (181, 5, 5.00000000000000000000e-01) (181, 5, 5.00000000000000000000e-01) (181, 5, 5.00000000000000000000e-01) (181, 5, 5.00000000000000000000e-01) (181, 5, 5.00000000000000000000e-01) (181, 5, 5.00000000000000000000e-01) (181, 5, 5.00000000000000000000e-01) (181, 5, 5.00000000000000000000e-01) (181, 5, 5.00000000000000000000e-01) (181, 5, 5.00000000000000000000e-01) (181, 5, 5.00000000000000000000e-01) (181, 5, 5.00000000000000000000e-01) (181, 5, 5.00000000000000000000e-01) (181, 5, 5.00000000000000000000e-01) (181, 5, 5.00000000000000000000e-01) (181, 5, 5.00000000000000000000e-01) (181, 5, 5.00000000000000000000e-01) (181, 5, 5.00000000000000000000e-01) (181, 5, 5.00000000000000000000e-01) (181, 5, 5.00000000000000000000e-01) (181, 5, 5.00000000000000000000e-01) (181, 5, 5.00000000000000000000e-01) (181, 5, 5.00000000000000000000e-01) (181, 5, 5.00000000000000000000e-01) (181, 5, 5.00000000000000000000e-01) (181, 5, 5.00000000000000000000e-01) (181, 5, 5.00000000000000000000e-01) (181, 5, 5.00000000000000000000e-01) (181, 5, 5.00000000000000000000e-01) (181, 5, 5.00000000000000000000e-01) (181, 5, 5.00000000000000000000e-01) (181, 5, 5.00000000000000000000e-01) (181, 5, 5.00000000000000000000e-01) (181, 5, 5.00000000000000000000e-01) (181, 5, 5.00000000000000000000e-01) (181, 5, 5.00000000000000000000e-01) (181, 5, 5.00000000000000000000e-01) (181, 5, 5.00000000000000000000e-01) (181, 5, 5.00000000000000000000e-01) (181, 5, 5.00000000000000000000e-01) (181, 5, 5.00000000000000000000e-01) (181, 5, 5.00000000000000000000e-01) (181, 5, 5.00000000000000000000e-01) (181, 5, 5.00000000000000000000e-01) (181, 5, 5.00000000000000000000e-01) (181, 5, 5.00000000000000000000e-01) (181, 5, 5.00000000000000000000e-01) (181, 5, 5.00000000000000000000e-01) (181, 5, 5.00000000000000000000e-01) (181, 5, 5.00000000000000000000e-01) (181, 5, 5.00000000000000000000e-01) (181, 5, 5.00000000000000000000e-01) (181, 5, 5.00000000000000000000e-01) (181, 5, 5.00000000000000000000e-01) (181, 5, 5.00000000000000000000e-01) (181, 5, 5.00000000000000000000e-01) (181, 5, 5.00000000000000000000e-01) (181, 5, 5.00000000000000000000e-01) (181, 5, 5.00000000000000000000e-01) (181, 5, 5.00000000000000000000e-01) (181, 5, 5.00000000000000000000e-01) (181, 5, 5.00000000000000000000e-01) (181, 5, 5.00000000000000000000e-01) (181, 5, 5.00000000000000000000e-01) (181, 5, 5.00000000000000000000e-01) (181, 5, 5.00000000000000000000e-01) (181, 5, 5.00000000000000000000e-01) (181, 5, 5.00000000000000000000e-01) (181, 5, 5.00000000000000000000e-01) (181, 5, 5.00000000000000000000e-01) (181, 5, 5.00000000000000000000e-01) (181, 5, 5.00000000000000000000e-01) (181, 5, 5.00000000000000000000e-01) (181, 5, 5.00000000000000000000e-01) (181, 5, 5.00000000000000000000e-01) (181, 5, 5.00000000000000000000e-01) (181, 5, 5.00000000000000000000e-01) (181, 5, 5.00000000000000000000e-01) (181, 5, 5.00000000000000000000e-01) (181, 5, 5.00000000000000000000e-01) (181, 5, 5.00000000000000000000e-01) (181, 5, 5.00000000000000000000e-01) (181, 5, 5.00000000000000000000e-01) (181, 5, 5.00000000000000000000e-01) (181, 5, 5.00000000000000000000e-01) (181, 5, 5.00000000000000000000e-01) (181, 5, 5.00000000000000000000e-01) (181, 5, 5.00000000000000000000e-01) (181, 5, 5.00000000000000000000e-01) (181, 5, 5.00000000000000000000e-01) (181, 5, 5.00000000000000000000e-01) (181, 5, 5.00000000000000000000e-01) (181, 5, 5.00000000000000000000e-01) (181, 5, 5.00000000000000000000e-01) (181, 5, 5.00000000000000000000e-01) (181, 5, 5.00000000000000000000e-01) (181, 5, 5.00000000000000000000e-01) (181, 5, 5.00000000000000000000e-01) (181, 5, 5.00000000000000000000e-01) (181, 5, 5.00000000000000000000e-01) (181, 5, 5.00000000000000000000e-01) (181, 5, 5.00000000000000000000e-01) (181, 5, 5.00000000000000000000e-01) (181, 5, 5.00000000000000000000e-01) (181, 5, 5.00000000000000000000e-01) (181, 5, 5.00000000000000000000e-01) (181, 5, 5.00000000000000000000e-01) (181, 5, 5.00000000000000000000e-01) (181, 5, 5.00000000000000000000e-01) (181, 5, 5.00000000000000000000e-01) (181, 5, 5.00000000000000000000e-01) (181, 5, 5.00000000000000000000e-01) (181, 5, 5.00000000000000000000e-01) (181, 5, 5.00000000000000000000e-01) (181, 5, 5.00000000000000000000e-01) (181, 5, 5.00000000000000000000e-01) (181, 5, 5.00000000000000000000e-01) (181, 5, 5.00000000000000000000e-01) (181, 5, 5.00000000000000000000e-01) (181, 5, 5.00000000000000000000e-01) (181, 5, 5.00000000000000000000e-01) (181, 5, 5.00000000000000000000e-01) (181, 5, 5.00000000000000000000e-01) (181, 5, 5.00000000000000000000e-01) (181, 5, 5.00000000000000000000e-01) (181, 5, 5.00000000000000000000e-01) (181, 5, 5.00000000000000000000e-01) (181, 5, 5.00000000000000000000e-01) (181, 5, 5.00000000000000000000e-01) (181, 5, 5.00000000000000000000e-01) (181, 5, 5.00000000000000000000e-01) (181, 5, 5.00000000000000000000e-01) (181, 5, 5.00000000000000000000e-01) (181, 5, 5.00000000000000000000e-01) (181, 5, 5.00000000000000000000e-01) (181, 5, 5.00000000000000000000e-01) (181, 5, 5.00000000000000000000e-01) (181, 5, 5.00000000000000000000e-01) (181, 5, 5.00000000000000000000e-01) (181, 5, 5.00000000000000000000e-01) (181, 5, 5.00000000000000000000e-01) (181, 5, 5.00000000000000000000e-01) (181, 5, 5.00000000000000000000e-01) (181, 5, 5.00000000000000000000e-01) (181, 5, 5.00000000000000000000e-01) (181, 5, 5.00000000000000000000e-01) (181, 5, 5.00000000000000000000e-01) (181, 5, 5.00000000000000000000e-01) (181, 5, 5.00000000000000000000e-01) (181, 5, 5.00000000000000000000e-01) (181, 5, 5.00000000000000000000e-01) (181, 5, 5.00000000000000000000e-01) (181, 5, 5.00000000000000000000e-01) (181, 5, 5.00000000000000000000e-01) (181, 5, 5.00000000000000000000e-01) (181, 5, 5.00000000000000000000e-01) (181, 5, 5.00000000000000000000e-01) (181, 5, 5.00000000000000000000e-01) (181, 5, 5.00000000000000000000e-01) (181, 5, 5.00000000000000000000e-01) (181, 5, 5.00000000000000000000e-01) (181, 5, 5.00000000000000000000e-01) (181, 5, 5.00000000000000000000e-01) (181, 5, 5.00000000000000000000e-01) (181, 5, 5.00000000000000000000e-01) (181, 5, 5.00000000000000000000e-01) (181, 5, 5.00000000000000000000e-01) (181, 5, 5.00000000000000000000e-01) (181, 5, 5.00000000000000000000e-01) (181, 5, 5.00000000000000000000e-01) (181, 5, 5.00000000000000000000e-01) (181, 5, 5.00000000000000000000e-01) (181, 5, 5.00000000000000000000e-01) (181, 5, 5.00000000000000000000e-01) (181, 5, 5.00000000000000000000e-01) (181, 5, 5.00000000000000000000e-01) (181, 5, 5.00000000000000000000e-01) (181, 5, 5.00000000000000000000e-01) (181, 5, 5.00000000000000000000e-01) (181, 5, 5.00000000000000000000e-01) (181, 5, 5.00000000000000000000e-01) (181, 5, 5.00000000000000000000e-01) (181, 5, 5.00000000000000000000e-01) (181, 5, 5.00000000000000000000e-01) (181, 5, 5.00000000000000000000e-01) (181, 5, 5.00000000000000000000e-01) (181, 5, 5.00000000000000000000e-01) (181, 5, 5.00000000000000000000e-01) (181, 5, 5.00000000000000000000e-01) (181, 5, 5.00000000000000000000e-01) (181, 5, 5.00000000000000000000e-01) (181, 5, 5.00000000000000000000e-01) (181, 5, 5.00000000000000000000e-01) (181, 5, 5.00000000000000000000e-01) (181, 5, 5.00000000000000000000e-01) (181, 5, 5.00000000000000000000e-01) (181, 5, 5.00000000000000000000e-01) (181, 5, 5.00000000000000000000e-01) (181, 5, 5.00000000000000000000e-01) (181, 5, 5.00000000000000000000e-01) (181, 5, 5.00000000000000000000e-01) (181, 5, 5.00000000000000000000e-01) (181, 5, 5.00000000000000000000e-01) (181, 5, 5.00000000000000000000e-01) (181, 5, 5.00000000000000000000e-01) (181, 5, 5.00000000000000000000e-01) (181, 5, 5.00000000000000000000e-01) (181, 5, 5.00000000000000000000e-01) (181, 5, 5.00000000000000000000e-01) (181, 5, 5.00000000000000000000e-01) (181, 5, 5.00000000000000000000e-01) (181, 5, 5.00000000000000000000e-01) (181, 5, 5.00000000000000000000e-01) (181, 5, 5.00000000000000000000e-01) (181, 5, 5.00000000000000000000e-01) (181, 5, 5.00000000000000000000e-01) (181, 5, 5.00000000000000000000e-01) (181, 5, 5.00000000000000000000e-01) (181, 5, 5.00000000000000000000e-01) (181, 5, 5.00000000000000000000e-01) (181, 5, 5.00000000000000000000e-01) (181, 5, 5.00000000000000000000e-01) (181, 5, 5.00000000000000000000e-01) (181, 5, 5.00000000000000000000e-01) (181, 5, 5.00000000000000000000e-01) (181, 5, 5.00000000000000000000e-01) (0, 5, 0.00000000000000000000e+00) (362, 5, 5.00000000000000000000e-01) (362, 5, 5.00000000000000000000e-01) (362, 5, 5.00000000000000000000e-01) (362, 5, 5.00000000000000000000e-01) (362, 5, 5.00000000000000000000e-01) (362, 5, 5.00000000000000000000e-01) (362, 5, 5.00000000000000000000e-01) (362, 5, 5.00000000000000000000e-01) (362, 5, 5.00000000000000000000e-01) (362, 5, 5.00000000000000000000e-01) (362, 5, 5.00000000000000000000e-01) (362, 5, 5.00000000000000000000e-01) (362, 5, 5.00000000000000000000e-01) (362, 5, 5.00000000000000000000e-01) (362, 5, 5.00000000000000000000e-01) (362, 5, 5.00000000000000000000e-01) (362, 5, 5.00000000000000000000e-01) (362, 5, 5.00000000000000000000e-01) (362, 5, 5.00000000000000000000e-01) (362, 5, 5.00000000000000000000e-01) (362, 5, 5.00000000000000000000e-01) (362, 5, 5.00000000000000000000e-01) (362, 5, 5.00000000000000000000e-01) (362, 5, 5.00000000000000000000e-01) (362, 5, 5.00000000000000000000e-01) (362, 5, 5.00000000000000000000e-01) (362, 5, 5.00000000000000000000e-01) (362, 5, 5.00000000000000000000e-01) (362, 5, 5.00000000000000000000e-01) (362, 5, 5.00000000000000000000e-01) (362, 5, 5.00000000000000000000e-01) (362, 5, 5.00000000000000000000e-01) (362, 5, 5.00000000000000000000e-01) (362, 5, 5.00000000000000000000e-01) (362, 5, 5.00000000000000000000e-01) (362, 5, 5.00000000000000000000e-01) (362, 5, 5.00000000000000000000e-01) (362, 5, 5.00000000000000000000e-01) (362, 5, 5.00000000000000000000e-01) (362, 5, 5.00000000000000000000e-01) (362, 5, 5.00000000000000000000e-01) (362, 5, 5.00000000000000000000e-01) (362, 5, 5.00000000000000000000e-01) (362, 5, 5.00000000000000000000e-01) (362, 5, 5.00000000000000000000e-01) (362, 5, 5.00000000000000000000e-01) (362, 5, 5.00000000000000000000e-01) (362, 5, 5.00000000000000000000e-01) (362, 5, 5.00000000000000000000e-01) (0, 5, 0.00000000000000000000e+00) 
connections (connected_to_neuron, weight)=(0, 6.62858903408050537109e-01) (1, 5.98530054092407226562e-01) (2, 6.52113795280456542969e-01) (3, 6.31714403629302978516e-01) (4, 4.91169631481170654297e-01) (5, 6.59139513969421386719e-01) (6, 6.66181087493896484375e-01) (7, 6.72183811664581298828e-01) (8, 4.88879263401031494141e-01) (9, 5.24980247020721435547e-01) (10, 5.90575993061065673828e-01) (11, 6.22657835483551025391e-01) (12, 5.71408689022064208984e-01) (13, 3.14493179321289062500e-01) (14, 3.46751898527145385742e-01) (15, 4.32705968618392944336e-01) (16, 2.99610286951065063477e-01) (17, 2.49018266797065734863e-01) (18, 2.64631986618041992188e-01) (19, 3.18493485450744628906e-01) (20, 2.81953185796737670898e-01) (21, 3.44919919967651367188e-01) (22, 3.17707031965255737305e-01) (23, 4.26882237195968627930e-01) (24, 2.90226191282272338867e-01) (25, 3.12743753194808959961e-01) (26, 2.58913427591323852539e-01) (27, 4.19934898614883422852e-01) (28, 6.36951327323913574219e-01) (29, 4.64059591293334960938e-01) (30, 5.62545180320739746094e-01) (31, 6.28664255142211914062e-01) (32, 3.60329896211624145508e-01) (33, 3.00547033548355102539e-01) (34, 3.80721777677536010742e-01) (35, 4.02365714311599731445e-01) (36, 3.11383157968521118164e-01) (37, 3.65494847297668457031e-01) (38, 3.86293768882751464844e-01) (39, 2.76664346456527709961e-01) (40, 3.66808503866195678711e-01) (41, 2.94968932867050170898e-01) (42, 2.59849071502685546875e-01) (43, 3.05130660533905029297e-01) (44, 4.05354321002960205078e-01) (45, 4.08328354358673095703e-01) (46, 3.02389472723007202148e-01) (47, 2.72544801235198974609e-01) (48, 4.23514842987060546875e-01) (49, 3.31407010555267333984e-01) (50, 3.51260751485824584961e-01) (51, 4.62233901023864746094e-01) (52, 5.43016076087951660156e-01) (53, 5.28821349143981933594e-01) (54, 5.41472375392913818359e-01) (55, 3.58781576156616210938e-01) (56, 3.78817409276962280273e-01) (57, 5.58122634887695312500e-01) (58, 6.24783098697662353516e-01) (59, 8.88868868350982666016e-01) (60, 8.39013576507568359375e-01) (61, 3.29510837793350219727e-01) (62, 4.26228195428848266602e-01) (63, 3.78892272710800170898e-01) (64, 3.89344543218612670898e-01) (65, 3.31595182418823242188e-01) (66, 2.98545509576797485352e-01) (67, 4.16143029928207397461e-01) (68, 4.11556214094161987305e-01) (69, 4.05152112245559692383e-01) (70, 4.46278631687164306641e-01) (71, 3.32878351211547851562e-01) (72, 2.54567056894302368164e-01) (73, 2.59945482015609741211e-01) (74, 4.36669737100601196289e-01) (75, 4.57303613424301147461e-01) (76, 4.62918400764465332031e-01) (77, 4.74161565303802490234e-01) (78, 4.80920672416687011719e-01) (79, 4.29315537214279174805e-01) (80, 3.48283201456069946289e-01) (81, 3.57056349515914916992e-01) (82, 4.36787605285644531250e-01) (83, 3.25820803642272949219e-01) (84, 2.83714801073074340820e-01) (85, 3.95536541938781738281e-01) (86, 3.31623345613479614258e-01) (87, 3.40543180704116821289e-01) (88, 3.86178135871887207031e-01) (89, 4.67664361000061035156e-01) (90, 3.07314187288284301758e-01) (91, 3.62273097038269042969e-01) (92, 3.27432334423065185547e-01) (93, 4.59180474281311035156e-01) (94, 4.53532457351684570312e-01) (95, 4.46020811796188354492e-01) (96, 3.25172513723373413086e-01) (97, 3.03038924932479858398e-01) (98, 4.13909524679183959961e-01) (99, 4.96873378753662109375e-01) (100, 4.44551676511764526367e-01) (101, 3.88185530900955200195e-01) (102, 3.52665126323699951172e-01) (103, 4.53564077615737915039e-01) (104, 4.05145883560180664062e-01) (105, 4.97197210788726806641e-01) (106, 4.05061811208724975586e-01) (107, 3.80975216627120971680e-01) (108, 4.82027739286422729492e-01) (109, 3.86743217706680297852e-01) (110, 4.98183101415634155273e-01) (111, 3.15749824047088623047e-01) (112, 4.29431766271591186523e-01) (113, 4.12712663412094116211e-01) (114, 3.13923329114913940430e-01) (115, 4.25996065139770507812e-01) (116, 3.02670806646347045898e-01) (117, 3.17329168319702148438e-01) (118, 4.34797197580337524414e-01) (119, 3.71981978416442871094e-01) (120, 4.84170079231262207031e-01) (121, 4.46954518556594848633e-01) (122, 4.47554320096969604492e-01) (123, 3.26737850904464721680e-01) (124, 4.20509070158004760742e-01) (125, 4.15341854095458984375e-01) (126, 4.65424478054046630859e-01) (127, 4.40903693437576293945e-01) (128, 4.17424499988555908203e-01) (129, 3.68561387062072753906e-01) (130, 4.20470714569091796875e-01) (131, 3.76615434885025024414e-01) (132, 4.67783629894256591797e-01) (133, 4.83992129564285278320e-01) (134, 3.37106406688690185547e-01) (135, 3.78165304660797119141e-01) (136, 5.13424336910247802734e-01) (137, 4.83026862144470214844e-01) (138, 4.79731202125549316406e-01) (139, 4.89030599594116210938e-01) (140, 3.65822851657867431641e-01) (141, 4.75179165601730346680e-01) (142, 4.63525921106338500977e-01) (143, 4.57468479871749877930e-01) (144, 3.53874534368515014648e-01) (145, 2.86067515611648559570e-01) (146, 3.92994850873947143555e-01) (147, 3.65185201168060302734e-01) (148, 3.13249140977859497070e-01) (149, -4.11707592010498046875e+00) (150, -4.00773668289184570312e+00) (151, -5.53092527389526367188e+00) (152, -5.54438686370849609375e+00) (153, -5.44283199310302734375e+00) (154, -1.32762699127197265625e+01) (155, -1.31925792694091796875e+01) (156, -2.27662920951843261719e+00) (157, -2.28469824790954589844e+00) (158, -4.24095058441162109375e+00) (159, -4.16132783889770507812e+00) (160, 3.58832091093063354492e-01) (161, 5.61180448532104492188e+00) (162, 1.05283002853393554688e+01) (163, 1.05622911453247070312e+01) (164, 5.60906982421875000000e+00) (165, 1.04764819145202636719e+00) (166, 1.12193143367767333984e+00) (167, 2.59598553180694580078e-01) (168, 3.16596925258636474609e-01) (169, 3.86581182479858398438e-01) (170, 4.32998389005661010742e-01) (171, 3.45020622014999389648e-01) (172, 3.26485425233840942383e-01) (173, 4.00195688009262084961e-01) (174, 3.27648848295211791992e-01) (175, 4.03201133012771606445e-01) (176, 4.09104377031326293945e-01) (177, 2.43198767304420471191e-01) (178, 2.90197819471359252930e-01) (179, 2.43812531232833862305e-01) (180, 5.96292316913604736328e-01) (0, -1.52922511100769042969e-01) (1, -1.39998018741607666016e-01) (2, -9.26064327359199523926e-02) (3, -3.43250595033168792725e-02) (4, -8.41656103730201721191e-02) (5, -1.53077960014343261719e-01) (6, -1.94474279880523681641e-01) (7, -5.87131083011627197266e-02) (8, -6.69238120317459106445e-02) (9, -2.86971069872379302979e-02) (10, -1.42430141568183898926e-01) (11, -3.68253365159034729004e-02) (12, -1.64741799235343933105e-01) (13, -4.61388602852821350098e-02) (14, -1.35583076626062393188e-02) (15, -4.87648062407970428467e-02) (16, -5.55877052247524261475e-02) (17, -1.85306340456008911133e-01) (18, -1.70324832201004028320e-01) (19, -8.63095670938491821289e-02) (20, -1.71478569507598876953e-01) (21, -2.22308542579412460327e-02) (22, -1.76204934716224670410e-01) (23, 2.79669836163520812988e-03) (24, -1.21183440089225769043e-01) (25, 1.61357544129714369774e-04) (26, -5.39656402543187141418e-03) (27, -9.22153368592262268066e-02) (28, -1.19196824729442596436e-01) (29, -1.71924486756324768066e-01) (30, -2.74794496363028883934e-04) (31, -7.54996165633201599121e-02) (32, -1.11201740801334381104e-01) (33, -9.31898206472396850586e-02) (34, -2.25362405180931091309e-01) (35, -1.17026984691619873047e-01) (36, -1.60831183195114135742e-01) (37, -2.08150222897529602051e-01) (38, -1.47841215133666992188e-01) (39, -2.08692654967308044434e-01) (40, -2.39894419908523559570e-01) (41, -1.01112656295299530029e-01) (42, -4.12223562598228454590e-02) (43, 1.03601282462477684021e-02) (44, 7.71693661808967590332e-02) (45, -3.90690192580223083496e-02) (46, -3.05042583495378494263e-02) (47, 2.08501257002353668213e-02) (48, -2.63149328529834747314e-02) (49, 4.85775917768478393555e-02) (50, 1.62361741065979003906e-01) (51, 2.98592243343591690063e-02) (52, 4.57079242914915084839e-03) (53, 1.64781168103218078613e-01) (54, 2.09809560328722000122e-02) (55, 7.23958760499954223633e-02) (56, 1.54181584715843200684e-01) (57, 4.82336757704615592957e-03) (58, 1.66749134659767150879e-01) (59, 1.38419568538665771484e-02) (60, 1.25411814078688621521e-02) (61, 1.42797619104385375977e-01) (62, 1.18169344961643218994e-01) (63, 7.54000023007392883301e-02) (64, 2.77811996638774871826e-02) (65, -7.29051530361175537109e-02) (66, -4.69747884199023246765e-03) (67, 9.69640016555786132812e-02) (68, 4.46162623120471835136e-04) (69, -7.30596110224723815918e-02) (70, -2.78104338794946670532e-02) (71, 5.40401935577392578125e-02) (72, -8.32540318369865417480e-02) (73, 9.60764568299055099487e-03) (74, -5.38716390728950500488e-02) (75, 6.74047991633415222168e-02) (76, 4.24507707357406616211e-02) (77, -1.27233425155282020569e-02) (78, -4.47584763169288635254e-02) (79, -1.48316755890846252441e-01) (80, -1.78030088543891906738e-01) (81, -2.95888185501098632812e-01) (82, -3.00506591796875000000e-01) (83, -1.55501037836074829102e-01) (84, -1.12983331084251403809e-01) (85, -2.60389029979705810547e-01) (86, -2.63976037502288818359e-01) (87, -1.37565150856971740723e-01) (88, -2.34374314546585083008e-01) (89, -4.46373969316482543945e-02) (90, -7.01376870274543762207e-02) (91, 3.09530552476644515991e-02) (92, -7.65593573451042175293e-02) (93, 7.36025944352149963379e-02) (94, -6.72789886593818664551e-02) (95, 5.12031745165586471558e-03) (96, 1.04442685842514038086e-01) (97, 3.57997752726078033447e-02) (98, -3.58582027256488800049e-02) (99, -2.41672713309526443481e-02) (100, 2.85169128328561782837e-02) (101, 2.23869681358337402344e-02) (102, 1.71875074505805969238e-01) (103, 8.91071930527687072754e-02) (104, 1.01443734019994735718e-02) (105, 3.67145687341690063477e-02) (106, 6.74710720777511596680e-02) (107, 1.32371306419372558594e-01) (108, 1.03707455098628997803e-01) (109, 1.07696883380413055420e-01) (110, 9.77808907628059387207e-02) (111, 3.99339497089385986328e-02) (112, 1.25912383198738098145e-01) (113, 1.10271193087100982666e-01) (114, 1.97136968374252319336e-01) (115, 1.25469759106636047363e-01) (116, 1.61578267812728881836e-01) (117, 4.42157983779907226562e-02) (118, 9.88346487283706665039e-02) (119, 4.13985438644886016846e-02) (120, 8.40845331549644470215e-02) (121, 1.11909091472625732422e-01) (122, 1.50235280394554138184e-01) (123, 8.56084078550338745117e-02) (124, 6.27426952123641967773e-02) (125, 1.62298321723937988281e-01) (126, 1.41895681619644165039e-01) (127, 3.47359962761402130127e-02) (128, 6.62133619189262390137e-02) (129, 1.94256395101547241211e-01) (130, 9.40889567136764526367e-02) (131, 1.80481776595115661621e-01) (132, 1.01945511996746063232e-01) (133, 9.17965099215507507324e-02) (134, 9.68997403979301452637e-02) (135, 9.99257043004035949707e-02) (136, 1.18411131203174591064e-01) (137, 9.78189259767532348633e-02) (138, -3.58528979122638702393e-02) (139, -5.19423633813858032227e-02) (140, -9.74357593804597854614e-03) (141, 4.53054234385490417480e-02) (142, -3.16783636808395385742e-02) (143, 9.53497961163520812988e-02) (144, -6.43914043903350830078e-02) (145, -4.89082969725131988525e-02) (146, 9.72056109458208084106e-03) (147, 8.69822576642036437988e-02) (148, -1.11601790413260459900e-02) (149, 1.36612588539719581604e-02) (150, 3.01826149225234985352e-02) (151, -2.57714409381151199341e-02) (152, -8.81501734256744384766e-02) (153, -2.90880613029003143311e-02) (154, -1.50363668799400329590e-01) (155, -3.46869230270385742188e-02) (156, -7.82132372260093688965e-02) (157, -2.01032813638448715210e-02) (158, -1.78807470947504043579e-02) (159, -2.94599104672670364380e-02) (160, -4.62961681187152862549e-02) (161, -1.50164902210235595703e-01) (162, -7.16593489050865173340e-02) (163, -1.62441983819007873535e-01) (164, -7.27530047297477722168e-02) (165, 8.35170410573482513428e-03) (166, -7.46332481503486633301e-02) (167, -1.67287200689315795898e-01) (168, -4.52200770378112792969e-02) (169, -5.94703666865825653076e-02) (170, -1.63665816187858581543e-01) (171, 1.73731893301010131836e-01) (172, 1.70302614569664001465e-02) (173, 4.39748577773571014404e-02) (174, 1.41604125499725341797e-01) (175, 2.68152598291635513306e-02) (176, 7.20536261796951293945e-02) (177, 2.87791267037391662598e-02) (178, 1.92017078399658203125e-01) (179, 1.39112830162048339844e-01) (180, -1.15725600719451904297e+00) (0, 9.60045829415321350098e-02) (1, -1.28536438569426536560e-02) (2, -6.01076288148760795593e-03) (3, 2.98581551760435104370e-02) (4, -2.78050050837919116020e-04) (5, -7.77559205889701843262e-02) (6, -8.54134485125541687012e-02) (7, -5.53122684359550476074e-02) (8, 6.94325119256973266602e-02) (9, 5.01957684755325317383e-02) (10, 5.11589534580707550049e-02) (11, 7.48716816306114196777e-02) (12, -6.89569413661956787109e-02) (13, 5.62213361263275146484e-02) (14, -2.97335181385278701782e-02) (15, -7.67810270190238952637e-02) (16, -3.45882587134838104248e-02) (17, -1.40176881104707717896e-02) (18, 4.59217950701713562012e-02) (19, 7.38647133111953735352e-02) (20, -9.77590773254632949829e-03) (21, 1.64957754313945770264e-02) (22, 8.71626883745193481445e-02) (23, 2.19788383692502975464e-02) (24, -5.35948276519775390625e-02) (25, -9.71367880702018737793e-02) (26, 9.17064175009727478027e-02) (27, -1.92102044820785522461e-02) (28, 1.14647150039672851562e-01) (29, 4.97339516878128051758e-02) (30, -8.15737294033169746399e-04) (31, 9.58960354328155517578e-02) (32, -7.42085725069046020508e-02) (33, 8.14333409070968627930e-02) (34, 2.75745894759893417358e-02) (35, 2.37810425460338592529e-02) (36, 1.02596253156661987305e-01) (37, 2.83484235405921936035e-02) (38, 4.83180582523345947266e-02) (39, 4.31004837155342102051e-02) (40, -4.99489158391952514648e-02) (41, -1.29913855344057083130e-02) (42, 1.23502849601209163666e-03) (43, -3.51936034858226776123e-02) (44, -6.82573541998863220215e-02) (45, 7.32120200991630554199e-02) (46, -2.25057657808065414429e-02) (47, -1.12142618745565414429e-02) (48, -1.12731128931045532227e-01) (49, -1.47352144122123718262e-01) (50, -1.09459333121776580811e-01) (51, -2.93300282210111618042e-02) (52, -1.61383375525474548340e-02) (53, -1.07864066958427429199e-01) (54, -8.66739600896835327148e-02) (55, 2.27746237069368362427e-02) (56, -1.12644314765930175781e-01) (57, -1.00717380642890930176e-01) (58, -1.05203062295913696289e-01) (59, -1.20929263532161712646e-01) (60, 5.81805445253849029541e-02) (61, -1.43459104001522064209e-02) (62, -1.30621194839477539062e-01) (63, 4.43240590393543243408e-02) (64, -5.45552074909210205078e-02) (65, -3.50231118500232696533e-02) (66, -6.31319358944892883301e-02) (67, -8.29051882028579711914e-02) (68, 6.42685145139694213867e-02) (69, 6.21696785092353820801e-02) (70, 4.61584813892841339111e-02) (71, -9.79913994669914245605e-02) (72, -5.89326545596122741699e-02) (73, -4.67554181814193725586e-02) (74, 2.01714225113391876221e-02) (75, 2.59738583117723464966e-02) (76, -1.93567350506782531738e-02) (77, 1.06602087616920471191e-01) (78, 1.32375240325927734375e-01) (79, 7.18087106943130493164e-02) (80, -3.81290763616561889648e-02) (81, 1.32011054083704948425e-02) (82, 9.02703404426574707031e-03) (83, 8.79858359694480895996e-02) (84, 3.50224599242210388184e-02) (85, 6.57413527369499206543e-02) (86, 6.14152811467647552490e-02) (87, 7.58508071303367614746e-02) (88, 9.40722748637199401855e-02) (89, 7.84227028489112854004e-02) (90, 8.74887406826019287109e-02) (91, 6.54290691018104553223e-02) (92, -4.19464940205216407776e-03) (93, 8.52507501840591430664e-02) (94, 5.44044524431228637695e-02) (95, 8.20565894246101379395e-02) (96, -4.58494536578655242920e-02) (97, 7.12270736694335937500e-02) (98, 8.62511470913887023926e-02) (99, -7.42562711238861083984e-02) (100, 5.53399026393890380859e-02) (101, 5.40456101298332214355e-02) (102, -3.64378094673156738281e-02) (103, -7.53597840666770935059e-02) (104, -6.84680417180061340332e-02) (105, 6.48118704557418823242e-02) (106, 5.63968755304813385010e-02) (107, 1.93503089249134063721e-02) (108, 7.71888196468353271484e-02) (109, 5.91326877474784851074e-02) (110, -6.47450983524322509766e-02) (111, 7.68485441803932189941e-02) (112, 1.12212017178535461426e-01) (113, -1.72516368329524993896e-02) (114, 1.79566850420087575912e-03) (115, -5.18746720626950263977e-03) (116, 8.50595310330390930176e-02) (117, 9.27351638674736022949e-02) (118, 1.07996389269828796387e-01) (119, 2.87364292889833450317e-02) (120, 2.10336502641439437866e-02) (121, 4.64315935969352722168e-02) (122, -1.41089297831058502197e-02) (123, 1.12119041383266448975e-01) (124, 3.09472009539604187012e-02) (125, 8.21683034300804138184e-02) (126, 3.90897244215011596680e-02) (127, 6.99900686740875244141e-02) (128, 4.87025976181030273438e-02) (129, 1.62985455244779586792e-02) (130, 1.02563366293907165527e-01) (131, 4.05409559607505798340e-03) (132, -3.13996523618698120117e-02) (133, -3.11998724937438964844e-02) (134, 3.22227105498313903809e-02) (135, 5.45865157619118690491e-03) (136, 1.39114812016487121582e-01) (137, -2.93696466833353042603e-02) (138, 1.02621719241142272949e-01) (139, 9.60449799895286560059e-02) (140, 1.11548967659473419189e-01) (141, 1.22640550136566162109e-01) (142, 5.90654760599136352539e-02) (143, 1.07191428542137145996e-01) (144, -1.26227792352437973022e-02) (145, 1.44324913620948791504e-01) (146, -1.20831243693828582764e-02) (147, -3.92519645392894744873e-02) (148, 1.25658154487609863281e-01) (149, -5.74589520692825317383e-03) (150, 8.40398147702217102051e-02) (151, 4.45234924554824829102e-02) (152, 1.31535843014717102051e-01) (153, 1.22220724821090698242e-01) (154, 8.91662109643220901489e-03) (155, 1.44415264949202537537e-02) (156, 5.84337748587131500244e-02) (157, 1.02870121598243713379e-01) (158, 1.39199107885360717773e-01) (159, 1.61233246326446533203e-01) (160, -2.64937151223421096802e-02) (161, 1.23797781765460968018e-01) (162, 4.82966378331184387207e-02) (163, 2.78236083686351776123e-02) (164, 1.53960719704627990723e-01) (165, 1.38577237725257873535e-01) (166, 8.87514725327491760254e-02) (167, 1.15854367613792419434e-01) (168, 1.34887591004371643066e-01) (169, 1.63424219936132431030e-02) (170, 7.00471699237823486328e-02) (171, 6.73532560467720031738e-02) (172, -4.37876321375370025635e-02) (173, -5.50217591226100921631e-02) (174, 2.58243903517723083496e-02) (175, -5.81210805103182792664e-03) (176, -6.22562505304813385010e-02) (177, 5.92608861625194549561e-02) (178, -2.96567543409764766693e-03) (179, 1.05222739279270172119e-01) (180, 1.39133319258689880371e-01) (0, 4.65128123760223388672e-01) (1, 3.33114653825759887695e-01) (2, 4.00794625282287597656e-01) (3, 4.20025587081909179688e-01) (4, 3.74948561191558837891e-01) (5, 4.48153614997863769531e-01) (6, 3.11472892761230468750e-01) (7, 3.10505717992782592773e-01) (8, 4.19665455818176269531e-01) (9, 3.05527895689010620117e-01) (10, 3.22136014699935913086e-01) (11, 3.55535566806793212891e-01) (12, 3.68096828460693359375e-01) (13, 3.60341727733612060547e-01) (14, 3.20085436105728149414e-01) (15, 3.12115550041198730469e-01) (16, 4.54536259174346923828e-01) (17, 2.86819547414779663086e-01) (18, 3.02786588668823242188e-01) (19, 3.26664060354232788086e-01) (20, 4.01156336069107055664e-01) (21, 4.49366539716720581055e-01) (22, 3.63904654979705810547e-01) (23, 4.30486440658569335938e-01) (24, 3.58660697937011718750e-01) (25, 4.39446091651916503906e-01) (26, 4.46423649787902832031e-01) (27, 2.97545284032821655273e-01) (28, 2.99613356590270996094e-01) (29, 4.14616376161575317383e-01) (30, 4.45694595575332641602e-01) (31, 2.93124496936798095703e-01) (32, 2.73076385259628295898e-01) (33, 3.72262388467788696289e-01) (34, 4.40660804510116577148e-01) (35, 3.79191547632217407227e-01) (36, 3.50991696119308471680e-01) (37, 2.83405452966690063477e-01) (38, 4.21685189008712768555e-01) (39, 3.15623193979263305664e-01) (40, 3.31792861223220825195e-01) (41, 4.82933282852172851562e-01) (42, 3.98120284080505371094e-01) (43, 4.25386339426040649414e-01) (44, 3.68920087814331054688e-01) (45, 4.43232297897338867188e-01) (46, 4.66162323951721191406e-01) (47, 3.51805239915847778320e-01) (48, 7.18248248100280761719e-01) (49, 7.58023858070373535156e-01) (50, 6.67382180690765380859e-01) (51, 6.36629223823547363281e-01) (52, 7.24574387073516845703e-01) (53, 7.47746765613555908203e-01) (54, 5.81959962844848632812e-01) (55, 5.98123431205749511719e-01) (56, 7.01941072940826416016e-01) (57, 7.41894483566284179688e-01) (58, 6.07030391693115234375e-01) (59, 7.28794395923614501953e-01) (60, 6.83587312698364257812e-01) (61, 5.79318106174468994141e-01) (62, 7.47879028320312500000e-01) (63, 6.84579432010650634766e-01) (64, 6.79225444793701171875e-01) (65, 7.14917659759521484375e-01) (66, 5.91522336006164550781e-01) (67, 7.57968902587890625000e-01) (68, 7.23641633987426757812e-01) (69, 7.37837076187133789062e-01) (70, 5.72258234024047851562e-01) (71, 5.53774178028106689453e-01) (72, 7.19409465789794921875e-01) (73, 6.80923521518707275391e-01) (74, 6.88342273235321044922e-01) (75, 5.96751093864440917969e-01) (76, 6.32793605327606201172e-01) (77, 6.63531720638275146484e-01) (78, 3.86902749538421630859e-01) (79, 3.18577289581298828125e-01) (80, 3.87317121028900146484e-01) (81, 2.91826665401458740234e-01) (82, 3.92633736133575439453e-01) (83, 3.48233997821807861328e-01) (84, 2.76991218328475952148e-01) (85, 4.12327855825424194336e-01) (86, 3.86022239923477172852e-01) (87, 6.93995535373687744141e-01) (88, 6.70844733715057373047e-01) (89, 7.05424845218658447266e-01) (90, 6.57323718070983886719e-01) (91, 5.86894869804382324219e-01) (92, 7.21062600612640380859e-01) (93, 6.43602669239044189453e-01) (94, 7.04858422279357910156e-01) (95, 6.47165358066558837891e-01) (96, 5.99866926670074462891e-01) (97, 7.42855012416839599609e-01) (98, 6.32684826850891113281e-01) (99, 7.65730381011962890625e-01) (100, 7.15111970901489257812e-01) (101, 6.56921267509460449219e-01) (102, 5.65240144729614257812e-01) (103, 6.90142989158630371094e-01) (104, 2.71719425916671752930e-01) (105, 3.82786303758621215820e-01) (106, 4.12852257490158081055e-01) (107, 3.50516408681869506836e-01) (108, 2.91631251573562622070e-01) (109, 3.20968002080917358398e-01) (110, 3.92876327037811279297e-01) (111, 4.03700381517410278320e-01) (112, 3.37124526500701904297e-01) (113, 3.10424387454986572266e-01) (114, 2.77927786111831665039e-01) (115, 3.37226361036300659180e-01) (116, 2.45220184326171875000e-01) (117, 3.84848594665527343750e-01) (118, 2.74256467819213867188e-01) (119, 3.56024354696273803711e-01) (120, 3.32912206649780273438e-01) (121, 3.72527688741683959961e-01) (122, 3.86524796485900878906e-01) (123, 2.95949637889862060547e-01) (124, 2.59574711322784423828e-01) (125, 3.39825659990310668945e-01) (126, 3.78281176090240478516e-01) (127, 2.98563957214355468750e-01) (128, 3.25532227754592895508e-01) (129, 2.58972734212875366211e-01) (130, 3.02134871482849121094e-01) (131, 2.89262354373931884766e-01) (132, 3.64217340946197509766e-01) (133, 2.50782132148742675781e-01) (134, 3.59976559877395629883e-01) (135, 3.40626120567321777344e-01) (136, 1.98379933834075927734e-01) (137, 3.41856807470321655273e-01) (138, 2.60078877210617065430e-01) (139, 2.58768677711486816406e-01) (140, 2.30963498353958129883e-01) (141, 2.20931127667427062988e-01) (142, 2.30118677020072937012e-01) (143, 3.34759384393692016602e-01) (144, 2.97863513231277465820e-01) (145, 2.72906064987182617188e-01) (146, 2.36917570233345031738e-01) (147, 3.08180332183837890625e-01) (148, 2.24498778581619262695e-01) (149, 2.84940451383590698242e-01) (150, 2.38642260432243347168e-01) (151, 3.29676985740661621094e-01) (152, 2.27383762598037719727e-01) (153, 1.92595496773719787598e-01) (154, 1.95837914943695068359e-01) (155, 2.56214529275894165039e-01) (156, 3.02212595939636230469e-01) (157, 3.43774616718292236328e-01) (158, 3.21813046932220458984e-01) (159, 1.93236067891120910645e-01) (160, 3.65184694528579711914e-01) (161, 1.70131966471672058105e-01) (162, 2.24850103259086608887e-01) (163, 2.72902399301528930664e-01) (164, 2.41658270359039306641e-01) (165, 2.07004234194755554199e-01) (166, 2.33646333217620849609e-01) (167, 2.76167690753936767578e-01) (168, 1.82983279228210449219e-01) (169, 3.27685952186584472656e-01) (170, 3.51066559553146362305e-01) (171, 2.96725243330001831055e-01) (172, 4.31558310985565185547e-01) (173, 2.64813095331192016602e-01) (174, 2.49837145209312438965e-01) (175, 3.47938150167465209961e-01) (176, 3.57884526252746582031e-01) (177, 3.08228582143783569336e-01) (178, 2.74548113346099853516e-01) (179, 4.00813400745391845703e-01) (180, -7.86485821008682250977e-02) (0, 1.53077140450477600098e-01) (1, 1.72549530863761901855e-01) (2, 7.64097645878791809082e-02) (3, 1.65828600525856018066e-01) (4, 1.88706398010253906250e-01) (5, 1.53592243790626525879e-01) (6, 8.94105955958366394043e-02) (7, 1.50942623615264892578e-01) (8, 9.66307297348976135254e-02) (9, 1.03873588144779205322e-01) (10, 1.42674356698989868164e-01) (11, 1.11236304044723510742e-01) (12, 1.74195334315299987793e-01) (13, 6.12440146505832672119e-02) (14, 1.98563903570175170898e-01) (15, 2.28569552302360534668e-01) (16, 1.42259746789932250977e-01) (17, 1.05568222701549530029e-01) (18, 2.41462692618370056152e-01) (19, 1.00017368793487548828e-01) (20, 8.71078893542289733887e-02) (21, 1.02894902229309082031e-01) (22, 1.05804465711116790771e-01) (23, 1.20572715997695922852e-01) (24, 1.21384039521217346191e-01) (25, 2.13064566254615783691e-01) (26, 2.43356645107269287109e-01) (27, 2.03646212816238403320e-01) (28, 2.58786648511886596680e-01) (29, 2.15180724859237670898e-01) (30, 1.72191575169563293457e-01) (31, 1.56713917851448059082e-01) (32, 1.24288327991962432861e-01) (33, 1.86420470476150512695e-01) (34, 5.98219558596611022949e-02) (35, 5.88916502892971038818e-02) (36, 8.49489495158195495605e-02) (37, 9.43053215742111206055e-02) (38, 1.57977893948554992676e-01) (39, 1.31626963615417480469e-01) (40, 1.48956239223480224609e-01) (41, 2.51716643571853637695e-01) (42, 1.92187786102294921875e-01) (43, 7.57472589612007141113e-02) (44, 6.68872967362403869629e-02) (45, 1.44350990653038024902e-01) (46, 2.51775592565536499023e-01) (47, 1.55492335557937622070e-01) (48, 1.95979207754135131836e-01) (49, 2.39295303821563720703e-01) (50, 2.01190084218978881836e-01) (51, 2.29671776294708251953e-01) (52, 8.95451456308364868164e-02) (53, 2.44139835238456726074e-01) (54, 9.20605659484863281250e-02) (55, 1.51975065469741821289e-01) (56, 1.98221653699874877930e-01) (57, 7.56285712122917175293e-02) (58, 8.50886106491088867188e-02) (59, 1.90945386886596679688e-01) (60, 2.25386872887611389160e-01) (61, 1.95712506771087646484e-01) (62, 8.67657512426376342773e-02) (63, 9.74032729864120483398e-02) (64, 1.26627072691917419434e-01) (65, 9.12191942334175109863e-02) (66, 9.99524295330047607422e-02) (67, 1.54907882213592529297e-01) (68, 1.20009772479534149170e-01) (69, 1.93063989281654357910e-01) (70, 2.25926935672760009766e-01) (71, 2.07791909575462341309e-01) (72, 1.82749733328819274902e-01) (73, 1.49595424532890319824e-01) (74, 2.21168667078018188477e-01) (75, 1.85081779956817626953e-01) (76, 2.28597894310951232910e-01) (77, 2.05722540616989135742e-01) (78, 8.10500159859657287598e-02) (79, 1.65687724947929382324e-01) (80, 1.87589257955551147461e-01) (81, 2.15354830026626586914e-01) (82, 1.23311080038547515869e-01) (83, 1.99156776070594787598e-01) (84, 1.85969233512878417969e-01) (85, 1.50447875261306762695e-01) (86, 3.58050204813480377197e-02) (87, 6.56222999095916748047e-02) (88, 1.19042284786701202393e-01) (89, 5.15934005379676818848e-02) (90, 1.86969935894012451172e-01) (91, 6.29644989967346191406e-02) (92, 1.82553663849830627441e-01) (93, 2.10365384817123413086e-01) (94, 1.42707884311676025391e-01) (95, 9.45518538355827331543e-02) (96, 9.61640104651451110840e-02) (97, 1.74690112471580505371e-01) (98, 1.71156987547874450684e-01) (99, 1.45223334431648254395e-01) (100, 1.04176193475723266602e-01) (101, 1.34366318583488464355e-01) (102, 9.85641255974769592285e-02) (103, 2.39450484514236450195e-01) (104, 2.44236484169960021973e-01) (105, 2.69456684589385986328e-01) (106, 1.60550996661186218262e-01) (107, 2.01735049486160278320e-01) (108, 2.04886406660079956055e-01) (109, 1.77324399352073669434e-01) (110, 1.03465646505355834961e-01) (111, 1.27699136734008789062e-01) (112, 1.27739682793617248535e-01) (113, 1.66255980730056762695e-01) (114, 7.98393860459327697754e-02) (115, 2.61702060699462890625e-01) (116, 2.60349124670028686523e-01) (117, 1.04149393737316131592e-01) (118, 1.14208959043025970459e-01) (119, 1.51126176118850708008e-01) (120, 1.45858928561210632324e-01) (121, 9.09311100840568542480e-02) (122, 1.88683032989501953125e-01) (123, 1.02167651057243347168e-01) (124, 7.52163529396057128906e-02) (125, 7.00624883174896240234e-02) (126, 1.34877726435661315918e-01) (127, 9.85452234745025634766e-02) (128, 1.89394265413284301758e-01) (129, 5.57247363030910491943e-02) (130, 1.87953695654869079590e-01) (131, 2.44162604212760925293e-01) (132, 1.40090301632881164551e-01) (133, 2.27909490466117858887e-01) (134, 2.26968780159950256348e-01) (135, 1.21145255863666534424e-01) (136, 2.33311355113983154297e-01) (137, 1.38456150889396667480e-01) (138, 8.22213515639305114746e-02) (139, 1.95153683423995971680e-01) (140, 2.72082239389419555664e-01) (141, 1.31990700960159301758e-01) (142, 2.67639309167861938477e-01) (143, 1.42782285809516906738e-01) (144, 2.41753727197647094727e-01) (145, 8.11524540185928344727e-02) (146, 1.38695910573005676270e-01) (147, 2.35973089933395385742e-01) (148, 1.20641276240348815918e-01) (149, 2.15325608849525451660e-01) (150, 1.50425195693969726562e-01) (151, 2.29665517807006835938e-01) (152, 2.23681107163429260254e-01) (153, 2.69382506608963012695e-01) (154, 2.62665271759033203125e-01) (155, 2.49908730387687683105e-01) (156, 8.49130600690841674805e-02) (157, 1.40446677803993225098e-01) (158, 9.09994989633560180664e-02) (159, 2.19856396317481994629e-01) (160, 1.32040902972221374512e-01) (161, 1.43026366829872131348e-01) (162, 1.26427918672561645508e-01) (163, 1.43630892038345336914e-01) (164, 1.07336349785327911377e-01) (165, 1.09891548752784729004e-01) (166, 2.58696019649505615234e-01) (167, 1.36092975735664367676e-01) (168, 2.20044657588005065918e-01) (169, 6.35925084352493286133e-02) (170, 2.49235674738883972168e-01) (171, 2.22561180591583251953e-01) (172, 1.27494663000106811523e-01) (173, 2.50839471817016601562e-01) (174, 8.51995944976806640625e-02) (175, 8.91049653291702270508e-02) (176, 2.53317385911941528320e-01) (177, 1.45221203565597534180e-01) (178, 2.46908321976661682129e-01) (179, 9.57872495055198669434e-02) (180, -7.79098272323608398438e-02) (0, -1.69949367642402648926e-01) (1, -4.14376892149448394775e-02) (2, -6.65511190891265869141e-02) (3, -1.84062018990516662598e-01) (4, -6.22674860060214996338e-02) (5, -1.00137166678905487061e-01) (6, -1.77264332771301269531e-01) (7, -2.57265884429216384888e-02) (8, -1.12685069441795349121e-01) (9, -6.09587393701076507568e-02) (10, -1.43682792782783508301e-01) (11, -1.51322633028030395508e-01) (12, -1.15428403019905090332e-01) (13, 1.47165410453453660011e-04) (14, -4.39213588833808898926e-02) (15, -2.86519322544336318970e-02) (16, -3.43563640490174293518e-03) (17, -1.73651114106178283691e-01) (18, 8.02621021866798400879e-02) (19, 1.50489136576652526855e-01) (20, -3.30842882394790649414e-02) (21, 2.71966326981782913208e-02) (22, -1.20661854743957519531e-01) (23, 1.24865062534809112549e-02) (24, -9.26403477787971496582e-02) (25, 4.19279299676418304443e-02) (26, 1.46873295307159423828e-01) (27, 1.39987409114837646484e-01) (28, -2.05769225955009460449e-01) (29, -5.20994290709495544434e-02) (30, -1.04802072048187255859e-01) (31, -1.87262877821922302246e-01) (32, -6.97574466466903686523e-02) (33, -1.47218242287635803223e-01) (34, -1.52283355593681335449e-01) (35, -1.49799838662147521973e-01) (36, -6.57188370823860168457e-02) (37, -1.39856427907943725586e-01) (38, -7.33912643045186996460e-03) (39, -3.67266824468970298767e-03) (40, -2.69475746899843215942e-02) (41, 5.66683635115623474121e-02) (42, 4.76436354219913482666e-02) (43, 5.90919367969036102295e-02) (44, 5.39708025753498077393e-02) (45, 2.51468340866267681122e-03) (46, 3.08557283133268356323e-02) (47, 4.96012605726718902588e-02) (48, 2.51646693795919418335e-02) (49, 1.52097731828689575195e-01) (50, 4.22392971813678741455e-02) (51, 3.65816242992877960205e-02) (52, 2.55418438464403152466e-02) (53, 9.02031511068344116211e-02) (54, 2.31107212603092193604e-02) (55, 1.17282480001449584961e-01) (56, 1.61539435386657714844e-01) (57, -1.52333721052855253220e-03) (58, 6.63502365350723266602e-02) (59, -1.88104845583438873291e-02) (60, 1.68500214815139770508e-01) (61, -1.31604531779885292053e-02) (62, 2.63218916952610015869e-02) (63, 9.47573855519294738770e-02) (64, 3.25706377625465393066e-02) (65, 7.43209049105644226074e-02) (66, 1.45874157547950744629e-01) (67, -3.15427184104919433594e-02) (68, 1.33161500096321105957e-01) (69, -1.59370861947536468506e-02) (70, -2.83193308860063552856e-02) (71, 1.06593221426010131836e-01) (72, 3.54533530771732330322e-02) (73, 4.40989248454570770264e-02) (74, -6.06183474883437156677e-03) (75, 1.16562604904174804688e-01) (76, 7.27990195155143737793e-02) (77, 4.98869232833385467529e-02) (78, -6.67642876505851745605e-02) (79, -1.31832078099250793457e-01) (80, -2.11180914193391799927e-02) (81, 1.22241247445344924927e-02) (82, -6.55836910009384155273e-02) (83, 2.68146954476833343506e-02) (84, -3.35740633308887481689e-02) (85, -1.13395333755761384964e-03) (86, -1.29583477973937988281e-02) (87, -6.97481632232666015625e-02) (88, 2.36720740795135498047e-02) (89, 9.94034633040428161621e-02) (90, -3.65614816546440124512e-02) (91, 4.16508503258228302002e-02) (92, 1.00139625370502471924e-01) (93, 4.19249534606933593750e-02) (94, -2.27115470916032791138e-02) (95, -1.14364288747310638428e-02) (96, -5.56802041828632354736e-02) (97, -4.20302450656890869141e-02) (98, 1.22574307024478912354e-02) (99, 1.66031405329704284668e-01) (100, 1.52947269380092620850e-02) (101, 7.60336667299270629883e-02) (102, 1.54496312141418457031e-01) (103, 1.55176877975463867188e-01) (104, 2.22080182284116744995e-02) (105, 2.44837626814842224121e-02) (106, 1.48837700486183166504e-01) (107, 1.19105435907840728760e-01) (108, 1.08632989227771759033e-01) (109, -2.68137045204639434814e-02) (110, 1.37287706136703491211e-01) (111, 2.56425179541110992432e-02) (112, 1.24360695481300354004e-01) (113, 6.99843885377049446106e-03) (114, -8.26913490891456604004e-03) (115, -1.76462102681398391724e-02) (116, 1.19821548461914062500e-01) (117, 8.01688432693481445312e-02) (118, 9.67521779239177703857e-03) (119, 3.62475402653217315674e-02) (120, 5.18262386322021484375e-02) (121, 4.46357987821102142334e-02) (122, 1.52619794011116027832e-01) (123, 3.85015085339546203613e-02) (124, 1.37761875987052917480e-01) (125, -1.86804443597793579102e-01) (126, -8.99156481027603149414e-02) (127, -3.77249419689178466797e-02) (128, -1.59054771065711975098e-01) (129, -2.63762176036834716797e-02) (130, -6.46506473422050476074e-02) (131, -1.16048440337181091309e-01) (132, -1.27784222364425659180e-01) (133, -1.13839305937290191650e-01) (134, -1.63442596793174743652e-01) (135, -1.07695549726486206055e-01) (136, -8.86804461479187011719e-02) (137, -1.85666885226964950562e-02) (138, -1.40535607933998107910e-01) (139, -1.31619319319725036621e-01) (140, 3.68076167069375514984e-03) (141, -1.61809086799621582031e-01) (142, -7.89607837796211242676e-02) (143, -5.04329763352870941162e-02) (144, -1.34310111403465270996e-01) (145, -6.71648457646369934082e-02) (146, -5.48171401023864746094e-02) (147, -4.21971548348665237427e-04) (148, -1.74106910824775695801e-01) (149, 5.22303394973278045654e-03) (150, -1.10551580786705017090e-01) (151, -6.30137473344802856445e-02) (152, -1.19464479386806488037e-01) (153, -1.25446274876594543457e-01) (154, 7.97426793724298477173e-03) (155, -1.48210376501083374023e-01) (156, -9.51923429965972900391e-02) (157, -6.50843381881713867188e-02) (158, 2.70830858498811721802e-02) (159, -4.30552139878273010254e-02) (160, -1.13454557955265045166e-01) (161, -5.51701784133911132812e-02) (162, -1.76541894674301147461e-01) (163, -3.01647037267684936523e-02) (164, -1.62675559520721435547e-01) (165, -1.35888218879699707031e-01) (166, -1.36219114065170288086e-01) (167, -4.40357811748981475830e-02) (168, -1.47131890058517456055e-01) (169, -7.06608146429061889648e-02) (170, 9.32494457811117172241e-03) (171, 6.01184628903865814209e-02) (172, 1.71398982405662536621e-01) (173, 1.36638700962066650391e-01) (174, 1.95805951952934265137e-01) (175, 2.23205432295799255371e-01) (176, 5.60441091656684875488e-02) (177, 1.34362548589706420898e-01) (178, 2.21757292747497558594e-01) (179, 8.62681567668914794922e-02) (180, -3.47649335861206054688e+00) (0, -3.78533080220222473145e-02) (1, 7.44292810559272766113e-02) (2, 4.56267856061458587646e-02) (3, 5.82637870684266090393e-03) (4, 5.13005964457988739014e-02) (5, 6.65423721075057983398e-02) (6, 7.88659676909446716309e-02) (7, 1.55073381029069423676e-03) (8, 1.08730293810367584229e-01) (9, 4.50235698372125625610e-03) (10, 9.57084745168685913086e-02) (11, 5.80829158425331115723e-02) (12, 7.90577903389930725098e-02) (13, 6.48696497082710266113e-02) (14, 9.80385020375251770020e-02) (15, 8.43173637986183166504e-02) (16, 6.53580129146575927734e-02) (17, -2.23604105412960052490e-02) (18, 1.27711936831474304199e-01) (19, -1.32140796631574630737e-02) (20, -1.60176642239093780518e-02) (21, -4.07161414623260498047e-02) (22, 1.33267074823379516602e-01) (23, 8.40142443776130676270e-02) (24, 1.18143945932388305664e-01) (25, 1.12732090055942535400e-01) (26, 1.03723742067813873291e-01) (27, 2.71458532661199569702e-02) (28, 1.56998291611671447754e-01) (29, 1.35570438578724861145e-02) (30, 1.53763905167579650879e-01) (31, -1.39316811691969633102e-03) (32, 1.65084764361381530762e-01) (33, 7.67155289649963378906e-02) (34, 8.52163285017013549805e-02) (35, 9.86880436539649963379e-02) (36, 2.49921530485153198242e-02) (37, 4.00196909904479980469e-02) (38, 1.24798730015754699707e-01) (39, 1.01576760411262512207e-01) (40, 6.05411157011985778809e-02) (41, -1.73805635422468185425e-02) (42, -2.35809627920389175415e-02) (43, -4.42071296274662017822e-02) (44, 5.96488714218139648438e-02) (45, 7.95043632388114929199e-02) (46, 1.04826942086219787598e-01) (47, -1.22172385454177856445e-02) (48, -7.92421400547027587891e-02) (49, 9.29422900080680847168e-02) (50, 3.65427322685718536377e-02) (51, -3.47811914980411529541e-02) (52, 1.19267188012599945068e-01) (53, 3.14263738691806793213e-02) (54, 1.18178218603134155273e-01) (55, 1.00361309945583343506e-01) (56, 1.02921212092041969299e-02) (57, 8.71697217226028442383e-02) (58, -1.73070635646581649780e-02) (59, -2.88615245372056961060e-02) (60, 1.05505280196666717529e-01) (61, -6.34357482194900512695e-02) (62, -3.02943568676710128784e-02) (63, 7.20730051398277282715e-02) (64, 2.01248563826084136963e-02) (65, 5.81623055040836334229e-02) (66, -2.59959567338228225708e-02) (67, 4.82394173741340637207e-02) (68, 1.05283178389072418213e-01) (69, 1.10164642333984375000e-01) (70, 1.59524828195571899414e-02) (71, 3.07773221284151077271e-02) (72, -3.99246998131275177002e-02) (73, 6.85176029801368713379e-02) (74, 6.50849789381027221680e-02) (75, 9.76201593875885009766e-02) (76, 2.29687262326478958130e-02) (77, 4.66414764523506164551e-02) (78, -3.98935787379741668701e-02) (79, 1.64888855069875717163e-02) (80, 6.27725943922996520996e-02) (81, 1.25050202012062072754e-01) (82, 1.17981098592281341553e-01) (83, 6.73927441239356994629e-02) (84, 3.96411754190921783447e-02) (85, 1.14237830042839050293e-01) (86, 4.58778068423271179199e-02) (87, 6.66503459215164184570e-02) (88, 1.86687894165515899658e-02) (89, 6.76849484443664550781e-02) (90, -5.84502555429935455322e-02) (91, 3.00796721130609512329e-02) (92, 9.01822075247764587402e-02) (93, -3.03328433074057102203e-03) (94, -1.09319603070616722107e-02) (95, -1.44286416471004486084e-02) (96, -6.81599900126457214355e-02) (97, 5.10025396943092346191e-02) (98, 1.41575947403907775879e-01) (99, 1.38765215873718261719e-01) (100, 5.35485185682773590088e-02) (101, 4.21658977866172790527e-02) (102, 5.13675250113010406494e-02) (103, 8.89856740832328796387e-02) (104, -1.93977411836385726929e-02) (105, -9.21925995498895645142e-03) (106, 6.22327700257301330566e-02) (107, 7.08279907703399658203e-02) (108, 1.04993805289268493652e-01) (109, 9.46648716926574707031e-02) (110, -2.96039599925279617310e-02) (111, 1.20291532948613166809e-03) (112, 5.31507916748523712158e-02) (113, 1.18144005537033081055e-01) (114, 9.38617363572120666504e-02) (115, 1.21298633515834808350e-01) (116, 6.33856579661369323730e-02) (117, -3.25015820562839508057e-02) (118, 8.34578126668930053711e-02) (119, -1.81507654488086700439e-02) (120, 1.08392521739006042480e-01) (121, 9.64117422699928283691e-02) (122, 8.20524767041206359863e-02) (123, 6.79579451680183410645e-02) (124, -3.96384708583354949951e-02) (125, 1.35521396994590759277e-01) (126, 1.27920180559158325195e-01) (127, -3.37816961109638214111e-02) (128, 5.59510476887226104736e-02) (129, 1.28317654132843017578e-01) (130, -3.26132662594318389893e-02) (131, -3.94831821322441101074e-02) (132, 1.33329480886459350586e-02) (133, 6.75295144319534301758e-02) (134, 9.94954854249954223633e-02) (135, 5.18158972263336181641e-02) (136, 9.61027443408966064453e-02) (137, -1.44406477920711040497e-03) (138, -3.04870549589395523071e-02) (139, 8.69242176413536071777e-02) (140, -2.01522186398506164551e-02) (141, 2.81508993357419967651e-02) (142, -4.21880632638931274414e-02) (143, 1.02684006094932556152e-01) (144, 1.70977897942066192627e-02) (145, 1.35803803801536560059e-01) (146, 1.10668092966079711914e-01) (147, -3.15534174442291259766e-02) (148, -1.86892133206129074097e-02) (149, 7.21467137336730957031e-02) (150, 2.64815930277109146118e-02) (151, -3.82272861897945404053e-02) (152, 3.36553789675235748291e-02) (153, -2.94990167021751403809e-02) (154, 9.49090495705604553223e-02) (155, 6.05180896818637847900e-02) (156, -2.29027699679136276245e-02) (157, 9.12807285785675048828e-02) (158, 9.58912596106529235840e-02) (159, 9.09006893634796142578e-02) (160, 8.58771279454231262207e-02) (161, 1.44138962030410766602e-01) (162, 1.31834477186203002930e-01) (163, 1.81304290890693664551e-01) (164, 7.92016535997390747070e-02) (165, 9.88628938794136047363e-02) (166, 1.01951159536838531494e-01) (167, 5.61547204852104187012e-02) (168, 1.79780781269073486328e-01) (169, 1.53826028108596801758e-01) (170, 1.73562150448560714722e-02) (171, -1.01097915321588516235e-02) (172, 1.22383544221520423889e-02) (173, 3.09011852368712425232e-03) (174, -3.56633551418781280518e-02) (175, 1.01099886000156402588e-01) (176, -2.66904104501008987427e-03) (177, 1.30818992853164672852e-01) (178, 1.23854249715805053711e-01) (179, 2.88321934640407562256e-02) (180, 3.34601461887359619141e-01) (0, 3.12896311283111572266e-01) (1, 3.53167444467544555664e-01) (2, 4.42882657051086425781e-01) (3, 3.24738979339599609375e-01) (4, 2.85976380109786987305e-01) (5, 3.41646492481231689453e-01) (6, 3.35033118724822998047e-01) (7, 4.20111596584320068359e-01) (8, 2.80161648988723754883e-01) (9, 4.69113051891326904297e-01) (10, 1.88295707106590270996e-01) (11, 2.36738473176956176758e-01) (12, 2.11923301219940185547e-01) (13, 1.12208515405654907227e-01) (14, 1.12518422305583953857e-01) (15, 6.88862353563308715820e-02) (16, 1.81353002786636352539e-01) (17, 1.42295345664024353027e-01) (18, 6.08375258743762969971e-02) (19, 1.48393675684928894043e-01) (20, 1.72571942210197448730e-01) (21, 1.06924213469028472900e-01) (22, 2.24126249551773071289e-01) (23, 4.37341742217540740967e-02) (24, 1.40090331435203552246e-01) (25, 1.87076181173324584961e-01) (26, 9.97648537158966064453e-02) (27, 1.26795694231986999512e-01) (28, 3.96679818630218505859e-01) (29, 4.14631843566894531250e-01) (30, 2.63036489486694335938e-01) (31, 4.48680192232131958008e-01) (32, 2.99786269664764404297e-01) (33, 2.06478983163833618164e-01) (34, 6.50229007005691528320e-02) (35, 8.32695439457893371582e-02) (36, 7.49705433845520019531e-02) (37, 1.28936216235160827637e-01) (38, 2.07499619573354721069e-02) (39, 9.37761515378952026367e-02) (40, 1.41311198472976684570e-01) (41, 9.54846367239952087402e-02) (42, 5.43391369283199310303e-02) (43, 7.79409110546112060547e-02) (44, 1.43792986869812011719e-01) (45, 1.09981209039688110352e-01) (46, 1.41977250576019287109e-01) (47, 1.19185633957386016846e-01) (48, 2.40187913179397583008e-01) (49, 1.87046289443969726562e-01) (50, 5.46780265867710113525e-02) (51, 1.99359580874443054199e-01) (52, 1.35529682040214538574e-01) (53, 1.10482677817344665527e-01) (54, 2.68459558486938476562e-01) (55, 2.40146547555923461914e-01) (56, 2.65808939933776855469e-01) (57, 1.42513647675514221191e-01) (58, 1.48894831538200378418e-01) (59, 2.13827937841415405273e-01) (60, 3.02195221185684204102e-01) (61, 9.31063368916511535645e-02) (62, 1.41880959272384643555e-01) (63, 8.81450548768043518066e-02) (64, 7.45464488863945007324e-02) (65, 1.97769165039062500000e-01) (66, 1.59750923514366149902e-01) (67, 1.39248490333557128906e-01) (68, 1.15097858011722564697e-01) (69, 1.72026619315147399902e-01) (70, 1.82872250676155090332e-01) (71, 2.09935292601585388184e-01) (72, 2.27046892046928405762e-01) (73, 2.16369330883026123047e-01) (74, 2.18276485800743103027e-01) (75, 2.94794559478759765625e-01) (76, 2.41601988673210144043e-01) (77, 3.19546848535537719727e-01) (78, 4.30699229240417480469e-01) (79, 3.04628968238830566406e-01) (80, 3.26643824577331542969e-01) (81, 4.46392089128494262695e-01) (82, 4.48586881160736083984e-01) (83, 3.51679652929306030273e-01) (84, 4.21690821647644042969e-01) (85, 4.23670202493667602539e-01) (86, 3.09374600648880004883e-01) (87, 4.27490442991256713867e-01) (88, 4.52634334564208984375e-01) (89, 3.02154183387756347656e-01) (90, 2.81550586223602294922e-01) (91, 4.20207798480987548828e-01) (92, 3.50637644529342651367e-01) (93, 3.60730171203613281250e-01) (94, 2.36340373754501342773e-01) (95, 3.36360096931457519531e-01) (96, 2.74140834808349609375e-01) (97, 3.12510550022125244141e-01) (98, 2.19243034720420837402e-01) (99, 3.48466604948043823242e-01) (100, 2.56950885057449340820e-01) (101, 3.80833655595779418945e-01) (102, 3.26239705085754394531e-01) (103, 2.43147909641265869141e-01) (104, 3.52821886539459228516e-01) (105, 3.51857036352157592773e-01) (106, 3.58242392539978027344e-01) (107, 4.42942500114440917969e-01) (108, 3.15737515687942504883e-01) (109, 3.56764882802963256836e-01) (110, 2.76598483324050903320e-01) (111, 3.68477404117584228516e-01) (112, 3.34766715764999389648e-01) (113, 4.66801434755325317383e-01) (114, 4.59093362092971801758e-01) (115, 3.19769144058227539062e-01) (116, 4.24193322658538818359e-01) (117, 2.87077248096466064453e-01) (118, 2.64628916978836059570e-01) (119, 4.47401255369186401367e-01) (120, 3.89486461877822875977e-01) (121, 3.55328679084777832031e-01) (122, 4.48056131601333618164e-01) (123, 3.11555415391921997070e-01) (124, 4.98260796070098876953e-01) (125, 4.65403378009796142578e-01) (126, 4.35356378555297851562e-01) (127, 3.63265842199325561523e-01) (128, 3.78311514854431152344e-01) (129, 4.38244372606277465820e-01) (130, 4.84513312578201293945e-01) (131, 4.06200170516967773438e-01) (132, 3.89294445514678955078e-01) (133, 3.83195042610168457031e-01) (134, 4.26081836223602294922e-01) (135, 3.20104479789733886719e-01) (136, 5.03833055496215820312e-01) (137, 3.33651423454284667969e-01) (138, 4.79792594909667968750e-01) (139, 3.41318517923355102539e-01) (140, 4.18180286884307861328e-01) (141, 4.84241187572479248047e-01) (142, 4.40590858459472656250e-01) (143, 4.86732661724090576172e-01) (144, 4.85870003700256347656e-01) (145, 4.35176551342010498047e-01) (146, 6.16565823554992675781e-01) (147, 7.19894468784332275391e-01) (148, 7.33296871185302734375e-01) (149, -3.03865528106689453125e+00) (150, -2.98394536972045898438e+00) (151, -3.03334856033325195312e+00) (152, -2.98319101333618164062e+00) (153, -3.04170513153076171875e+00) (154, -3.02854633331298828125e+00) (155, -2.99091434478759765625e+00) (156, -2.87362670898437500000e+00) (157, -2.88930368423461914062e+00) (158, -2.92234277725219726562e+00) (159, -2.99653911590576171875e+00) (160, 7.02284991741180419922e-01) (161, 8.15654039382934570312e-01) (162, 8.62551689147949218750e-01) (163, 8.89812648296356201172e-01) (164, 8.92928898334503173828e-01) (165, 7.47348189353942871094e-01) (166, 8.63611042499542236328e-01) (167, 7.76178300380706787109e-01) (168, 6.87625110149383544922e-01) (169, 7.49018251895904541016e-01) (170, 6.00937068462371826172e-01) (171, -4.34748440980911254883e-01) (172, -3.08571398258209228516e-01) (173, -3.00622045993804931641e-01) (174, -2.68520414829254150391e-01) (175, -3.44173192977905273438e-01) (176, -3.87529462575912475586e-01) (177, -2.47959882020950317383e-01) (178, -4.20285969972610473633e-01) (179, -2.50641137361526489258e-01) (180, 1.01416993141174316406e+00) (0, -2.47728778049349784851e-04) (1, -7.92435929179191589355e-02) (2, -6.81982899550348520279e-04) (3, 2.31891330331563949585e-02) (4, -4.26479019224643707275e-02) (5, 7.79000222682952880859e-02) (6, 1.20113007724285125732e-02) (7, -5.49809299409389495850e-02) (8, 2.97006163746118545532e-02) (9, 8.96156728267669677734e-02) (10, 4.04782444238662719727e-02) (11, -6.10774196684360504150e-02) (12, 4.46952022612094879150e-02) (13, 3.57075706124305725098e-02) (14, -6.19361735880374908447e-02) (15, -7.42751583456993103027e-02) (16, 3.36189940571784973145e-02) (17, -8.98451581597328186035e-02) (18, 9.62965004146099090576e-03) (19, -2.07250230014324188232e-02) (20, -7.59056881070137023926e-02) (21, 1.15585913881659507751e-02) (22, -9.86315160989761352539e-02) (23, 6.49825260043144226074e-02) (24, -1.52883380651473999023e-02) (25, 4.92689851671457290649e-03) (26, -8.56609866023063659668e-02) (27, -3.83312404155731201172e-02) (28, 2.57952772080898284912e-02) (29, -9.51493903994560241699e-02) (30, -7.61192338541150093079e-03) (31, -7.68071636557579040527e-02) (32, -6.23739026486873626709e-02) (33, 8.82909521460533142090e-02) (34, 4.55738715827465057373e-02) (35, -2.07583922892808914185e-02) (36, 6.16643913090229034424e-02) (37, -5.07769994437694549561e-02) (38, 1.71785487327724695206e-03) (39, -4.79430407285690307617e-02) (40, -1.00009530782699584961e-01) (41, -8.93300920724868774414e-02) (42, -2.56013609468936920166e-02) (43, 2.32359636574983596802e-02) (44, 3.17798256874084472656e-02) (45, 5.48648182302713394165e-04) (46, 4.25236374139785766602e-02) (47, -4.10743728280067443848e-02) (48, 2.01336555182933807373e-02) (49, -3.94410640001296997070e-02) (50, 4.57778908312320709229e-02) (51, 5.22661209106445312500e-02) (52, -1.17456942796707153320e-01) (53, 6.31593912839889526367e-02) (54, 2.14191898703575134277e-02) (55, -3.51569801568984985352e-02) (56, -3.44069935381412506104e-02) (57, 3.35568301379680633545e-02) (58, 4.06256690621376037598e-02) (59, -1.09711021184921264648e-01) (60, 3.85573096573352813721e-02) (61, -6.79132118821144104004e-02) (62, -8.79731252789497375488e-02) (63, -1.40188515186309814453e-01) (64, -7.78577402234077453613e-02) (65, 5.62303401529788970947e-02) (66, -6.17646537721157073975e-02) (67, -1.17227539420127868652e-01) (68, -9.43447276949882507324e-02) (69, 4.10694219172000885010e-02) (70, 1.37119991704821586609e-02) (71, -1.57661642879247665405e-02) (72, -6.22925795614719390869e-02) (73, 1.19756467640399932861e-01) (74, -5.50057627260684967041e-02) (75, 1.44583925604820251465e-01) (76, 9.25782695412635803223e-02) (77, 1.60778567194938659668e-01) (78, 3.73809598386287689209e-02) (79, 4.16509509086608886719e-02) (80, 4.97751347720623016357e-02) (81, 1.32164182141423225403e-02) (82, 2.57172062993049621582e-02) (83, 7.42302238941192626953e-02) (84, 1.26617792993783950806e-02) (85, -8.56364145874977111816e-03) (86, -2.37271804362535476685e-02) (87, 1.21607743203639984131e-01) (88, 1.60061180591583251953e-01) (89, 1.58631294965744018555e-01) (90, 1.54902040958404541016e-01) (91, 1.41705676913261413574e-01) (92, 2.62051559984683990479e-02) (93, 4.23660647356882691383e-04) (94, 1.39672070741653442383e-01) (95, 8.39893743395805358887e-02) (96, -6.98380498215556144714e-03) (97, 2.26256698369979858398e-02) (98, 1.21345572173595428467e-01) (99, 3.24451252818107604980e-02) (100, -4.92891669273376464844e-03) (101, 2.23825406283140182495e-03) (102, 9.63127762079238891602e-02) (103, 4.99562732875347137451e-03) (104, -1.11248381435871124268e-02) (105, 1.17113180458545684814e-01) (106, -8.49502533674240112305e-03) (107, 1.26065880060195922852e-01) (108, 1.20973616838455200195e-01) (109, 6.82682543992996215820e-02) (110, 8.96856840699911117554e-03) (111, 9.49105527251958847046e-03) (112, 1.20386801660060882568e-01) (113, 7.46876746416091918945e-02) (114, 1.13470666110515594482e-01) (115, -2.84514818340539932251e-02) (116, 1.03683486580848693848e-01) (117, 1.28068789839744567871e-01) (118, 1.30870670080184936523e-01) (119, 1.03489264845848083496e-01) (120, 1.18579663336277008057e-01) (121, 1.16299808025360107422e-01) (122, 7.84265026450157165527e-02) (123, -1.65507309138774871826e-02) (124, -4.19558398425579071045e-02) (125, 6.12220317125320434570e-02) (126, 1.17036379873752593994e-01) (127, 1.05485040694475173950e-03) (128, 1.25285327434539794922e-01) (129, 7.32168033719062805176e-02) (130, 9.08240452408790588379e-02) (131, -3.04799731820821762085e-02) (132, 1.22520670294761657715e-01) (133, 4.34265173971652984619e-02) (134, 3.23427654802799224854e-02) (135, -2.99613736569881439209e-02) (136, 1.84494648128747940063e-02) (137, 7.67059400677680969238e-02) (138, -5.44929131865501403809e-02) (139, -1.20018636807799339294e-02) (140, -5.98590029403567314148e-03) (141, 3.27594438567757606506e-03) (142, 4.84244562685489654541e-02) (143, -3.45916524529457092285e-02) (144, 1.30919173359870910645e-01) (145, 1.41639830544590950012e-02) (146, -1.26753272488713264465e-02) (147, 8.24525132775306701660e-02) (148, -1.02309416979551315308e-02) (149, -2.06077955663204193115e-02) (150, 4.80807684361934661865e-02) (151, -2.76318415999412536621e-02) (152, 1.45559877157211303711e-01) (153, -2.11608223617076873779e-02) (154, 8.14948510378599166870e-03) (155, 1.56003415584564208984e-01) (156, 9.22204330563545227051e-02) (157, -2.45023928582668304443e-02) (158, 8.30990727990865707397e-03) (159, 6.79816231131553649902e-02) (160, 8.76046717166900634766e-02) (161, 1.40480756759643554688e-01) (162, 8.17926302552223205566e-02) (163, 6.69477060437202453613e-02) (164, 3.87542545795440673828e-02) (165, -3.19551154971122741699e-02) (166, 9.05933901667594909668e-02) (167, 1.02151058614253997803e-01) (168, 9.12350639700889587402e-02) (169, 8.31174775958061218262e-02) (170, -5.32063432037830352783e-02) (171, 1.10748723149299621582e-01) (172, 1.11893586814403533936e-01) (173, 1.86834968626499176025e-02) (174, -6.92320391535758972168e-02) (175, 9.67882871627807617188e-02) (176, 8.65956395864486694336e-02) (177, -2.87630762904882431030e-02) (178, 3.23846451938152313232e-02) (179, -7.03277364373207092285e-02) (180, 9.70248505473136901855e-02) (0, 1.73244789242744445801e-01) (1, 1.95198670029640197754e-01) (2, 2.27767571806907653809e-01) (3, 1.90885141491889953613e-01) (4, 2.41607651114463806152e-01) (5, 2.22028270363807678223e-01) (6, 3.22148144245147705078e-01) (7, 2.57356584072113037109e-01) (8, 2.70589739084243774414e-01) (9, 2.31479212641716003418e-01) (10, 2.44929313659667968750e-01) (11, 3.17580759525299072266e-01) (12, 4.20100003480911254883e-01) (13, 3.72099786996841430664e-01) (14, 4.07114833593368530273e-01) (15, 1.83161959052085876465e-01) (16, 2.57680237293243408203e-01) (17, 3.12600940465927124023e-01) (18, 3.33396941423416137695e-01) (19, 2.01006084680557250977e-01) (20, 3.18866729736328125000e-01) (21, 3.34762811660766601562e-01) (22, 1.57683014869689941406e-01) (23, 1.03441067039966583252e-01) (24, 2.29765743017196655273e-01) (25, 6.10078014433383941650e-02) (26, 7.33346194028854370117e-02) (27, 1.78559452295303344727e-01) (28, 4.74006026983261108398e-01) (29, 2.93759733438491821289e-01) (30, 3.30036461353302001953e-01) (31, 3.51092338562011718750e-01) (32, 2.83602118492126464844e-01) (33, 3.79140168428421020508e-01) (34, 3.83595168590545654297e-01) (35, 3.62277567386627197266e-01) (36, 2.24715724587440490723e-01) (37, 3.08478087186813354492e-01) (38, 2.21182554960250854492e-01) (39, 3.13907712697982788086e-01) (40, 3.59010249376296997070e-01) (41, 2.40389496088027954102e-01) (42, 2.02669039368629455566e-01) (43, 3.52156341075897216797e-01) (44, 1.84862062335014343262e-01) (45, 3.77381861209869384766e-01) (46, 3.53104144334793090820e-01) (47, 2.55050420761108398438e-01) (48, 3.03980529308319091797e-01) (49, 3.29106301069259643555e-01) (50, 2.96847760677337646484e-01) (51, 2.66895055770874023438e-01) (52, 2.28961691260337829590e-01) (53, 2.70726650953292846680e-01) (54, -1.90493166446685791016e-01) (55, -2.67611414194107055664e-01) (56, -2.01775357127189636230e-01) (57, -1.82945147156715393066e-01) (58, -2.30783328413963317871e-01) (59, -2.81300753355026245117e-01) (60, -1.26671358942985534668e-01) (61, -2.52334386110305786133e-01) (62, -2.60848253965377807617e-01) (63, -2.15117797255516052246e-01) (64, -7.86849260330200195312e-02) (65, -9.56174656748771667480e-02) (66, -2.64155268669128417969e-01) (67, -2.42976069450378417969e-01) (68, -1.76642924547195434570e-01) (69, -2.32704564929008483887e-01) (70, -1.19854979217052459717e-01) (71, -2.06159234046936035156e-01) (72, -1.76951095461845397949e-01) (73, -9.32688266038894653320e-02) (74, -2.27849110960960388184e-01) (75, -1.64401710033416748047e-01) (76, -8.47602263092994689941e-02) (77, -2.40124538540840148926e-01) (78, -9.45520326495170593262e-02) (79, -3.72197866439819335938e-01) (80, -3.22958737611770629883e-01) (81, -3.75014394521713256836e-01) (82, -2.54062384366989135742e-01) (83, -3.91099125146865844727e-01) (84, -4.18957263231277465820e-01) (85, -3.58538538217544555664e-01) (86, -3.54926168918609619141e-01) (87, -2.29821056127548217773e-01) (88, -3.59799414873123168945e-01) (89, -3.60077917575836181641e-01) (90, -3.38536322116851806641e-01) (91, -3.24932724237442016602e-01) (92, -3.24478924274444580078e-01) (93, -3.07179063558578491211e-01) (94, -3.10571819543838500977e-01) (95, -3.95365357398986816406e-01) (96, -3.80100518465042114258e-01) (97, -9.09878388047218322754e-02) (98, -2.95049250125885009766e-01) (99, 7.71123394370079040527e-02) (100, -8.48517268896102905273e-02) (101, -2.11023777723312377930e-01) (102, -9.72217023372650146484e-02) (103, -5.53712956607341766357e-02) (104, -1.01526632905006408691e-01) (105, -6.99320286512374877930e-02) (106, 1.35908618569374084473e-01) (107, 1.63774117827415466309e-01) (108, 4.42365407943725585938e-02) (109, 1.19582220911979675293e-01) (110, 8.26269239187240600586e-02) (111, 5.47957094386219978333e-03) (112, 2.22066454589366912842e-02) (113, 7.84053206443786621094e-02) (114, 6.38756230473518371582e-02) (115, 5.91500438749790191650e-02) (116, -2.69272527657449245453e-03) (117, -1.06848077848553657532e-02) (118, 3.35637368261814117432e-02) (119, 5.93452714383602142334e-02) (120, 1.82641558349132537842e-02) (121, 8.86401236057281494141e-02) (122, 1.24246619641780853271e-01) (123, 8.56806039810180664062e-02) (124, 1.76778838038444519043e-01) (125, 2.58083790540695190430e-01) (126, 1.56091913580894470215e-01) (127, 2.28286132216453552246e-01) (128, -8.31972900778055191040e-03) (129, 4.51021082699298858643e-02) (130, -2.16397959738969802856e-02) (131, -3.60390692949295043945e-02) (132, 8.32742676138877868652e-02) (133, -1.84421222656965255737e-02) (134, 1.26929804682731628418e-02) (135, 9.52055975794792175293e-02) (136, 2.88819391280412673950e-02) (137, -3.48330512642860412598e-02) (138, 8.00648480653762817383e-02) (139, 9.01528596878051757812e-02) (140, 1.03592999279499053955e-01) (141, -2.09331251680850982666e-02) (142, 1.09684087336063385010e-01) (143, -6.28811568021774291992e-02) (144, 6.64720609784126281738e-02) (145, -1.69332083314657211304e-02) (146, 7.41167552769184112549e-03) (147, 7.67987146973609924316e-02) (148, -1.02189658209681510925e-02) (149, 1.04242265224456787109e-01) (150, 9.91170015186071395874e-03) (151, 8.26617926359176635742e-02) (152, 2.75645665824413299561e-02) (153, -3.15437912940979003906e-02) (154, 9.03360638767480850220e-03) (155, 2.79828272759914398193e-02) (156, 4.99160178005695343018e-02) (157, -1.49401575326919555664e-02) (158, 7.56016001105308532715e-02) (159, 6.36112987995147705078e-02) (160, -7.28059560060501098633e-02) (161, -2.63019893318414688110e-02) (162, 1.55266717076301574707e-01) (163, 8.33436697721481323242e-02) (164, 2.78387740254402160645e-02) (165, 3.34834232926368713379e-02) (166, 4.43934909999370574951e-02) (167, -7.50495046377182006836e-02) (168, -1.24230712652206420898e-01) (169, -1.98193132877349853516e-01) (170, -1.09850533306598663330e-01) (171, 6.60113543272018432617e-02) (172, 6.63029477000236511230e-02) (173, 8.61540958285331726074e-02) (174, 7.99601376056671142578e-02) (175, 1.04655157774686813354e-02) (176, 1.48415923118591308594e-01) (177, -3.19256819784641265869e-02) (178, -2.89258304983377456665e-02) (179, 2.19688005745410919189e-02) (180, 4.13534268736839294434e-02) (0, -2.85917539149522781372e-02) (1, 1.08868360519409179688e-01) (2, -4.66863065958023071289e-02) (3, 3.80994239822030067444e-03) (4, -2.27302890270948410034e-02) (5, 5.50559833645820617676e-02) (6, -6.47978112101554870605e-02) (7, 5.04371374845504760742e-02) (8, 3.77512462437152862549e-02) (9, 1.11493535339832305908e-01) (10, 3.54203879833221435547e-02) (11, 6.66826367378234863281e-02) (12, 1.18894621729850769043e-01) (13, -3.65141928195953369141e-02) (14, -6.02865144610404968262e-02) (15, -3.34666692651808261871e-03) (16, 5.29677271842956542969e-02) (17, 1.06372728943824768066e-01) (18, 1.19650289416313171387e-01) (19, 1.02250754833221435547e-01) (20, 4.32544648647308349609e-02) (21, 2.34310235828161239624e-02) (22, 8.05977918207645416260e-03) (23, -4.32515554130077362061e-02) (24, -7.26093947887420654297e-02) (25, 3.92625480890274047852e-02) (26, -6.26067966222763061523e-02) (27, -6.02509491145610809326e-02) (28, 5.56010492146015167236e-02) (29, 4.62606456130743026733e-03) (30, 9.06286612153053283691e-02) (31, 1.13003842532634735107e-01) (32, -6.14057155326008796692e-03) (33, 1.24614335596561431885e-01) (34, -5.94771059695631265640e-04) (35, 5.16027472913265228271e-02) (36, 5.96332699060440063477e-02) (37, 1.13944448530673980713e-02) (38, -2.09790617227554321289e-02) (39, -3.69372107088565826416e-02) (40, -1.14105576649308204651e-02) (41, 7.40925520658493041992e-02) (42, 9.95669737458229064941e-02) (43, -2.18369998037815093994e-02) (44, 1.06494031846523284912e-01) (45, 1.02405525743961334229e-01) (46, 4.37287278473377227783e-02) (47, 2.73086130619049072266e-02) (48, 7.88756832480430603027e-02) (49, 3.37514765560626983643e-02) (50, 3.15950391814112663269e-03) (51, -6.12474372610449790955e-03) (52, -7.83206447958946228027e-02) (53, 7.02825412154197692871e-02) (54, 2.42956019937992095947e-02) (55, -7.29377418756484985352e-02) (56, -1.25850429758429527283e-02) (57, 3.95246557891368865967e-02) (58, -6.64092376828193664551e-02) (59, -8.61741900444030761719e-02) (60, -8.44752937555313110352e-02) (61, 9.49867218732833862305e-02) (62, 9.38231348991394042969e-02) (63, -2.24400702863931655884e-02) (64, 9.00389924645423889160e-02) (65, -3.84108498692512512207e-02) (66, 9.48622077703475952148e-02) (67, 1.65651943534612655640e-02) (68, 4.09864485263824462891e-02) (69, -5.70181496441364288330e-02) (70, 6.39816820621490478516e-02) (71, 1.19529917836189270020e-01) (72, 1.07581920921802520752e-01) (73, 5.31521253287792205811e-02) (74, -1.65752600878477096558e-02) (75, 1.00645869970321655273e-01) (76, 5.68989254534244537354e-02) (77, 1.28058269619941711426e-01) (78, 2.70188786089420318604e-02) (79, 2.16905158013105392456e-02) (80, 4.85680252313613891602e-02) (81, 1.18342190980911254883e-01) (82, 1.13729208707809448242e-01) (83, 7.71233588457107543945e-02) (84, 8.96325111389160156250e-02) (85, 4.10158112645149230957e-02) (86, 1.04901336133480072021e-01) (87, -1.34004289284348487854e-02) (88, -2.24752929061651229858e-02) (89, 1.36362358927726745605e-01) (90, -8.53090267628431320190e-03) (91, -9.62800718843936920166e-03) (92, 1.30949482321739196777e-01) (93, -1.72629728913307189941e-02) (94, 6.21372461318969726562e-02) (95, 9.66248810291290283203e-02) (96, 2.48620174825191497803e-02) (97, 4.31142635643482208252e-02) (98, 2.30458732694387435913e-02) (99, -4.14660312235355377197e-02) (100, 8.91249179840087890625e-02) (101, -2.36588381230831146240e-02) (102, -3.08406464755535125732e-02) (103, 6.95496574044227600098e-02) (104, 9.86290648579597473145e-02) (105, 2.66520008444786071777e-02) (106, -1.47614432498812675476e-02) (107, -5.44674769043922424316e-02) (108, -5.47664240002632141113e-02) (109, 6.67651668190956115723e-02) (110, -2.51905713230371475220e-02) (111, 6.03141495957970619202e-04) (112, -8.79323296248912811279e-03) (113, -4.85782623291015625000e-02) (114, -6.51981309056282043457e-02) (115, -5.54441735148429870605e-02) (116, -1.48619264364242553711e-01) (117, -1.02231517434120178223e-01) (118, -1.31923798471689224243e-02) (119, -1.10907979309558868408e-01) (120, -1.07776977121829986572e-01) (121, -1.64088085293769836426e-01) (122, -6.37865439057350158691e-02) (123, -8.09317529201507568359e-02) (124, -8.41564238071441650391e-02) (125, -9.95364189147949218750e-02) (126, -1.12441763281822204590e-01) (127, 8.27158242464065551758e-03) (128, -5.35558152478188276291e-04) (129, -4.55484800040721893311e-02) (130, 2.29695774614810943604e-02) (131, -7.55745023488998413086e-02) (132, -3.06303557008504867554e-02) (133, 3.66569273173809051514e-02) (134, 4.39171195030212402344e-02) (135, -8.05096849799156188965e-02) (136, -8.55384916067123413086e-02) (137, -6.07126057147979736328e-02) (138, -1.06159178540110588074e-02) (139, -1.85144189745187759399e-02) (140, -7.31484219431877136230e-02) (141, -5.26414811611175537109e-02) (142, -5.96763147041201591492e-03) (143, -6.94769546389579772949e-02) (144, -8.66977572441101074219e-02) (145, -8.06080773472785949707e-02) (146, 6.61076381802558898926e-02) (147, -4.62774932384490966797e-02) (148, 7.93947950005531311035e-02) (149, 1.20012767612934112549e-01) (150, 1.07110865414142608643e-01) (151, 1.59709602594375610352e-01) (152, 1.37541145086288452148e-01) (153, 2.47103255242109298706e-02) (154, 1.60013213753700256348e-02) (155, -9.39164683222770690918e-03) (156, 5.72396405041217803955e-02) (157, 3.60586643218994140625e-02) (158, 1.32202908396720886230e-01) (159, -9.91726014763116836548e-03) (160, 1.23524136841297149658e-01) (161, 9.17362421751022338867e-02) (162, 5.46543635427951812744e-02) (163, 3.59152741730213165283e-02) (164, 6.67015835642814636230e-02) (165, 3.59405465424060821533e-02) (166, 9.30052623152732849121e-02) (167, 1.24872840940952301025e-01) (168, 1.18937484920024871826e-01) (169, 2.60978695005178451538e-02) (170, 4.62972149252891540527e-02) (171, -1.12026438117027282715e-01) (172, 1.56416408717632293701e-02) (173, 5.60764558613300323486e-02) (174, -6.74810335040092468262e-02) (175, 4.09092344343662261963e-02) (176, -1.14121824502944946289e-01) (177, -9.21133831143379211426e-02) (178, -9.84386876225471496582e-02) (179, -2.83722649328410625458e-03) (180, 2.84650743007659912109e-01) (0, 1.29205060005187988281e+00) (1, 1.24024951457977294922e+00) (2, 1.27423393726348876953e+00) (3, 1.34194779396057128906e+00) (4, 1.28143763542175292969e+00) (5, 1.29002892971038818359e+00) (6, 1.22437405586242675781e+00) (7, 1.60116958618164062500e+00) (8, 1.66131341457366943359e+00) (9, 1.49786758422851562500e+00) (10, 1.33870255947113037109e+00) (11, 1.20679843425750732422e+00) (12, 1.35569643974304199219e+00) (13, 1.19131577014923095703e+00) (14, 1.28985214233398437500e+00) (15, 1.15319967269897460938e+00) (16, 1.24514269828796386719e+00) (17, 1.16865277290344238281e+00) (18, 1.28629529476165771484e+00) (19, 1.28487873077392578125e+00) (20, 1.22841393947601318359e+00) (21, 1.28622746467590332031e+00) (22, 1.17328321933746337891e+00) (23, 1.22453248500823974609e+00) (24, 1.16638588905334472656e+00) (25, 1.20296037197113037109e+00) (26, 1.23222303390502929688e+00) (27, 1.11192309856414794922e+00) (28, 1.11437582969665527344e+00) (29, 1.24185144901275634766e+00) (30, 1.05509495735168457031e+00) (31, 1.06576216220855712891e+00) (32, 1.17955338954925537109e+00) (33, 1.22869622707366943359e+00) (34, 1.04747223854064941406e+00) (35, 1.06224393844604492188e+00) (36, 1.11878561973571777344e+00) (37, 1.13353264331817626953e+00) (38, 1.06853568553924560547e+00) (39, 1.26328229904174804688e+00) (40, 1.26795661449432373047e+00) (41, 1.25448131561279296875e+00) (42, 1.08052992820739746094e+00) (43, 1.23420119285583496094e+00) (44, 1.25617635250091552734e+00) (45, 1.18089699745178222656e+00) (46, 1.06511414051055908203e+00) (47, 1.17939341068267822266e+00) (48, 1.24584662914276123047e+00) (49, 1.27537906169891357422e+00) (50, 1.21006810665130615234e+00) (51, 1.20229840278625488281e+00) (52, 1.07039642333984375000e+00) (53, 1.11371302604675292969e+00) (54, 1.09892737865447998047e+00) (55, 1.10537302494049072266e+00) (56, 9.92535829544067382812e-01) (57, 1.00396823883056640625e+00) (58, 1.27310204505920410156e+00) (59, 1.18350589275360107422e+00) (60, 1.11839258670806884766e+00) (61, 1.14375758171081542969e+00) (62, 1.24813592433929443359e+00) (63, 1.25671958923339843750e+00) (64, 1.26946401596069335938e+00) (65, 1.26666009426116943359e+00) (66, 1.28630685806274414062e+00) (67, 1.15366458892822265625e+00) (68, 1.14120340347290039062e+00) (69, 1.10006654262542724609e+00) (70, 9.35745716094970703125e-01) (71, 9.42470729351043701172e-01) (72, 1.08001601696014404297e+00) (73, 9.29547131061553955078e-01) (74, 7.42959976196289062500e-01) (75, 8.76298010349273681641e-01) (76, 8.53034138679504394531e-01) (77, 7.09556639194488525391e-01) (78, 7.69109487533569335938e-01) (79, 8.01233947277069091797e-01) (80, 8.58223080635070800781e-01) (81, 8.49360644817352294922e-01) (82, 9.02118027210235595703e-01) (83, 8.25108528137207031250e-01) (84, 8.28837811946868896484e-01) (85, 8.27465295791625976562e-01) (86, 7.56512641906738281250e-01) (87, 8.94292950630187988281e-01) (88, 6.80733025074005126953e-01) (89, 7.52570986747741699219e-01) (90, 7.74740934371948242188e-01) (91, 7.27516055107116699219e-01) (92, 7.60235130786895751953e-01) (93, 6.95852398872375488281e-01) (94, 8.39575707912445068359e-01) (95, 8.38563621044158935547e-01) (96, 8.99153828620910644531e-01) (97, 8.95550131797790527344e-01) (98, 7.83035457134246826172e-01) (99, 7.53872632980346679688e-01) (100, 8.66929948329925537109e-01) (101, 8.12430679798126220703e-01) (102, 7.65816450119018554688e-01) (103, 8.39047074317932128906e-01) (104, 8.39834094047546386719e-01) (105, 5.14688968658447265625e-01) (106, 6.01280748844146728516e-01) (107, 6.03682160377502441406e-01) (108, 5.99257349967956542969e-01) (109, 7.16674327850341796875e-01) (110, 5.29465138912200927734e-01) (111, 5.82974553108215332031e-01) (112, 6.83678328990936279297e-01) (113, 7.20621585845947265625e-01) (114, 6.00435853004455566406e-01) (115, 5.37233948707580566406e-01) (116, 5.82393050193786621094e-01) (117, 4.84565228223800659180e-01) (118, 5.43776392936706542969e-01) (119, 6.04526340961456298828e-01) (120, 5.76897203922271728516e-01) (121, 6.51355326175689697266e-01) (122, 4.63195234537124633789e-01) (123, 4.70042556524276733398e-01) (124, 4.81765240430831909180e-01) (125, 6.42249822616577148438e-01) (126, 4.94216322898864746094e-01) (127, 5.76007783412933349609e-01) (128, 5.15474736690521240234e-01) (129, 4.85473781824111938477e-01) (130, 3.83782655000686645508e-01) (131, 4.65669482946395874023e-01) (132, 3.81569176912307739258e-01) (133, 4.42955017089843750000e-01) (134, 3.90264540910720825195e-01) (135, 5.06832897663116455078e-01) (136, 5.09399771690368652344e-01) (137, 4.91133540868759155273e-01) (138, 3.89187902212142944336e-01) (139, 3.84714901447296142578e-01) (140, 4.72731053829193115234e-01) (141, 3.83578687906265258789e-01) (142, 4.36926156282424926758e-01) (143, 4.30307418107986450195e-01) (144, 3.79954934120178222656e-01) (145, 4.12319600582122802734e-01) (146, 5.41649997234344482422e-01) (147, 5.32306969165802001953e-01) (148, 4.58951592445373535156e-01) (149, -1.41445512771606445312e+01) (150, -1.40952577590942382812e+01) (151, -5.82559871673583984375e+00) (152, -5.77574348449707031250e+00) (153, -2.52980518341064453125e+00) (154, -9.31461632251739501953e-01) (155, -8.69005024433135986328e-01) (156, 2.50225216150283813477e-01) (157, 2.07911700010299682617e-01) (158, 2.22350314259529113770e-01) (159, 2.70722091197967529297e-01) (160, 5.39028882980346679688e-01) (161, 3.86002093553543090820e-01) (162, 4.24158781766891479492e-01) (163, 4.70585554838180541992e-01) (164, 4.47468996047973632812e-01) (165, 4.41469460725784301758e-01) (166, 4.06336039304733276367e-01) (167, 4.47109937667846679688e-01) (168, 4.18810963630676269531e-01) (169, 4.82501208782196044922e-01) (170, 4.55657184123992919922e-01) (171, 5.92038571834564208984e-01) (172, 5.67369818687438964844e-01) (173, 5.94343602657318115234e-01) (174, 4.52555745840072631836e-01) (175, 5.77318131923675537109e-01) (176, 4.36882406473159790039e-01) (177, 6.24778330326080322266e-01) (178, 5.41717052459716796875e-01) (179, 5.31237423419952392578e-01) (180, 5.84122836589813232422e-01) (0, -2.99311466515064239502e-02) (1, 5.77565021812915802002e-02) (2, 7.41820856928825378418e-02) (3, 9.60608050227165222168e-02) (4, 8.67445394396781921387e-02) (5, -3.43735478818416595459e-02) (6, 7.33685540035367012024e-03) (7, -2.29015238583087921143e-02) (8, 6.98256716132164001465e-02) (9, 7.51494169235229492188e-02) (10, 1.22170813381671905518e-01) (11, 1.27930641174316406250e-01) (12, -2.76973582804203033447e-02) (13, 6.90856948494911193848e-02) (14, 5.04399985074996948242e-02) (15, 9.46744158864021301270e-02) (16, -1.76174566149711608887e-02) (17, -5.68646416068077087402e-02) (18, -5.09823635220527648926e-02) (19, 1.00416034460067749023e-01) (20, 3.40848118066787719727e-02) (21, 1.04772165417671203613e-01) (22, 4.72553595900535583496e-02) (23, 1.49139920249581336975e-02) (24, -5.61819709837436676025e-02) (25, -3.89370322227478027344e-03) (26, 1.70279927551746368408e-02) (27, 1.01710371673107147217e-01) (28, 8.48705247044563293457e-02) (29, 9.65875685214996337891e-02) (30, -1.98063608258962631226e-02) (31, 1.17176905274391174316e-01) (32, 2.93729268014430999756e-02) (33, 1.29167079925537109375e-01) (34, 9.03065130114555358887e-02) (35, -2.10071168839931488037e-02) (36, -4.19848039746284484863e-02) (37, -4.42933328449726104736e-02) (38, -7.96033628284931182861e-03) (39, 3.32894399762153625488e-02) (40, 3.49463634192943572998e-02) (41, -5.14497868716716766357e-02) (42, 2.57947426289319992065e-02) (43, 7.47172906994819641113e-02) (44, -9.19200405478477478027e-02) (45, -3.11474595218896865845e-02) (46, 5.20984083414077758789e-02) (47, -2.54485793411731719971e-02) (48, -6.44311541691422462463e-03) (49, 8.09505283832550048828e-02) (50, -4.49230447411537170410e-02) (51, -9.05302539467811584473e-02) (52, 1.15703925490379333496e-01) (53, 1.17540910840034484863e-01) (54, 3.29886749386787414551e-02) (55, 1.22916102409362792969e-01) (56, -2.11386885493993759155e-02) (57, 1.19497045874595642090e-01) (58, 1.27904295921325683594e-01) (59, -4.93953078985214233398e-02) (60, 1.00199930369853973389e-01) (61, -2.73098479956388473511e-02) (62, -6.99506551027297973633e-02) (63, -2.11138706654310226440e-02) (64, -3.04144807159900665283e-02) (65, 8.74605551362037658691e-02) (66, 2.42048930376768112183e-02) (67, -7.24130962044000625610e-03) (68, 1.06080159544944763184e-01) (69, 7.89462774991989135742e-02) (70, 1.20234400033950805664e-01) (71, 3.59425321221351623535e-02) (72, 1.23595312237739562988e-01) (73, 4.18760515749454498291e-02) (74, 5.71363698691129684448e-03) (75, -6.95588290691375732422e-02) (76, 1.13613739609718322754e-01) (77, -3.65817286074161529541e-02) (78, -3.31709790043532848358e-03) (79, 2.39208683371543884277e-01) (80, 1.78385108709335327148e-01) (81, 3.03224533796310424805e-01) (82, 2.76675701141357421875e-01) (83, 1.82284891605377197266e-01) (84, 2.96207487583160400391e-01) (85, 1.59466251730918884277e-01) (86, 3.88917505741119384766e-01) (87, 3.64561110734939575195e-01) (88, 3.79620403051376342773e-01) (89, 3.82827788591384887695e-01) (90, 3.86740177869796752930e-01) (91, 3.52283209562301635742e-01) (92, 2.37109184265136718750e-01) (93, -4.83313910663127899170e-02) (94, -3.55664156377315521240e-02) (95, 3.42895835638046264648e-02) (96, 1.19973830878734588623e-01) (97, 8.55777785181999206543e-02) (98, 1.33167639374732971191e-01) (99, 9.90910604596138000488e-02) (100, 2.05689836293458938599e-02) (101, 1.04547575116157531738e-01) (102, -7.15298391878604888916e-03) (103, 1.10719865188002586365e-03) (104, 5.11235184967517852783e-03) (105, 7.29904174804687500000e-02) (106, -2.24823914468288421631e-02) (107, -6.81704934686422348022e-03) (108, 1.16381451487541198730e-01) (109, 9.46756452322006225586e-02) (110, 8.89582112431526184082e-02) (111, 1.44683226943016052246e-01) (112, 4.42591123282909393311e-02) (113, -1.43028786405920982361e-02) (114, 1.41534030437469482422e-01) (115, -2.80724782496690750122e-02) (116, -4.57308255136013031006e-03) (117, 1.43612012267112731934e-01) (118, 1.56755924224853515625e-01) (119, -5.49831520766019821167e-03) (120, 1.39621332287788391113e-01) (121, 1.56048834323883056641e-01) (122, 